{
	"biases": [
		[
			[
				0.8560567611109701
			],
			[
				-0.5598984243052494
			],
			[
				0.18134171700100324
			],
			[
				0.8816349529151668
			],
			[
				0.9271501420682852
			],
			[
				0.3391572884631739
			],
			[
				0.1319949937576593
			],
			[
				0.11621130288223354
			],
			[
				-0.709229159870118
			],
			[
				0.03682357856148636
			],
			[
				0.2763136188000594
			],
			[
				0.4324323936760012
			],
			[
				-0.6779910787988399
			],
			[
				0.3237991078464462
			],
			[
				-0.8615238230397847
			],
			[
				-0.857860775524361
			],
			[
				-0.8328252013022627
			],
			[
				-0.03433436605322182
			],
			[
				0.11850443140968421
			],
			[
				0.2958145252141618
			],
			[
				-0.1095217061567523
			],
			[
				0.5066498136436722
			],
			[
				-0.2087694084341163
			],
			[
				-0.6155178355806942
			],
			[
				0.8212406440346437
			],
			[
				-0.2909195092477932
			],
			[
				-0.2866153458791917
			],
			[
				-0.6866037301480978
			],
			[
				-0.3663321526932227
			],
			[
				0.5055011968459057
			]
		],
		[
			[
				0.048668759571900345
			],
			[
				0.7454126614452019
			],
			[
				0.18519121865911994
			],
			[
				0.15680057366708386
			],
			[
				-1.0081779665121615
			],
			[
				-0.5553769445606098
			],
			[
				-0.19067802236175993
			],
			[
				-1.606017201192423
			],
			[
				-0.48002876803108485
			],
			[
				-0.8728384119027378
			]
		]
	],
	"weights": [
		[
			[
				-0.7117936466616519,
				0.16567608774934417,
				-0.6205658348353831,
				0.9914453359102833,
				0.056626393416989274,
				0.5091626010298671,
				-0.2863021192569266,
				0.21609735304347444,
				-0.6998662060715861,
				-0.2933269907516429,
				-0.9695062816410736,
				0.9375569321931785,
				0.90218472955539,
				0.10800162993650408,
				0.5349872079512004,
				-0.7147683634611548,
				-0.18915414491643423,
				0.44691716887296806,
				0.29482498009253666,
				-0.9426817062298443,
				-0.12455366018437841,
				0.4202968066778334,
				0.02026659358485894,
				-0.5524879544824968,
				0.5009314930690638,
				-0.8510819814119226,
				-0.9792284471282229,
				0.35514433062121853,
				0.32535719901034144,
				0.3919897842956388,
				0.02020339189873921,
				0.8180181785286269,
				-0.9566162542674044,
				-0.32423405001799654,
				-0.47966291229270386,
				0.2275871738336992,
				-0.2909309807209479,
				0.48177242324354674,
				-0.1666090546097574,
				-0.43189963063085957,
				-0.6698917883098421,
				0.347390583843701,
				-0.4701569653033124,
				-0.8542886959067516,
				-0.42608418343712123,
				-0.38493255258949166,
				-0.30417393511900803,
				-0.08652559821503747,
				0.596016454167426,
				0.9704667527800979,
				0.7227574130213168,
				0.6422336150794576,
				0.947538376972271,
				-0.7693574450047609,
				0.44567646762288726,
				0.8777608110910053,
				0.23868935884699605,
				0.09568402245430407,
				-0.6588035247210966,
				-0.7708960802688707,
				0.21792759295867148,
				-0.11346563259818376,
				-0.8818627094969624,
				-0.5037821225301169,
				0.5567044998706776,
				-0.5606764123670964,
				-0.7863613946454509,
				-0.4372602881042198,
				0.5158458890238428,
				-0.25676317997864834,
				0.03556935769903706,
				0.13681630097535805,
				-0.8187039294078319,
				0.7502673915536313,
				0.31089484113020327,
				0.8484389917974018,
				0.5161131943637941,
				0.9514985902162896,
				-0.5024185157658887,
				-0.5057861757573696,
				0.6860020523291417,
				-0.4181204923696611,
				-0.013581447258740553,
				-0.8399440890275787,
				0.9815703568742755,
				0.11583146243927533,
				-0.7830792727491205,
				-0.3234507270752842,
				0.9058978517546934,
				-0.6557701639290681,
				-0.1992623350158893,
				0.8531291981946486,
				0.9771097799691429,
				0.19065870479682648,
				-0.009401761226956337,
				0.9983834017905333,
				-0.026598383385948065,
				-0.9325943700742403,
				0.8785771458044267,
				0.46308198166558695,
				0.23513101487562865,
				-0.5629278679725402,
				-0.43839112596786034,
				0.09513790583479975,
				-0.11015989645604311,
				0.35305310600594586,
				0.1181409451837081,
				0.3192615083618868,
				0.8448773841863706,
				0.938654469932541,
				-0.19765648277512815,
				0.8669999833219202,
				-0.2586439130516247,
				0.4714559769306459,
				0.7886153337882051,
				0.46775354802532965,
				0.8739457262628842,
				0.033182339753687756,
				-0.4762090851908771,
				-0.2715175803895449,
				-0.8381435082191153,
				0.9951557304343177,
				0.7143734361538052,
				0.5776443142945071,
				-0.9785664524943869,
				-0.04772767066826726,
				0.8091774943901276,
				0.6311889658726484,
				-0.6835673732646449,
				-0.4623038706927704,
				-0.9015781314922734,
				0.6162582870817435,
				-0.838879120971365,
				-0.32563035981572536,
				0.2557536750492878,
				0.7232553169235872,
				0.6516388600432398,
				-0.2400151573020346,
				0.27773449700346653,
				-0.9605208071732334,
				-0.08415509832574308,
				0.7284819134675322,
				-0.7249237931652095,
				-0.4591734309076516,
				0.7514148008668102,
				-0.8703553425799201,
				-0.009503450765045928,
				-0.9115536629195718,
				0.46089728491036897,
				-0.19678643266756982,
				-0.3290245063950814,
				0.08098707564967529,
				-0.33846413755353344,
				0.407858241278362,
				-0.13137167308216735,
				-0.5068491693251966,
				-0.1029666406684122,
				-0.8096912939046056,
				-0.7691569118327742,
				-0.20486650787815758,
				0.13877308116059098,
				-0.008988782491143738,
				-0.4552310362088525,
				0.27827240606547626,
				0.03376591863174353,
				-0.09941686836024896,
				-0.9663810957507017,
				0.3690611370804704,
				0.026612673339107662,
				0.014330698463461466,
				-0.5592527864125794,
				0.30359118318088685,
				0.8056948911997979,
				-0.661652561170424,
				-0.13442199713451763,
				0.6881214854104164,
				0.08044102306588784,
				0.013401213949473453,
				-0.680381171537381,
				0.033141828810422075,
				-0.39656454310658856,
				0.15813882149548814,
				0.5782719442146733,
				-0.45368071320445097,
				0.34667255440618905,
				-0.8350959262583306,
				-0.6958038563338639,
				0.3638189081711537,
				1.0075550237597253,
				0.8890655672788035,
				0.400893585527672,
				-0.291526246060242,
				0.029728551051952806,
				0.04347268519126723,
				0.47175269874839953,
				-0.3401229693396979,
				0.47025135519020544,
				0.5395287533520134,
				0.951384169776611,
				-0.7018368090598663,
				-0.8935358212492751,
				-0.6943413808421769,
				0.17215967180932504,
				-0.4676280027897978,
				-0.6182304311357287,
				-0.7859844764360637,
				0.7732426091012221,
				0.8568380756401094,
				-0.8063354293478896,
				0.9260737700707745,
				-0.3300032809713895,
				0.8452047562509989,
				0.5618635148250964,
				1.0808970910271478,
				-0.2381560757818734,
				-0.5228379674882091,
				0.4766531656774233,
				0.4895588937799004,
				0.9367042072353577,
				-0.2592706177837448,
				0.21498054453046817,
				-0.05818428635788205,
				-0.20708309362622604,
				-0.3697802180823979,
				-0.9262108746711313,
				-0.7377327597259211,
				-0.2993890666432395,
				-0.30425240990518376,
				0.774507093058477,
				-0.8271894373386427,
				0.24693998977560916,
				-0.06258486035329004,
				-0.28962791242104635,
				0.38819349162421884,
				0.22961521864740053,
				-0.5034861518721401,
				-0.8298164921742841,
				0.6271224961295072,
				-0.17430764802415719,
				-0.7601404563344759,
				0.4590796445113214,
				-0.5832137708154483,
				-0.2710119815968518,
				0.1542101081636164,
				1.0108356641675162,
				0.330483999837559,
				-0.7425247902819855,
				0.12523019616146322,
				-0.17582406724358382,
				0.6475006669471189,
				0.1206066861309847,
				0.8851606132619287,
				-0.6049728285192013,
				-0.988296414626219,
				-0.9066170494095592,
				0.17203005864928245,
				-0.1584307553688411,
				-0.2688269063877095,
				0.8957855894285768,
				0.9323812506207724,
				0.9156548558231277,
				0.4638614535486146,
				0.6062611612729201,
				0.16596537720018936,
				-0.0227774709996877,
				-0.15948191036441817,
				-0.5473495657235121,
				0.38928915845608203,
				0.5971762247939666,
				0.9366921139763817,
				0.6717865537978865,
				-0.3223358911709783,
				0.7627073669038889,
				0.4550759867527522,
				-0.13557042209395576,
				-0.14828256478439347,
				0.9820296962357126,
				-0.7580846363197867,
				0.035379492660875034,
				0.12074465825715697,
				0.9757020340760465,
				-0.9569641192309256,
				0.44554674916988474,
				0.4546172241557822,
				-0.8649571010730399,
				0.7639968490340653,
				-0.9190274688793746,
				-0.7203538973546086,
				0.1441880827791189,
				0.4793612434732089,
				-0.7592932024252953,
				0.4022163935403634,
				0.9991254225489363,
				-0.3946087984646105,
				0.1487882076554611,
				-0.5871915660084039,
				0.2544825661634758,
				-0.21045617475169495,
				-0.05944653553190904,
				0.7172131470083444,
				0.7152907670103423,
				0.1148798381500946,
				0.9023514175660422,
				0.0868040514713416,
				-0.9824188974253641,
				-0.5983349508568206,
				-0.2233638230620567,
				0.7453028450378145,
				-0.5107322356691699,
				0.5697139686250705,
				-0.2597942472041022,
				-0.34150418047894043,
				-0.06945581923441245,
				-0.7033937683008814,
				0.6271353233579468,
				-0.6047421910012062,
				-0.7822149997958756,
				0.9429159305986367,
				-0.5580608903386204,
				0.7084723022092527,
				-0.2755871211588901,
				-0.10412842525152238,
				-0.5311506506657813,
				0.13728589264745913,
				0.8082068435459383,
				0.21866989519069158,
				0.9171330660016165,
				-0.6076813062926225,
				-0.19975638767239082,
				0.8114352536694308,
				-0.6647908704532102,
				-1.0157906655816455,
				-0.6869350694554568,
				0.924621058753216,
				0.46607492794354144,
				0.4605644917293339,
				-0.8977231805613637,
				-0.9861139214149297,
				0.6729623906382843,
				-0.12387577313803681,
				-0.6667085143767416,
				0.7560506835505635,
				0.9326401248208788,
				0.8598594335922426,
				-0.7822048684726407,
				0.8186078609776575,
				-0.9276787526607922,
				-0.6927665401080179,
				-0.9817846988191107,
				-0.4821001074988848,
				-0.4934631394151495,
				-0.34464775705032863,
				0.39623021058906394,
				-0.14740723332175035,
				0.3357008298313519,
				0.2788748147820866,
				-0.21385411636816057,
				-0.6679458313478636,
				-0.8381170540977844,
				0.7190288726606493,
				0.30443275716306406,
				0.08337921031069717,
				0.6511058629436821,
				-0.9655746755092895,
				0.12885848014802193,
				-0.8817769306502972,
				0.6296547728865179,
				0.4717128620651594,
				0.685269810100111,
				0.7288185178392744,
				0.9646598983394904,
				1.0235672738112855,
				1.0736303965461371,
				0.12273859223409452,
				-0.14478089821180648,
				-0.503558169617389,
				0.2825109947172675,
				-0.21105479827022838,
				0.7967340155855348,
				-0.07647240909598967,
				-0.5600398745766392,
				-0.8771625132901486,
				0.05794673988151847,
				0.8928100157151119,
				0.8336469266905273,
				-0.8087008688073909,
				-0.20747248601421997,
				-0.3028360301942508,
				-0.5794058487874065,
				0.1861607430888853,
				-0.057906126692651494,
				0.910773023257121,
				0.8491405694025298,
				-0.4011545306198596,
				0.07070098576987949,
				-0.0480676313512034,
				0.5153282080635471,
				-0.6739333924081181,
				-0.06035936253941451,
				0.3702520769539268,
				0.5107007989060572,
				0.8383935389053975,
				-0.8817194663225261,
				-0.5864954004582503,
				0.8019277313579215,
				-0.8780101705011891,
				-0.6201635697230784,
				0.4513205721925598,
				1.0131211044696515,
				-0.8430756598443924,
				0.09035540592243485,
				-0.810801460412791,
				-0.1913224403818569,
				0.629995136607634,
				-0.9951260745231354,
				0.33145394237325904,
				-0.5528061896852656,
				0.7825226784497883,
				0.972181602016442,
				-0.52909591728013,
				-0.9689679740805546,
				-0.13770380874668575,
				0.42343708121336343,
				0.7243333304819284,
				0.12430048713618334,
				0.5663187397973699,
				-0.5299207838048149,
				-0.314225004580613,
				-0.5433189812167375,
				0.2555115804757184,
				0.4253056920536237,
				0.1884804440331003,
				0.3085762885845581,
				0.5368317042373052,
				0.4024156217425342,
				0.7347608235429672,
				0.025998389715834024,
				0.7687112825602224,
				-0.2194861203544884,
				0.2921282895679247,
				0.12762835338515066,
				-0.6796756263459972,
				0.041243665782474195,
				-0.30906081012059894,
				0.8415998503370207,
				-0.025537231078230693,
				-0.5745307581196597,
				-0.7502826684772543,
				0.5830162489537014,
				0.9995098950324945,
				-0.3129191658193329,
				0.5438836597839726,
				0.46342209782320887,
				0.368072286744903,
				0.8213446609491312,
				0.33594613198424444,
				0.5890576975984366,
				-0.24479512362753983,
				0.09951104863241154,
				0.6915754578006241,
				-0.1856656036847113,
				0.944332501530494,
				-0.6831904828515931,
				-0.33728042084339405,
				0.3091682712650657,
				-0.8428575174548939,
				-0.5105127997404585,
				-0.23879308752327733,
				-0.09068424955579078,
				-0.6282953169167442,
				-0.32351418307145063,
				0.5167778411619097,
				-0.8225176197061125,
				0.998452321483648,
				0.5808692260817971,
				0.29094603241507944,
				-0.7386314327065233,
				-0.6683009143618257,
				0.896057456692988,
				-0.4896109051124528,
				0.6619258606096681,
				-0.46041443408034916,
				0.4281781511673855,
				0.30518216195854303,
				-0.6448036162888312,
				-0.6605914691584179,
				0.3129797897201103,
				-0.34174774800069224,
				-1.008856951967845,
				0.21088488289631163,
				-0.38336205325242306,
				-0.8317434505994542,
				0.8201802988143697,
				0.056241600022950373,
				0.12947643992936916,
				0.07442287300686129,
				0.5934124445094543,
				-0.43276310176352334,
				0.22903091691898916,
				-0.49348835149573617,
				0.47592207441591644,
				0.45296199222708955,
				-0.8050041529173826,
				0.9552576784597466,
				0.2641041816665357,
				-0.909475707092203,
				-0.6981053663286602,
				0.6870764151665184,
				0.5883214050757916,
				0.7048443825569473,
				0.3081967478453617,
				0.906340692957874,
				0.3221344241637537,
				-0.07704776409766945,
				-0.25273276984601545,
				0.19787025795371227,
				0.8124074650940739,
				0.6411268994708819,
				-0.5957384568393308,
				1.0233568025020041,
				0.802000023345966,
				-0.2997910372326746,
				0.5095612594345769,
				1.0219354961042675,
				-0.5679854820570731,
				1.0858307458994676,
				-0.3562471703771267,
				-0.7266218236901861,
				0.23514901786885775,
				-0.842166027584647,
				-0.1536088354798144,
				0.8429479932863915,
				0.6316380025701682,
				-0.6485440234993569,
				0.30876512999574257,
				0.1360139272182618,
				0.3607062804655597,
				-0.08568808648300923,
				-0.1875540114180058,
				-0.6672696880310388,
				-0.4440724498647598,
				0.2692554011694258,
				-0.9411694552317049,
				-0.5095358888167171,
				0.5493263882852278,
				-0.6168499053291487,
				-0.8367674834033166,
				0.8426164960750859,
				0.7413955687196044,
				-0.4671803770256805,
				-0.10300921846021273,
				0.8395336225618265,
				-0.1955855562490276,
				0.256153924171881,
				1.0246364667010037,
				-0.1251117338133616,
				0.1533292660755095,
				-0.4131958044071143,
				0.44775655783843993,
				-0.593783427968614,
				0.8233415388988794,
				0.31919505213002886,
				-0.5516319176002686,
				0.702608715358636,
				0.6633665041146865,
				0.7567388691357974,
				0.6413937646056075,
				-0.8951199663931271,
				-0.14090413639576638,
				-0.29630701270394005,
				-0.7136520196897992,
				-0.8750980429800536,
				-0.2454084896702133,
				0.4044649735160816,
				-0.15836546833376328,
				0.48351403057095316,
				-0.291620892954426,
				-0.463812576470639,
				-0.7551466419877416,
				0.9566578923698927,
				0.8837045985262507,
				0.8168277617115808,
				-0.9052795081413855,
				0.6562618704958925,
				0.5396720838127976,
				-0.6482469486541655,
				-0.2818203788484275,
				0.19199165259345596,
				0.9895423042535096,
				-0.5371536401055819,
				-0.3349364324626616,
				-0.009912434367434634,
				-0.8986855769235516,
				-0.5385978013344954,
				0.6555352439610734,
				0.2817758241599597,
				0.9012120943116552,
				-0.9128559231979007,
				-0.23146277888194824,
				0.562352870652396,
				0.7945725601843966,
				-0.6081692380445961,
				0.7126228435539345,
				0.6415131354805891,
				-0.8540494685583988,
				0.5246150590498353,
				-0.6423359543078818,
				0.2603312480152201,
				-0.18393567341024444,
				-0.5666837161915327,
				-0.27377981617801334,
				0.13874069924036997,
				0.5956422731465316,
				0.6142997286231,
				0.7047014034270931,
				-0.9625081906631854,
				-0.43327715958620194,
				0.3539677125250851,
				-0.13208978594402063,
				-0.28067588230085744,
				-0.1422774706687186,
				-0.08031928977685349,
				-0.30540394047259195,
				0.23687577433940718,
				0.760928815913189,
				0.5974465158752558,
				0.6371921511650638,
				-0.6294227965486028,
				-0.13710768255688074,
				0.8848426100355578,
				0.3625320515734451,
				-0.6707717965928525,
				-0.297954076190236,
				-0.7320467401653329,
				-0.22922219257605378,
				-0.9079128121276708,
				0.6261081410686572,
				0.3892166180147266,
				-0.3388255187353956,
				0.11341528162989695,
				0.3449877592126365,
				-0.13848690051891,
				0.4752223507603226,
				0.13535194281629082,
				0.6134016131702844,
				-0.2923652226563145,
				-0.3501477761860179,
				0.33662020134961157,
				0.8435590563771783,
				0.8065392649240865,
				0.6656508324709111,
				-0.42691689218098405,
				-0.7208716570889981,
				0.9810202370114419,
				0.09070064487332184,
				-0.750819403063051,
				0.34373089310044086,
				-0.22626145305696985,
				0.4269975721575615,
				0.9993446055720787,
				0.6330950527918393,
				-0.13985762341181623,
				-0.49985392224063563,
				0.82060476807221,
				0.9116155661220492,
				0.4183739034141857,
				0.32160662905935655,
				-0.5775319904306133,
				0.45800145355513244,
				0.5538366474241974,
				-0.37310334384299493,
				-0.5698459926108184,
				0.3548759832049715,
				-0.45017032149002434,
				0.8508990239078775,
				-0.0626970104709712,
				0.6466573470418657,
				0.09563765791444213,
				-0.3969449729282482,
				0.667279982080577,
				0.9041943657776753,
				0.9312939448384875,
				0.3540656756672365,
				-0.05416644773180497,
				0.4257339611683353,
				0.4708777413738523,
				-0.6533215535601856,
				-0.18605238624775647,
				-0.9402747232928179,
				-0.6537045272718147,
				-0.4592011832870932,
				-0.8054521639464582,
				0.19747001361781238,
				-0.1507934744081927,
				0.8893187341779257,
				-0.5657623559036944,
				-0.25922415051981895,
				-0.42971917751285194,
				0.48184796691324516,
				-0.2564546800469487,
				-0.8842304811349102,
				0.6004598392469589,
				-0.7872807055984099,
				0.4922682251880732,
				-0.05566770096536219,
				0.15330773527709157,
				0.30474258608964283,
				0.9960456440879709,
				-0.7018712734299998,
				0.590419042141233,
				-0.791138453804201,
				-0.6194465717537502,
				-0.8946986953062861,
				0.94705633007749,
				0.1882832680804135,
				0.47323735405763084,
				-0.005846200906075037,
				0.2267754964358218,
				0.8181399817311454,
				0.2733262235298278,
				0.5171737031713911,
				-0.5770595252085111,
				0.6191759671360715,
				0.5942357084105656,
				-0.10865652931696745,
				0.6049072382045124,
				0.4027826293238981,
				0.23557298636870838,
				0.49040696311218657,
				-0.14913316451369152,
				-0.2735670931039804,
				-0.2748735136165545,
				0.42866297331245184,
				-0.5763864821940438,
				0.8363229171371139,
				-0.9724270029168858,
				0.7150541614569934,
				-0.8579909993752562,
				-0.9748768331293172,
				-0.21998395063034396,
				0.7036770603798811,
				0.9236000782720892,
				0.9022960090162712,
				-0.8709611403483234,
				-0.3346671216238464,
				-0.11898994850167918,
				0.2618200098728905,
				0.6331982901346027,
				0.6019099423340974,
				-0.7220433335787106,
				0.5587838423225868,
				0.9255321209231759,
				-0.1282747349827229,
				0.8397926167697412,
				-0.5429419904860171,
				-0.8558607806482321,
				0.2230613304387461,
				0.9090591271719379,
				0.29414146190438206,
				0.012687878728484758,
				0.9956211704549167,
				0.6855346338011916,
				-0.17272861627845026,
				0.34180232055172066,
				-0.9406435457292894,
				-0.394650476796119,
				0.5529848330611125,
				0.1170667038865596,
				-0.9872859298175714,
				-0.6649512550818129,
				-0.6596207390780175,
				-0.9386765367809855,
				-0.33625047227293164,
				-0.4368917625368995,
				0.9711117776562106,
				-0.045426780432582525,
				-0.8953620662730488,
				-0.060056722371288895,
				0.7008770830800977,
				0.2184498893713398,
				0.8265543192237068,
				0.6867026339056643,
				-0.39976253523944427,
				-0.9629887157277279
			],
			[
				-0.0739719316925398,
				0.09254235396929689,
				-0.6606600406856415,
				0.017862524191452955,
				0.5958374887702091,
				0.0463929690503484,
				0.730059111560275,
				0.6555851593454332,
				-0.5850510841576262,
				-0.4692709741199752,
				0.9593192578531018,
				-0.7397223345635173,
				-0.34601716294925744,
				-0.30741711258345106,
				0.3392652480512539,
				-0.1744902075705097,
				-0.440039530579893,
				-0.5892562378591326,
				0.7151725029235982,
				0.2394280930444883,
				-0.7411768553618585,
				0.880844941191262,
				0.9256851612282051,
				-0.24046475172383142,
				0.9589637991380799,
				-0.8402599191720448,
				0.6020362782425597,
				-0.21045907711358947,
				0.22024202375619373,
				-0.45274834297949296,
				0.3637166014211859,
				0.2559987049829706,
				-0.5962564432895197,
				0.8508277730882754,
				-0.5144151578417211,
				0.011057444350926371,
				-0.30835369482960884,
				0.7423431807277256,
				-0.4725772783421176,
				-0.24270535219177614,
				0.8760215451802842,
				-0.5625037891765342,
				-0.7123958578614789,
				0.26138315331654893,
				0.1686287720005777,
				-0.41000429412554684,
				-0.4287820207206319,
				-0.32058653420072414,
				-0.13968923082766604,
				-0.1710449051386176,
				-0.08557807781438287,
				-0.9238367099221292,
				0.5986129533852496,
				-0.1383410984198461,
				-0.5214792287275403,
				0.031082944708978655,
				0.5881868607066223,
				-0.6977038058265843,
				-0.06316519105489427,
				-0.13127240012497232,
				-0.01190960609999081,
				-0.3344517317068654,
				0.21473189815285432,
				-0.14966174197933402,
				0.29769988282507454,
				-0.24230526652331985,
				0.9797759645318447,
				0.5241894372548006,
				-0.6280231437275647,
				0.7551248098036759,
				-0.7276774101981965,
				-0.5206470018169947,
				0.2921551338130993,
				0.8256656505958008,
				-0.15190179512631202,
				0.42504235641847415,
				0.8841370690292057,
				0.3918031485860749,
				0.4803774350253667,
				-0.4123215082556415,
				0.5977128148042219,
				0.3128340439218369,
				0.08990979782566644,
				-0.4450927365551425,
				0.2043079436462909,
				0.7862723114298977,
				-0.28035877761224537,
				-0.5791108022302689,
				0.6705002792831438,
				0.8170097502391207,
				-0.7400336458045977,
				-0.35448386510211066,
				0.20001676242288935,
				-0.6625542251272044,
				0.5091306423332443,
				-0.39143185350302295,
				0.14712858678139118,
				0.08348067604529864,
				0.24556014373410193,
				0.8812339184241703,
				-0.03863257623568482,
				0.06995766321168533,
				1.1103283871544642,
				1.1296840549326779,
				-0.7167640075010459,
				0.10238058837421497,
				0.5697759503854717,
				-0.9789062362765706,
				-0.43088652666956717,
				0.5789712630973298,
				-0.5287109000164407,
				-0.14673518086611592,
				-0.7365908196039643,
				0.27350855994936385,
				-0.49400657660080194,
				0.5847262879310593,
				0.9078217659592029,
				0.31125223484133696,
				0.20782582035168515,
				-0.7899771227648735,
				0.22736815267906574,
				0.4588824955989101,
				-0.9192666252399389,
				-0.791339659371216,
				-0.8192801664676881,
				0.30694933420392734,
				0.08465197216314659,
				-0.6690049649299924,
				0.3395266937536536,
				-0.7201279186133591,
				0.012438855572416483,
				0.14864304081676327,
				-0.6226295743053499,
				-0.18987974234816624,
				0.7992399742516537,
				0.697988813484301,
				0.21624651980287313,
				-0.856869241890585,
				-0.68855493608479,
				-0.5422709173712126,
				0.6088768918379572,
				-0.3032152418473135,
				-0.1385165635496941,
				-0.030213421350975267,
				0.040311474260433196,
				0.1786851998526505,
				-0.8582983845267199,
				0.6401878532383724,
				-0.7036292112415935,
				-0.7435406388532042,
				-0.059622843901283376,
				0.04482475006067791,
				-0.9033573502853077,
				-0.7148731285757984,
				-0.6654318722662075,
				0.5400732769090105,
				1.0664069344896538,
				-0.3497617170447841,
				0.021777447017589904,
				0.12258062854431964,
				0.7947617310999598,
				-0.19402192870074114,
				-0.5611693602107469,
				0.8630247892080822,
				-0.6679289098229528,
				0.27079869828344827,
				-0.005580386438391677,
				-0.24948538125102315,
				-0.5540227503079125,
				0.360499694359675,
				-0.4725410548398763,
				0.6652510738099293,
				0.5334417621995035,
				1.000367066519906,
				0.27307705028512835,
				-0.6055190195146052,
				0.8689611904074662,
				-0.11859548445750001,
				-0.6113970671399244,
				-0.48388508609316394,
				-0.490565191512523,
				0.021374581162072265,
				0.11727910743503135,
				0.37288939200807775,
				0.6646385146368066,
				0.9270631826112069,
				-0.8882498488725975,
				-0.6944731457998202,
				-0.4103047011856779,
				-0.6166574278752801,
				-0.35007038011924424,
				-0.49600012032149576,
				0.7512201736507023,
				-0.24383563199291267,
				0.7173982986385692,
				0.7856854352548504,
				-0.8681895700713538,
				0.5470050915296603,
				0.697614511146778,
				-0.42564627193659543,
				0.5483307923276509,
				-0.6370516907202379,
				0.6702044005035172,
				0.7237329773926546,
				0.758797981591442,
				0.06833470055838052,
				-0.35733923388863414,
				-0.7976069287018592,
				0.4302471980533113,
				-0.4513610410130154,
				-0.8941420905900322,
				0.7852226589845194,
				0.05642300415566504,
				-0.5148974916077798,
				-0.4527304371224432,
				-0.50784637386233,
				0.4412623778068012,
				-0.772269710299668,
				0.7261500002679403,
				-0.15636217710562217,
				-0.5141142661415475,
				0.7010586772571699,
				-0.4503024577510429,
				-0.5896137193392552,
				-0.5462808233370455,
				-0.5436717976204837,
				0.83252001752807,
				-0.6316279953893484,
				0.6049951990227038,
				-0.2361330099994111,
				-0.8844150403192946,
				-0.36774582740329353,
				0.757852574252525,
				0.17574205856381525,
				-0.8519253217147538,
				-0.029049212457640444,
				1.017009594415865,
				0.8688224112056562,
				0.39953512184326834,
				0.3672238308723249,
				0.5083575986834672,
				0.43580061485083427,
				-0.8814535386853788,
				0.7289069552713693,
				-0.025735601212307398,
				0.7530073527152225,
				0.378372657497584,
				-0.018642077944984226,
				0.9127047920445878,
				0.12594519762046044,
				0.9790517439201529,
				0.6345857540379303,
				0.28842429862679175,
				-0.14877919751972268,
				-0.23300215992893597,
				-0.8158956868468076,
				0.25002902725919157,
				-0.8287326507551424,
				-0.6036924831615287,
				-0.9355603101377218,
				0.9096306839998212,
				0.6828117336081554,
				0.5744862268852364,
				0.5386245658781309,
				-0.8490528991628995,
				-0.4343121078317586,
				-0.6674760900816539,
				-0.901131824774391,
				-1.1137682064256715,
				0.4077265099580778,
				-0.28789880567938586,
				-0.6196974580963737,
				0.024037197876371773,
				-0.9609691951138861,
				-0.31540452169882166,
				0.21753982925017493,
				0.15097228668856189,
				-0.4327690961324887,
				-0.3209091913906986,
				-0.6157914073767397,
				0.42688509812906483,
				0.057617905743328916,
				-0.14935270400984543,
				-0.08246956846169698,
				-0.6283400287302808,
				0.9184764991137134,
				0.7586752076678246,
				-0.15523852615732836,
				0.037595697065032053,
				-0.3503609191074756,
				-0.20412880477479475,
				0.3901603927607234,
				0.29560964351528085,
				-0.2337439796160546,
				-0.41788771855731327,
				-0.4174432880242092,
				-0.6736562373915748,
				-0.1586718327198341,
				1.0600210562942591,
				0.37811037066999076,
				-0.722040514352385,
				0.7303459670373064,
				-0.44377569155946234,
				-0.9960385559447934,
				-0.9464146196866727,
				-0.30837373626027137,
				-0.7369943122862169,
				0.13680643667699321,
				-0.9500093137258183,
				0.3527163889108613,
				0.24114918101607064,
				-0.1727288603081077,
				-0.017074694189781935,
				0.4625480591602063,
				0.48236429729859626,
				-0.34718734065112095,
				-0.8513982896382809,
				0.6118388039886783,
				0.03755411114249116,
				0.39984857180359756,
				0.3072382197345609,
				-0.5691424982576381,
				-0.30068953641124774,
				0.754172922472171,
				-0.820640812895544,
				0.41899655294196775,
				0.05991065216975777,
				1.1227942967661655,
				-0.5127505816293589,
				-0.32515998059597306,
				0.2548437994665454,
				0.19324731033638765,
				-0.7692703633828659,
				-0.46477407065481896,
				-0.1964218064553349,
				0.980149821424058,
				0.8824109210030593,
				-0.6720558874378715,
				0.3583252372414645,
				0.2732059178928867,
				-0.4454761826190468,
				0.9851985336119397,
				0.46562618442508247,
				0.5788019105145207,
				0.012936522047471706,
				-0.5301868134251406,
				0.5364485092614272,
				-0.2915303617154621,
				-0.7705360187238955,
				0.44033488220142697,
				-1.096034270992647,
				-0.034652924000570955,
				-0.041269468398869615,
				0.001053217580277197,
				1.174889764277369,
				0.89748208746571,
				1.0736191409562201,
				-0.832376945625559,
				-0.21623085862395938,
				-0.7476106328948873,
				-0.23925592991717193,
				0.01318832176861113,
				-0.6844019976913183,
				0.5081428499582956,
				0.05437315865361336,
				-0.9981213263263631,
				-0.7549192053217757,
				-0.988639669028918,
				0.5696909298548125,
				0.23894061014732093,
				0.41141953917662605,
				-0.7176564529297702,
				-0.48211366626444246,
				-0.04361714836827467,
				-0.34292612115364673,
				-0.09430214928183155,
				1.033751533943419,
				0.37884873797191126,
				0.042668646469207136,
				-0.47616705234827383,
				0.5238542006717581,
				0.7619262004384648,
				0.2053830416109587,
				0.911723166675058,
				1.0618287667980555,
				-0.5765226718193067,
				-0.17434130116715332,
				0.48055725875615196,
				0.37819135574812124,
				-0.1808277215887976,
				0.6264074096012546,
				0.2669380095425331,
				0.9571308781061516,
				0.2655593355108046,
				0.8980229306546503,
				-0.16232492766014392,
				0.6893533509165191,
				0.3778417008537532,
				-0.49517563442055434,
				0.8447750750254847,
				0.5608141721648652,
				0.5264598744185346,
				0.7199701146768853,
				0.04854987116714199,
				-0.18130642376801737,
				0.6387614770726733,
				-0.4853624001589061,
				1.0430799786202822,
				-0.5200146976111226,
				-0.024358046077527895,
				-0.8986194116093423,
				-0.04950450817342267,
				0.6787382902268904,
				-0.8899993415928941,
				-0.11812609770046183,
				-0.7070110535558264,
				0.8484534073586468,
				0.3225533866649178,
				-0.2252615640080773,
				0.7510270146484648,
				0.553565434823549,
				-0.5032013484969782,
				0.0642953947416176,
				-0.007714940937557392,
				0.8483853359935309,
				-0.04868481798045898,
				0.48499827355081404,
				0.7163626467356606,
				-0.8767462640323421,
				-0.23500608506389795,
				-0.6452778247563263,
				0.0895401366626769,
				0.49901534355686195,
				0.8666015050785436,
				0.8314919973337045,
				-0.5272388782405562,
				0.5784452485954984,
				-0.1561631690513677,
				-0.10597849309119206,
				1.0864297089656314,
				-0.290966671215556,
				0.5031202017350949,
				0.43859925108573716,
				0.020449120951589295,
				-0.20053625884007878,
				-0.2902651773269198,
				0.9042716039048764,
				-0.779594063460995,
				0.4339238846921809,
				0.9906002547611266,
				-0.7307114241412962,
				0.1822694585499602,
				-0.24410143224741027,
				-0.8525530624709399,
				-0.8311129505955337,
				0.12846653469072228,
				0.7593445331861738,
				-0.074985746191984,
				-0.36988558518816994,
				0.31034608603644503,
				1.1197348536876275,
				-0.1945401381306489,
				-0.8937313989771093,
				-0.7355418154209228,
				0.23241174502054524,
				-0.3247408446346374,
				0.7487412116913942,
				-0.015533803354635377,
				0.02583850458661293,
				1.0187030661496355,
				0.9070397222071431,
				0.6423824559739205,
				0.8458497489308777,
				-0.003409474305554383,
				-0.6372934809185393,
				-0.8678926448256594,
				-0.6185381810211932,
				0.46234885321992536,
				0.44227774581623436,
				-0.2780089613547509,
				-0.9682424571213163,
				-0.4024361497559231,
				-0.46091133574211013,
				0.0776101416913368,
				0.7548047849371352,
				0.7657496529526666,
				0.1499676725259575,
				-0.15096713825331848,
				0.9351716058347217,
				-0.9394625135702256,
				0.20033061940622765,
				0.8396064014338491,
				0.9389957064983646,
				0.8906163072680581,
				0.5776785060964893,
				-0.2578036816457223,
				-0.27504664331957324,
				0.31826970471707855,
				0.990618133429344,
				0.21329450576283995,
				-0.2166700656416337,
				-0.8608145166476064,
				-0.05564564739708722,
				0.21322720115250204,
				-0.9863319677058158,
				-0.3234529353108049,
				-0.642828713438854,
				0.8839623674378477,
				-0.41997556820431925,
				-0.36442968452724384,
				0.6558128263398303,
				0.5734080852739231,
				0.11115255045772515,
				0.6458617142512122,
				-0.14982727495608053,
				0.705677620484646,
				-0.4707978474160969,
				-0.49398777628158547,
				0.5380934056506542,
				0.03893154670232206,
				-0.5047079972417491,
				0.017873725419736253,
				0.8683951651466326,
				-0.6108681901582874,
				-0.7519513059489902,
				-0.0774791766071822,
				0.9466248373695693,
				0.7945837244801504,
				0.8130317117877786,
				-0.23471364143688955,
				-0.5228540956223617,
				0.11435480537179776,
				0.11460763309438171,
				-0.11910236796666718,
				-0.07040636860459948,
				-0.897372865963391,
				-0.808809293308291,
				-0.2371512978967507,
				-0.8976928175191337,
				-0.7116628393171837,
				1.0125884520824149,
				0.4937623387150067,
				-0.21534815885168962,
				0.23773280737207175,
				0.16650017223540595,
				-0.8763293598146624,
				0.07802617673136933,
				0.5435245952707042,
				-0.027380977763539104,
				0.5672289157509666,
				-0.2781924935408067,
				-0.4800009794467853,
				0.7759409289423628,
				0.2469247380945921,
				0.6183434722197154,
				-0.7652186115128727,
				-0.12498350522904604,
				-0.3337888485324907,
				0.6701169106457336,
				-0.8434089264769891,
				-0.5836105474336093,
				0.26831853346637224,
				-0.4275427119987629,
				0.4543094951733679,
				-0.9490785729093559,
				-0.999194426592802,
				-0.37889920176867004,
				-0.6200569039660397,
				-0.8573856629523109,
				0.25938104340927687,
				-0.17719382927034483,
				-0.2078907103533105,
				-0.12328618030841038,
				-0.6309134485088671,
				0.6116080643877538,
				0.5983273988136225,
				0.49592732145222673,
				0.215704598631801,
				0.3623803820741985,
				-0.8540477845337688,
				0.3299877911052981,
				-0.8290725309638494,
				0.7286869741221071,
				-0.34508453739890166,
				-0.9381633010151302,
				-0.7965985220212263,
				0.7038882409276694,
				0.34930823517204823,
				0.4921881210840504,
				0.2704466436486537,
				0.8034891413430993,
				-0.009277043170345185,
				0.23306512115890715,
				-0.6242150352322293,
				0.7361261697343434,
				-0.3620572388490242,
				-0.0981450967994167,
				-0.15276195898421302,
				0.7349983077521347,
				-0.7373339186280061,
				0.39940626043986655,
				-0.8544083541652164,
				0.545781450000543,
				-0.20888588120898244,
				0.9650470403798986,
				0.29970434829531645,
				0.28748445584275695,
				0.5754854186832743,
				0.8328434133686323,
				0.4973747218584155,
				-0.4394111533013435,
				0.44370256137220354,
				0.6244535304390494,
				0.910557897556823,
				0.9665922894553298,
				0.13233913386509544,
				-0.5667332047862019,
				0.5353964197111156,
				0.3268581330333289,
				-0.29832488628454534,
				0.695440915303212,
				0.4005350722009495,
				-0.8053770128083816,
				0.6062854291372767,
				-0.2612415462732236,
				-0.08313440569598057,
				-0.2533679765939312,
				0.5774974811859188,
				0.5368672531235859,
				0.3839996332269307,
				-0.45719129571181766,
				-0.161355110222138,
				-0.41308799400346885,
				0.7209648513866764,
				-0.9446878009952726,
				0.8882782795493086,
				-0.4685154484046006,
				0.11502150370778891,
				0.8128790556082209,
				-0.13446357110792234,
				-0.136860078380345,
				0.8734446781208032,
				0.5049659577008088,
				0.3742102636148399,
				0.9801704771962787,
				0.15536005084440863,
				0.8744766204029721,
				-0.49947407681700906,
				0.8746782463597716,
				-0.729159686147003,
				0.10200083486534044,
				0.6704157807385784,
				0.3324177445128454,
				-1.0027649323782253,
				-0.5009570222176982,
				0.5319532073976805,
				-0.7903880512516903,
				-0.8903712531798733,
				-0.42706444749413014,
				-0.04734309183222864,
				0.5530991932853632,
				0.23866198122113372,
				-0.236820941422447,
				-0.18860857315939397,
				0.9213851938040682,
				-0.05727706533143193,
				-0.07603593582018149,
				0.6151365749565145,
				0.2743206546745962,
				-0.8233668176993998,
				-0.16570972882025137,
				0.01758501775415855,
				0.09859027280886234,
				0.5309279501444037,
				0.9194457022128821,
				-0.74052938500209,
				-0.18962755158623887,
				-0.8523730206534215,
				0.8069849665129979,
				0.6241474293707101,
				0.5224072328651107,
				0.35630529137110717,
				-0.8854486622490818,
				0.8924642144727688,
				0.3379772864146891,
				0.6029800992274703,
				0.7336795967112597,
				0.31513589216164806,
				0.04650098707714862,
				0.24267206441670888,
				-0.705152510889815,
				0.37447732434487147,
				0.015484384758315449,
				-0.4561019888123953,
				-0.03240087045733126,
				-0.549031729580749,
				0.7283189540135315,
				0.7711966069088607,
				-0.6714374798449874,
				0.5024775225157554,
				0.9364791198720801,
				-0.08944708273680568,
				-0.8201989995387771,
				-0.2493723500113494,
				0.8414794632180095,
				0.009180445855679384,
				0.9806322112333268,
				0.1110748419184567,
				0.32493427413625514,
				-0.7308116853765834,
				-0.6576210887533405,
				-0.8980510840806228,
				-0.1590665223751564,
				-0.8206167597198553,
				-0.05749174658907701,
				0.13193515985839654,
				-0.29935494056648926,
				-0.6089120499031256,
				-0.2804528244149409,
				-0.3984601661988716,
				0.4494036450236494,
				0.5335801558515902,
				0.7852759416508557,
				-0.7768178002029011,
				-0.514021641117028,
				-0.7227349222032204,
				-0.4677998074898042,
				0.04931571348539743,
				-0.7229153797840127,
				0.7866825534789559,
				-0.9937791235099098,
				-0.24984365953212295,
				-0.37464655152807047,
				-0.7265576131512667,
				0.82914402568309,
				-0.930393357522565,
				-0.8598143366627385,
				-0.06780822174285638,
				-0.8697255130621222,
				-0.5130134615124292,
				-0.56735694005008,
				0.907104896779842,
				0.16575927087666445,
				-0.2726489050417312,
				-0.6468628868135291,
				0.6931963515898032,
				-0.2712163368835868,
				0.4773049216259733,
				0.7904750132859961,
				-0.2069868385561926,
				0.4577062764086248,
				0.09053068684096566,
				0.8957622392852085,
				-0.9122413567517351,
				0.636662546265391,
				0.798648801185156,
				-0.23657746973166516,
				-0.0856072907425216,
				-0.05020531371319237,
				0.30625184933391525,
				0.3330532257541279,
				-0.7551078526955219,
				-0.31417527794056843,
				-0.9802499351217997,
				-0.3881144288286422,
				-0.9721728470213917,
				-0.47507371684516864,
				0.9519701625971821,
				0.24334237332534978,
				-0.8204060088644763,
				-0.079803707233451,
				-0.030338318883965567,
				-0.6401024237224697,
				-0.2537946462130617,
				0.17271752275506688,
				-0.5047349022583815,
				-0.007968745934152643,
				0.148068343547461,
				0.18103515928648717,
				-0.5811045906292418,
				-0.5005466122152122,
				-0.9405305304487852,
				0.9375431105860286,
				-0.7062654581024117
			],
			[
				-0.9422311030028987,
				-0.8830572707894402,
				-0.881741533524131,
				0.3977954850745187,
				0.20430613405028009,
				-0.0024629292662838864,
				0.07667574316536196,
				-0.5891111412055396,
				0.18223833094749464,
				-0.23029398623520958,
				-0.7565207915601824,
				0.30398370082651605,
				0.5138182050230005,
				0.5426806049481883,
				0.8733952232273663,
				0.2186347626042182,
				0.5282431044237477,
				-0.21383470405213512,
				0.26665258499040334,
				0.5665353975679643,
				-0.15892095151446073,
				0.9508355874249643,
				0.004237642597592295,
				0.07485080153402501,
				0.8632605418861892,
				0.9438258658828578,
				0.41392547720057093,
				0.36442245475884594,
				-0.638479526115598,
				0.3917780377297877,
				0.21662736809921812,
				0.42022521738327656,
				-0.8700099110059369,
				-0.29518222921722126,
				0.32026823836072715,
				0.003499968536321507,
				-0.211008204334024,
				0.9920399417823602,
				0.025610468022702282,
				-0.1951141064709665,
				-0.14842451442549187,
				-0.26267415615635636,
				0.31525744112246623,
				0.611822051483083,
				-0.3170814049102017,
				-0.8052685991729795,
				0.42189311604186575,
				0.7256000674816123,
				-0.4489864941176762,
				-0.6167877514548228,
				0.17267898803788695,
				-0.24486843484133836,
				0.9056105870447477,
				0.9845620232921561,
				0.07057822651897716,
				0.8286546809757938,
				0.17070563694504592,
				0.3326314599897704,
				-0.6637405779195191,
				-0.8260045704018739,
				-0.0015295624010818187,
				0.5942160131264158,
				0.6614407357870884,
				-0.4833475881555751,
				-0.46466263778657035,
				0.3800982653886722,
				-0.19897795756541203,
				-0.7007142437362774,
				-0.37082036418316333,
				0.7330792418147846,
				-0.7832504399674526,
				0.9799257627987679,
				0.25099058521573575,
				0.05619399897338678,
				0.6259679782278433,
				0.3464960190053038,
				-0.5556568179391129,
				0.54908920041653,
				0.057822687381856704,
				-0.003613897129342458,
				-0.6639867300001625,
				-0.757649847850391,
				0.01326565696175086,
				0.2242090152899081,
				-0.4141766841512222,
				0.77542738780028,
				-0.6743563606271223,
				-0.7727624604869949,
				0.6341403470604057,
				-0.4922138333839321,
				0.11387440153696815,
				0.7563389082482277,
				0.3897889575744866,
				0.7872533943834057,
				-0.9538487284634092,
				-0.6057080220250758,
				0.4190608502531478,
				-0.9833117311817344,
				0.8768557502114456,
				0.537256438692995,
				0.0997961805746974,
				-0.11503106181264375,
				0.19429183525318236,
				0.11602482302992424,
				-0.6995312006624136,
				-0.15297177589222946,
				0.5624400516243656,
				-0.2793722118204216,
				-0.39479225232956594,
				0.6181230204182362,
				0.27798022868000416,
				0.8436701504427826,
				0.4347468438694211,
				-0.8867716114958557,
				0.03553859898221301,
				-0.853718906647476,
				-0.003289713061065213,
				0.8934651846965838,
				-0.3206510167395415,
				0.04198698995132606,
				-0.20126188614967977,
				-0.15471998076432658,
				-0.6972875380545134,
				-0.4924727311243688,
				0.8423842583914767,
				0.8980600696917546,
				0.5090948757661932,
				-0.9541644092435672,
				0.9534302512499949,
				-0.816008219486101,
				-0.6784953243863688,
				-0.8511071417915367,
				0.4104197855859588,
				-1.0146715595121027,
				0.45540370225783205,
				-0.26116653656938593,
				-0.2311404299178519,
				0.6519782136000809,
				-0.5602424968315942,
				0.8496397527904631,
				-0.22364301661912256,
				0.7457435976362037,
				0.7485099744806099,
				-0.19513788774725446,
				0.6680917859015059,
				0.7952529580515921,
				-0.10788200324802572,
				0.32170303611753237,
				-0.11307284356275273,
				0.19132988731518044,
				0.5555838678919014,
				-0.6303488819717386,
				-0.7269451557201738,
				-0.22468034882055016,
				-0.8715451887015055,
				0.4550123068611597,
				-0.6633599329397333,
				-0.20867114051642102,
				-0.21459479848726515,
				-0.6736525916172137,
				0.24425915483220073,
				-0.09307188882041703,
				0.9224229136730465,
				0.2961680606047316,
				-0.6110052489640555,
				-0.5382713267164397,
				-0.7770492990580453,
				-0.9336826145483923,
				0.9286005560681221,
				-0.9438007235616461,
				0.7549677018571788,
				-0.09805841875141093,
				-0.09772441187043394,
				-0.17484637283053242,
				1.1690203697694583,
				0.5544178152120961,
				-0.3944633172704595,
				0.29730052532899515,
				-0.043821817647887576,
				1.038753865468805,
				-0.5427812331207424,
				-0.0226353885045874,
				0.596605693259908,
				-1.0272435389955374,
				0.22906205498240037,
				-0.8682754900256469,
				-0.7408456489962622,
				-0.6766121508402199,
				0.2955728860284652,
				-0.17814914692167758,
				-0.3387858859485798,
				-0.7843068965313885,
				-0.21527347645340222,
				0.28887471203979664,
				0.9875979221583959,
				-0.794844816288859,
				0.5720772319196961,
				0.6674770359527353,
				-0.4963067273102495,
				0.9972900298392218,
				-0.3859904599767227,
				0.9308859023593997,
				0.4019995826056378,
				0.8966039564732994,
				1.0609350628049214,
				0.9036589114109216,
				0.05883506864071325,
				0.25122579503823284,
				-0.36805961947154586,
				0.5753385901374813,
				-0.855858861873522,
				0.018866928664420413,
				-0.38962851076790966,
				-0.692314506240681,
				-0.11398245899782558,
				1.0367852988792554,
				-0.8253256403224446,
				0.6394031457084747,
				0.06170741097588511,
				0.5272970229195889,
				0.7497549177171987,
				-0.07272322787027777,
				-0.2599263832114982,
				-0.8003126523323599,
				-0.030321294050301706,
				0.2301024833492762,
				0.7634417226063875,
				0.225550585032682,
				0.23346822447948568,
				0.41953728411631225,
				0.75516932545965,
				-0.14927689461141871,
				-0.16973862392831932,
				-0.27304623615360274,
				0.16059055114399298,
				1.0220373443456334,
				-0.026220065090876373,
				-0.09494982098165088,
				-0.3169042466777009,
				0.0125393118821835,
				-0.3872211134558868,
				0.13287719493595332,
				-0.4066864145128627,
				0.07754728443139174,
				0.2886517187328383,
				-0.944325395424348,
				0.7588167551122655,
				-0.49032334817152956,
				-0.7409137227762898,
				-0.4769127712357903,
				-0.4312335238560921,
				-0.1152006282521767,
				-0.28134514395738774,
				-0.47297216816465326,
				-0.4803218508106837,
				-0.8641954470530917,
				-0.27926558814578306,
				-0.1654490055785935,
				0.03577240320450556,
				0.5576991613657714,
				0.6602630237073637,
				0.45364591870780135,
				-0.3397724986282029,
				-0.5177387361819414,
				-1.2099636983084743,
				0.6738817321893046,
				0.26383934940921555,
				0.22497078998327566,
				-0.5874459770368211,
				-0.025001802220756392,
				-0.31475765963422625,
				-0.7130571060352408,
				0.22049567034939457,
				0.4158608909723241,
				0.5731967998237061,
				0.6317144218703915,
				-0.5378586449606406,
				-0.3048794551976335,
				0.647000416471538,
				0.5129400752105151,
				-0.5611116362891289,
				0.6578464810970899,
				0.2796301827870522,
				-0.2419637055158974,
				-0.8715134593337089,
				0.6868791308071142,
				-0.2056075447786058,
				0.48156905648615544,
				-0.822684704578865,
				0.05400428724193835,
				0.37369353956193296,
				-0.1648157266624351,
				-0.2460723767170285,
				-0.6282445751649158,
				-0.6973865888968578,
				-1.0258472907572502,
				0.00966049783560213,
				0.2590508155832834,
				-0.2032579430249237,
				0.6930203562786397,
				-1.1434440368539467,
				0.37705952648264585,
				0.8411062764690107,
				0.1977803141248289,
				-0.699789121480484,
				0.5977387023341816,
				0.8953259431685772,
				-0.173246204279073,
				0.563563958699429,
				0.055540479921319275,
				-0.32513716350889116,
				-0.19895566018801022,
				-0.7279002890876632,
				0.46598527787006006,
				0.3923033022343556,
				-0.3057601666557058,
				-0.6274264261720137,
				0.545700589101711,
				0.024214588156031194,
				-0.5440093059214957,
				-0.7748494799346132,
				-0.7354194195474965,
				-0.022549728906054486,
				-0.5970409830083171,
				-0.5750225567196433,
				-0.4915668218412269,
				-0.34957509070459075,
				0.6292010186570862,
				0.6308848586806987,
				-0.7368153471253912,
				0.7065526246455537,
				0.6607761714060124,
				-0.5701177137295078,
				-1.0136230648290518,
				-0.9826125732671197,
				0.1801870928137852,
				0.9116565370935086,
				-0.0939686058060869,
				-0.23377587286992005,
				-0.22367973600425042,
				-0.7822552867800258,
				0.44018561498192277,
				-0.4322875093067183,
				0.7146902253051667,
				0.7351815646763534,
				-0.10456717443975595,
				0.2200244445953346,
				-0.19704001393929393,
				0.19373746563613148,
				-0.12992520594598073,
				-0.8723898108240472,
				-0.6269798251400714,
				0.27513539467015524,
				0.7999912777867655,
				-0.5126897134956717,
				-0.9896714776267741,
				0.24765069391570518,
				-0.1459631273813568,
				0.8920661752951965,
				0.6449327637387061,
				-0.8600373791868952,
				0.8831636306706572,
				-0.5091737967294094,
				0.4089582223144741,
				-0.17497738809030094,
				-0.1652169926895075,
				-0.6309155213165236,
				-0.8827173604975114,
				-0.33655324221552896,
				0.3786767275704814,
				0.28665969891669546,
				0.3623942015836868,
				0.5330164657287085,
				0.16855719898621213,
				0.9520453437284774,
				0.8801175769187259,
				0.012965094878316857,
				-0.17334092614123858,
				0.6772950743710574,
				0.8630011183713727,
				0.8739474996392896,
				-0.2404964230688439,
				0.7772051349936226,
				0.08161733791274398,
				0.1648976079417951,
				0.3310483485186753,
				-0.2427163634999448,
				0.5747248349042485,
				0.3627977577260996,
				0.4046007530960528,
				-0.4310661904550262,
				0.9065389908020847,
				0.8240566761042425,
				0.5793139280106305,
				-0.5758871475009708,
				-0.92200307085841,
				0.14805835229305975,
				0.6767535153312774,
				0.6964001900448519,
				-0.06797552046177183,
				-1.0799364128677502,
				-0.24706136282121754,
				-0.5615812784151909,
				0.9807948943429313,
				0.1982824829071281,
				-0.0817288651587733,
				0.1544204825881964,
				0.042909835680164016,
				0.7575663148567219,
				0.7489984390540395,
				-0.6828457474935946,
				0.5466385718387475,
				-0.49407199642462857,
				-0.81702721769587,
				-0.8201583212243533,
				0.032038368324007575,
				0.24247687019185074,
				0.6461247713307189,
				-0.05333368789285638,
				0.4613301639018257,
				0.6914957560535702,
				0.846020690163475,
				0.1655810997466456,
				-0.7888044837509158,
				0.20387237882774667,
				0.404737422341475,
				0.07586187156525866,
				-0.6943872046167551,
				0.43932806575181055,
				0.8228263928330598,
				0.7870691792125145,
				0.04745690016823855,
				0.49463051645832656,
				-0.3620211212716916,
				0.7942453336757292,
				0.6206471079029462,
				-0.2512402548042072,
				-0.0072009154378100855,
				0.8578267369044374,
				1.0553059629026305,
				0.9820111280227941,
				0.05420998950292235,
				0.5447659692245862,
				-0.2316305190318702,
				-0.30501235240520075,
				-0.7475770755917647,
				-0.38071000617799594,
				0.25350152363293166,
				0.7630235384600459,
				-0.8838160247902995,
				0.9861211329696422,
				-0.05407438592361865,
				-0.45010995546613014,
				0.744185897715157,
				-0.5133853079541616,
				-0.8765075838816585,
				1.0258024734262223,
				0.28987256095348785,
				0.532566293743604,
				-0.28572854330170866,
				0.6591674561568435,
				0.333345482049789,
				0.9475352548530758,
				0.43541033219959707,
				0.9225928560091095,
				1.1660163616682775,
				-0.18987946954722595,
				0.3762001900941046,
				0.7893518919419279,
				-0.0502133719685166,
				0.938539031408429,
				-0.02338383433021003,
				-0.5491585881188857,
				-0.46130874301193103,
				-0.7850497355342332,
				0.5347810528173986,
				0.9853884021649035,
				0.04274456075511601,
				-0.7886990399389915,
				0.6246896199396024,
				-0.8095459723155634,
				0.3613160129570118,
				0.425918835176211,
				0.9639114460305972,
				0.9607075052019565,
				-0.7619605049904737,
				-0.22899223882839434,
				0.6017795346137279,
				-0.6820260879495772,
				0.2407616603708991,
				-0.4410743541733986,
				0.8428862517903737,
				-0.3523416966984617,
				1.076201370845395,
				-0.6800402721878098,
				1.0215150086081544,
				-0.27234847322712374,
				0.7132433506667096,
				-0.843125954126103,
				0.9396320844204805,
				0.2609497584377927,
				0.25797345935465643,
				-0.7015437864114769,
				-0.20658078579607642,
				0.9604453438157536,
				-0.9987650880551713,
				-0.9817476031723846,
				-0.7549687923408421,
				-0.21084893993315282,
				-0.40696615365142025,
				0.00490685355204866,
				-0.6184145736709505,
				0.2916649158346058,
				-0.025899284311020843,
				0.3680087343614933,
				0.40299441178581685,
				0.593379335193181,
				-0.47851624048468544,
				-0.8239484544557916,
				-0.6355593938883137,
				0.21800283769349812,
				0.025248523926972636,
				0.515016102433677,
				0.3279252993919522,
				-0.32872065493984154,
				0.07191707100602192,
				0.30265594886035907,
				0.7662513025185169,
				-0.5426872223795997,
				0.8348576854512195,
				0.7433376189402452,
				0.6419330505918452,
				0.7378680542241636,
				-0.07847539242858126,
				-0.8322764839810637,
				0.7892741785657575,
				0.7010856550709934,
				0.8321834941663702,
				-0.9107913038817856,
				0.682734993570888,
				-0.9038972996025736,
				0.20087949879527836,
				-1.053250402185646,
				-0.5704916108933478,
				-0.6899841880408172,
				0.6932837417508517,
				0.12860723081152145,
				-0.40807808931909384,
				0.13919214789892154,
				-0.5583095052372712,
				-0.624231793973765,
				-0.20344072759202692,
				-0.2841023947019069,
				0.8264637264373275,
				0.8239277683655645,
				0.6008249412228083,
				-0.6799783876202864,
				0.9810514819161056,
				-0.4810970850203615,
				-0.8446529644192022,
				-0.03883095058304997,
				0.44127957844529586,
				-0.05042427546585859,
				0.7425782777627371,
				-0.5547000796756951,
				0.475358911830839,
				0.5634065756669613,
				-0.8164906705631962,
				-1.16804545183565,
				-1.0775674991537505,
				0.07360512811644727,
				0.20736253070825375,
				0.9162277799010641,
				-0.2209771173452913,
				-0.1585814736884334,
				-0.82703880875672,
				0.8502557402291945,
				0.7322867207786532,
				0.9035838207189912,
				-0.6664195904353326,
				0.6077097086186453,
				-0.5348804842260667,
				0.48595882146166897,
				-0.1499515245673557,
				-0.5502168219442615,
				0.6022372482455073,
				-0.20464418357366604,
				-0.9314918996405686,
				0.10833026024592218,
				-0.14599631112984746,
				0.23370152533632993,
				-0.981510047292258,
				-0.37682994322295005,
				0.7199502586660547,
				0.7342272873240916,
				0.438172256787258,
				-0.2771469339083777,
				-0.7245333007507956,
				0.193360306049418,
				-0.5381057169809116,
				0.2071861934710651,
				-0.513801193662856,
				-0.5197750135279483,
				-0.48902820397754154,
				-0.5508668545738128,
				0.11820072580845435,
				-0.7337996462840456,
				0.21819137964506324,
				-0.5076434424232253,
				0.4373582256670366,
				0.0485745783894406,
				-0.7257280574380753,
				-0.019548421203029725,
				-0.2567705195274228,
				-0.1140476452402322,
				0.32062901563561486,
				0.5913015945216631,
				-0.8647558827474184,
				-0.9653479484405474,
				-0.9906499568858991,
				-0.8592382280109985,
				0.27735496099143764,
				-0.718875114201364,
				-0.8344036081489336,
				-1.0474579925096918,
				0.0729206477254086,
				-1.1834880069470972,
				-0.7477542892649521,
				0.6004570171084654,
				0.06028051666762607,
				0.860992247660698,
				0.5505333078293657,
				0.5606807088385267,
				0.17664320899863128,
				0.08609448822728753,
				-0.05113773144551716,
				-0.3457325811167246,
				0.8266630374122385,
				-0.6493966646516215,
				0.958294837521236,
				0.7138550345615345,
				0.0543747200180264,
				-0.39133093170983063,
				0.10631533324735054,
				-0.32057306148418085,
				-0.8331755604429896,
				-0.2768336276450283,
				0.18733826889201854,
				-0.9413649555651218,
				0.34402944350184317,
				0.7502922884078619,
				0.18505041824687563,
				-0.3450483042269731,
				0.8538080925640266,
				-0.8455205386124995,
				-0.6723569653173554,
				-0.7825617653787663,
				0.3016782316436781,
				0.8028214767807315,
				0.3160551638123994,
				-0.3648531842795476,
				0.5157830079380308,
				0.8050068675492309,
				0.8768123970407397,
				0.5658992311837286,
				0.216053639313058,
				-0.24329136199398158,
				0.7454152408415106,
				0.6953494859272384,
				0.9332147155203327,
				0.673830442484912,
				0.9953747710731897,
				0.8877246940035808,
				-0.9116184643241465,
				-0.06607922757902074,
				-0.498132919490849,
				0.6037795444589189,
				-0.6276975349897622,
				-0.22523778877382492,
				-0.07967093234038716,
				0.560524378376444,
				-0.9441123042575623,
				0.7181685363065466,
				0.8318862468287116,
				0.9264727714567415,
				0.1363244943197023,
				0.9929411054138493,
				-0.7782712107818062,
				-0.5480659993225021,
				-0.9901047097222968,
				1.1423882777868952,
				0.8432961320117218,
				-0.43717976340310055,
				-0.45259571861863673,
				-0.07348775939643203,
				-0.3833397642340541,
				0.8081278657246052,
				0.45912912463265165,
				-0.7026178406304844,
				-0.4756363374446453,
				0.6213373419559121,
				0.30031732297346814,
				0.07715422029034746,
				0.4065816485130296,
				-0.7301523768091756,
				-0.8898835903548753,
				0.95148994260901,
				-0.24683305320920976,
				0.12186281644255897,
				-1.0119046045631086,
				0.1478516248148138,
				-0.7647631293284192,
				-0.23937506328526523,
				0.1390514260074287,
				0.5291962880556998,
				0.8774485746102044,
				-0.9657629792458337,
				-0.6220146048535222,
				-0.10752376371796968,
				0.3004692272166634,
				-0.31217541906790414,
				-0.5094655687496166,
				0.0266355119129832,
				-0.371126034422506,
				0.835904481221625,
				0.22410009315709978,
				0.8356843058077859,
				-0.9463640093564631,
				-0.15621243013967057,
				-0.552436522962962,
				-0.45162712639853453,
				0.22594102304666697,
				-0.6986462631979643,
				-0.3485388574368874,
				0.1736309024396226,
				-0.91201034779589,
				0.612425917330494,
				0.7145231745042695,
				0.4626394011203342,
				0.794492926823978,
				0.017853270619138797,
				-0.04120065562115717,
				-0.28775560898892194,
				-0.2415267242596921,
				0.8205767067329851,
				0.923317441679711,
				0.11655722793894835,
				0.24764748330149589,
				-0.6286643492532797,
				-0.17912369325754485,
				-0.32292959663738685,
				0.8207159033327476,
				0.03930972600072469,
				0.9117189883647412,
				0.11997768288911947,
				0.8598351068334802,
				0.6002992542344439,
				0.9721636675356571,
				-0.7459253805405108,
				0.009549714424986089,
				-0.08653069771460986,
				0.17557036782458654,
				-0.022801286347300075,
				-0.4443593957407523,
				0.13791648184698557,
				-0.6026108066263727,
				-0.9816898452921491,
				-0.055030506234334794,
				0.28695571637065526,
				0.14702463507423064,
				0.7600362325419037,
				0.2587737513919259,
				0.9164602485005163,
				0.32619698173997863,
				-0.6701146475304618,
				-0.8473723972422782,
				-0.6732302303776674,
				-0.47315715983457585,
				-0.4358908340575156,
				-0.40742223637791763,
				0.008103018476210533,
				-0.5318694225633407,
				-0.758757795558302,
				-0.7407675377167733
			],
			[
				0.7795154573338787,
				-0.14329863536041776,
				-0.527326955015011,
				0.45434214212728685,
				0.9354971546940729,
				0.1380175810404798,
				-0.6320392057969211,
				0.5162645909333432,
				0.21667241393814862,
				-0.7295362281674089,
				-0.3846676992746798,
				0.4866578197706257,
				0.1937175638312687,
				-0.32952725769970836,
				0.37917139115733134,
				-0.17937372245719896,
				0.6836648264457241,
				0.37433414957768596,
				-0.8052045757796185,
				-0.21082500428598738,
				-0.36251593387691416,
				-0.55532083728844,
				0.7119085949250992,
				-0.9520829210106818,
				0.17329798261792062,
				0.3091031543867131,
				-0.5747511641046987,
				0.3770568009227522,
				-0.5043402142962492,
				-0.018747194398290645,
				-0.212073122236633,
				-0.6229871762693806,
				-0.8288540365317436,
				-0.5961481798711441,
				0.6487299679974119,
				0.6236584621790997,
				-0.516159480896115,
				-0.22616003936256757,
				0.23287905028858802,
				-0.09614703193243246,
				0.5065212220651318,
				0.8416476053070254,
				-0.8549725611714982,
				0.21873675148421948,
				0.8010631775168912,
				0.012944705588441019,
				-0.15329364688354613,
				0.24241266613301393,
				0.19744260689994286,
				-0.6379979351674967,
				0.4021165421026991,
				-0.7439862254011227,
				0.28363341187420943,
				-0.2953634739414963,
				-0.31586068084750885,
				0.6936447316010708,
				0.46590871100382136,
				0.21235293664401933,
				0.2710750737519727,
				-0.9252231188745728,
				-0.5867044575064955,
				0.8153569109579464,
				-0.11391792933747302,
				-0.6272610606631228,
				-0.010360065353243186,
				0.6827071785242249,
				0.9799749037511787,
				0.051726729892942004,
				0.4041022746600236,
				0.41033660867566546,
				0.9863306960358766,
				0.10767789160103361,
				-1.0270765900328829,
				-0.45609174116614815,
				0.7419957062752809,
				0.9397651830858696,
				-0.12677866598030763,
				0.3322377655598743,
				0.21324178428725515,
				-0.04451453070617051,
				-0.21500264767036104,
				-0.8117997265511048,
				0.9614104656513467,
				0.5543241251748587,
				0.45936835979761304,
				0.8445819636978986,
				-0.4240887084667677,
				-0.7205110405060116,
				0.3340109980066659,
				0.6267338426587767,
				0.8759657928470719,
				-0.7622296845551673,
				-0.2655240659171538,
				0.6375649749089966,
				-0.7524026840851399,
				0.23924004912823296,
				0.09547714629408169,
				0.6023793942277649,
				0.9395714980388957,
				-0.30779597826945343,
				0.4757403896769151,
				-0.8170383593877392,
				0.4592532894134513,
				-0.5681024226635,
				0.49328596450473655,
				-0.7984627947958676,
				0.11768568844518335,
				0.09826726409209074,
				0.3297277294734058,
				0.5250132398118015,
				0.5874642823951857,
				-0.8167555238573567,
				-0.577030653650207,
				-0.6615969103466321,
				0.4895689106150489,
				-0.45382051051017536,
				-0.2497152977840318,
				-0.8838974666814066,
				0.7217936886998767,
				-0.9101782653681089,
				-0.24615274544627497,
				-0.58488758177384,
				-0.2910804971738956,
				-0.08375603132431436,
				0.44516219646080013,
				0.04399712911087555,
				-0.7209301325630924,
				-0.8288583914235789,
				-0.2769795815424574,
				-0.00019693720126155568,
				-0.5248225495692191,
				0.4203965732941968,
				-0.3662400286031254,
				-0.007904434094557567,
				-0.9055801483635092,
				0.4524913330357334,
				0.6660532743315306,
				-0.049291290802507604,
				-0.21633166392217262,
				-0.5647232684374806,
				-0.3236526251259382,
				-0.9272618823856189,
				-0.23557348705241843,
				-0.511877223386477,
				0.6523118023003991,
				-0.9970013160088773,
				0.9760201191703282,
				0.507556881319123,
				0.06173369062085989,
				0.4234675353827937,
				0.11662546352965328,
				0.949715014482274,
				-0.9730987542833711,
				0.9426136964714057,
				0.535469688144007,
				-0.22732196142732586,
				0.4384739138080425,
				0.80450293407661,
				-0.7037035388136726,
				-0.08983082011065295,
				0.12605201043188857,
				0.807495386837292,
				0.27111838897718543,
				-0.9522640162296724,
				-0.7177945698587469,
				-0.7529572693656575,
				0.1959766069434858,
				-0.17048506701227906,
				0.9447144576611626,
				0.5820130596220996,
				-0.27224670408239726,
				0.6511517159811722,
				-0.28301520379531425,
				0.12688698287938763,
				0.09346688373380423,
				0.4505666075736827,
				0.2739479635059598,
				0.7327362138312936,
				-0.7944732377078237,
				-0.8255405273814257,
				0.25250937566382087,
				0.3933390758109019,
				0.9658194745992125,
				-0.6425408287738632,
				0.5951358958146724,
				0.4161929417450321,
				0.8164993941844134,
				-0.886442173053722,
				-0.22478675309757706,
				0.17628642596381447,
				0.54202917941311,
				-0.27657756820233836,
				-0.5290720645086571,
				-0.17595064287691567,
				-0.9143889740928144,
				0.5363717591023601,
				0.6172693794371624,
				-0.9580768552364534,
				0.06293176654899547,
				-0.9149960182768626,
				0.7620148850680926,
				0.5755796611737334,
				0.23441733815174556,
				-0.29905777577872233,
				-0.27773846264517416,
				0.5656701066233826,
				-0.24237011530391203,
				-0.3332765930698202,
				0.43541892289669165,
				-0.11281194383309354,
				0.22369885712096566,
				-0.5552821112954961,
				-0.043056081448591965,
				0.9203487122989409,
				-0.32769502068096495,
				0.3128914225846866,
				0.2260195591320616,
				0.027880739039372736,
				0.29616366931358645,
				-0.4937517128023093,
				-0.9088727041789285,
				-0.45855322238549157,
				0.16644680069637985,
				0.6551870702371047,
				0.10298998581793972,
				0.6003852033428112,
				0.3363433231811978,
				-0.7256503647125346,
				-0.6492797971446765,
				-0.7665876615437257,
				0.283371077009708,
				-0.48103566678693077,
				0.8868450681317888,
				-0.5463228642406887,
				-0.44150371585407955,
				0.7614907067305036,
				0.6340536900781422,
				1.0205192059088606,
				0.6323676927289907,
				-0.35482201029362165,
				0.311999243325465,
				0.5234828901116348,
				0.8226205666409848,
				-0.770679029274081,
				-0.7616820968217524,
				-0.8382043335535703,
				0.6625119519699908,
				0.5605254944890996,
				-0.9434568777448449,
				-0.4673831591398392,
				0.4601419576924272,
				-0.6416068744331023,
				0.9735675957233099,
				0.07728534872623305,
				0.6276573664414825,
				-0.06295151212656981,
				-0.44382009715196813,
				0.153103211384289,
				0.8063536972644643,
				0.35748937684568377,
				-0.30807539501031556,
				0.7312610460172266,
				-0.8242079207522184,
				-0.7942357857661048,
				0.19233953059891823,
				-0.6819484077720028,
				0.7030993632492002,
				0.8312128893054967,
				-0.019384306447917957,
				0.3518008270824953,
				-0.06932806346495016,
				-0.42479867717442377,
				-0.6781948329435284,
				-0.8308774783220131,
				-0.6463531701939347,
				0.6167967190838199,
				0.10029784864709952,
				0.44713555858786425,
				-0.5978910946917235,
				-0.7715752342708457,
				0.3889891414713387,
				0.11909959408204918,
				0.23658853361005094,
				-0.6088626856822263,
				-0.2618679920543045,
				-0.32866636173648733,
				-0.34289425427982334,
				-0.5008353133489803,
				-0.25963077633326825,
				-0.7587934017449741,
				-0.5445510651242551,
				0.30465284529513564,
				0.4890294049526721,
				-0.33095859866755595,
				0.9244708509906454,
				-0.7839270377356876,
				0.9630919655202177,
				0.6878438194333144,
				-0.13392020931263376,
				0.8019961190580811,
				-0.14680297042058482,
				-0.03916435088544329,
				-0.6784104571326355,
				-0.560832279432101,
				-0.6773546975455015,
				-0.06924300396195054,
				-0.1797545959430069,
				-0.10362780109135672,
				-0.7311074634224228,
				0.34774232980227504,
				-0.5561922640117949,
				-0.5449061588573796,
				0.16707741608529933,
				0.5809571056652906,
				0.9759963353678084,
				-0.9041683327891793,
				0.445353228770584,
				-0.46646438371751586,
				0.5388721439849138,
				0.09288092323166972,
				0.9983196279365181,
				0.9660090023466259,
				0.9419786760651817,
				0.05206077734913228,
				0.9314597888532969,
				0.7811878765588108,
				0.0398781641346706,
				-0.46140483045612524,
				0.5931325846876698,
				0.2878162635168807,
				-0.9076552863543854,
				-0.2468993117150987,
				0.033247809961165886,
				-0.05459429877009901,
				-0.5872949994602292,
				0.40045272625449746,
				-0.6016839174003841,
				-0.5107998193795109,
				-0.7396552781922123,
				-0.6349483406147044,
				-0.3991913893906399,
				0.3081711256987074,
				-0.3046525727454191,
				0.6075766406383244,
				0.6299760076167229,
				0.09168995197025429,
				0.29918169930124067,
				0.19938973377948677,
				0.414071070145882,
				-0.3957990905513593,
				0.07237898624577886,
				-0.4433640884118105,
				-0.20501190071699146,
				0.12821845310029756,
				-0.5827955313621122,
				-0.810455952433846,
				0.4253910883500119,
				-0.6294111348774775,
				-0.5141560072988939,
				-0.2502312122467053,
				0.5980221118155516,
				-0.2565365233585948,
				0.9398234714247078,
				0.9242750152471357,
				-0.4965382199810642,
				-0.6298086397005127,
				0.36623352994374914,
				-0.6813249536652326,
				0.6220081835665229,
				0.12603906249642297,
				0.4098803575935695,
				1.0354145557978884,
				0.5212589211191604,
				0.8827711824162665,
				-0.18199407641077814,
				-0.46706458538972956,
				0.18389018111377609,
				-0.36091388346423015,
				-0.7132040008337821,
				-0.13632579732927264,
				0.14461431116788795,
				0.8789065902836896,
				-0.10474929575422481,
				0.5495214809385764,
				-0.5503728113101624,
				-0.7925085295084144,
				0.6762425435590819,
				0.5970542730650469,
				-0.5816539705143999,
				-0.8015068078255339,
				-0.35291473594492295,
				-0.6376843385030186,
				-0.5396188730601694,
				0.6577891792171262,
				-0.8219546055370568,
				-0.3478354996886012,
				-0.5187677616882157,
				-0.2522480499065235,
				0.25865347314340975,
				0.4093537225302185,
				0.4941039325383605,
				0.8699936819866916,
				-0.21884717116013208,
				-0.4686025442809513,
				0.5054695305946493,
				0.6196977996491848,
				0.2050340473433603,
				-0.08292765692601246,
				1.060157095580774,
				0.016265709849241895,
				-0.43660778987963594,
				-0.7119287343245081,
				0.9011719096854122,
				-0.984559337234158,
				-0.7873748192805429,
				-0.7548525919243031,
				0.6750599615981491,
				-0.8159655617697457,
				-0.1883419027903832,
				0.9193843394959966,
				-0.14364477869768066,
				-0.7305029123265983,
				0.8903569534844791,
				0.6711979224791018,
				-0.40497498682412153,
				0.018430211832867104,
				0.17223271876321375,
				-0.05818606305992663,
				0.9147075300816894,
				-0.13616242274923787,
				0.7392197278876064,
				-0.545671698629146,
				0.8459971624387639,
				-0.5829704325092991,
				-0.278585854944299,
				0.28665594040022846,
				0.39881804261495135,
				-0.3506085808393987,
				0.42112221164096036,
				0.13197401106110596,
				0.671580969784744,
				0.5161990123977107,
				0.7018399833950565,
				0.10059379615190123,
				-0.9685629760697133,
				0.08786533358193349,
				-0.40823739816941673,
				0.5708441830322482,
				0.209841008515252,
				0.9718105611623153,
				0.8741363479361852,
				-0.19809426265277752,
				0.8370555395866607,
				0.7863506655923179,
				0.024070612022702303,
				0.4586731619660359,
				-0.6667638347461028,
				-0.9940908986947682,
				0.5840067132342315,
				-0.14064111901884127,
				-0.5331226881711876,
				0.3457101660428868,
				-0.42967439968544724,
				1.071363251734637,
				-0.2802970199431381,
				-0.060313511049581416,
				0.6018543266499221,
				0.4508112740133926,
				0.8109170209600839,
				0.35366866702231187,
				-0.9085562369506766,
				-0.7050286594660216,
				0.7886050477159742,
				-0.5841208758516998,
				-0.18023339317574782,
				-0.2838549829449759,
				0.2937174335500039,
				-0.11273214068052839,
				-0.5509680359417275,
				-0.13235783158597403,
				-0.48762596955232623,
				0.46921311271817817,
				0.03934794408844445,
				-0.9518407903530776,
				0.28899642371502576,
				0.6119671158587311,
				0.6402035665856326,
				-0.40615306476754287,
				-0.13469646797948864,
				-0.5993168176603294,
				0.6701297357247255,
				-0.3315845363580687,
				-0.016765806206514373,
				-0.91665643785083,
				-0.14489799509127904,
				-0.528387856205141,
				0.9737983989194152,
				-0.563146131877946,
				0.9636201870332365,
				0.8172254769407635,
				-0.014427055325890127,
				0.44399062837683867,
				-0.8159622841229361,
				-0.339691646304515,
				-0.09235341577060252,
				-0.764602422629407,
				0.31743193116978263,
				0.1737254231725546,
				0.15179921521780965,
				-0.08212618584345541,
				-0.5254098078057733,
				0.5933165416096344,
				-0.021745884003247853,
				-0.9396620654920448,
				-0.5789502454292512,
				0.8443577324722602,
				0.34224784510823575,
				-0.7532862511933454,
				-0.6155825305800599,
				-0.22642966242107404,
				-0.5831988606996975,
				0.15471897160435386,
				0.35184083787375514,
				-0.053945706689277034,
				0.3087564958562901,
				-0.05420905288550266,
				0.8962363641716669,
				0.7770290400491462,
				0.33185372980101996,
				0.6766091073587792,
				-0.2116938313057113,
				-0.4520556263085176,
				-0.3675988777694603,
				-0.7874655531894423,
				-0.7594845452076928,
				-0.48220524060968506,
				0.9378860030226728,
				-0.03688076884683769,
				-0.4970009045728985,
				-0.11111206257145066,
				-0.39199256758709655,
				0.4145158474944806,
				-1.0052134440149914,
				0.1858965726631277,
				-0.6217137231564985,
				0.5113999608271147,
				-0.07050173079486748,
				-0.8708190189404407,
				0.14235139139018013,
				-0.6329284415879561,
				0.7505611526159994,
				0.8059047328221639,
				0.13997304406866518,
				0.2105367751314228,
				0.6084592849892684,
				0.26703445253558583,
				0.5950870817143417,
				0.32320296964183015,
				0.47320817353479283,
				-0.8609630793996108,
				0.6744860451459891,
				-0.5741835909623738,
				-0.19722452471409957,
				0.3809372589782687,
				-0.007203906931402251,
				0.8862085762464736,
				-0.8645829837506284,
				0.927257896231494,
				-0.6808847394081938,
				-0.7263490422091643,
				-0.4100789578909407,
				-0.88766122542259,
				0.48479702370272687,
				-0.3582452453929904,
				0.8819809128803,
				0.44691443010474746,
				-0.887994546316748,
				-0.23910528783044852,
				0.30150576174390237,
				0.2917448549203468,
				0.699983329265376,
				0.3685195651218012,
				0.5882887069302372,
				0.3181294882221688,
				-0.4371413183276849,
				0.8721218810635336,
				0.9568916663482301,
				0.1084881457264375,
				0.3752144649129554,
				-0.2774347825103569,
				-0.3919252943170526,
				-0.30096167318714606,
				-0.08328702946952869,
				0.27760952681453444,
				0.18336777598779092,
				-0.904179354815339,
				0.5925894587983467,
				0.94452993598729,
				-0.8673237502549819,
				0.48902945479502713,
				1.038789217330556,
				0.8978069681572413,
				1.0533955469419427,
				-0.5081427066542522,
				-0.7745395623990677,
				0.8544546052788826,
				-0.08151150701505833,
				-0.0968068466351631,
				0.46316045423822083,
				0.48534248205906144,
				-0.22751987741899435,
				0.490059933248455,
				-0.07764211469263049,
				-0.19238652664218936,
				0.6935842997415209,
				-0.27030779417759954,
				0.5849946128093864,
				-0.23195457900241268,
				0.1069836725014417,
				-0.49273886386887017,
				-0.07198750625230654,
				0.7343560179534838,
				0.3359555060569555,
				-0.18156347831514164,
				0.14149595698641396,
				0.8777839804722907,
				-0.47805931984107514,
				0.4643400619616474,
				0.6497763034379002,
				-0.6359187674735304,
				-0.24875634431848093,
				0.7941069746948716,
				0.7292899487462352,
				-0.6521315703314752,
				-0.8635233207435037,
				-0.4846939188143211,
				-0.5312333283371561,
				-0.3188078631336565,
				-0.7955207261731538,
				0.20562251476184423,
				-0.6254443070862856,
				0.7948773678714178,
				-0.18871422051575815,
				0.23290219416804359,
				0.17388709888257647,
				-0.0006722195484392124,
				-0.7118490395341035,
				0.8671240258532198,
				0.35489655690751265,
				-0.6070443968961651,
				-0.6364343215259537,
				-0.9302352926294828,
				-0.5238690652582737,
				0.3163986896376763,
				-0.5685137512923145,
				0.7805570954211873,
				-0.28019694109988363,
				-0.16127168387826174,
				-0.551428044787462,
				-0.2100720891543098,
				-0.7089032308967641,
				0.055518755624116935,
				0.5018807447668093,
				0.6415051308741025,
				0.964283668737489,
				-0.8210479354693421,
				0.5280788352924608,
				-0.18861418690124054,
				0.05353381833539661,
				-0.5079639918641594,
				-0.5889717347677621,
				0.7506148616975543,
				0.5857826795994474,
				0.1886859411081936,
				-0.5031245830519859,
				-0.18110042791023356,
				-0.8915667236336916,
				-0.3717874750908536,
				0.8199256383985263,
				0.048442940002448955,
				0.5369540210045697,
				0.19314076614103065,
				-0.6670761021888071,
				-0.7320538198411708,
				0.7253562669758439,
				-0.015006723333953993,
				0.8430722823310768,
				-0.007430526721628711,
				-0.39805145657108887,
				-0.7249976319253605,
				0.05507451723074294,
				-0.4030838843584617,
				-0.6545056024533841,
				-0.6342685685638876,
				-0.7483124411040705,
				-0.8183967845107074,
				0.3860563230661529,
				-0.5272966377462542,
				0.30870439881820433,
				0.8238297732902504,
				0.23454352205296658,
				0.520892193436131,
				0.2587381574499683,
				-0.457436241780312,
				-0.524379880912286,
				0.8615392588568497,
				0.4126020862380255,
				0.7600684587092087,
				0.7741613548184854,
				0.35627851579384817,
				-0.2154509083965853,
				-0.6658323408628649,
				0.6518903786492355,
				-0.16625661780407114,
				-0.7994275068524106,
				0.6076933548167733,
				-0.6085673229572355,
				0.8740144040056935,
				0.4918382724879009,
				0.6842210176829386,
				0.6897644391199402,
				0.11629547487332736,
				0.5589420973272792,
				-0.47679661840999543,
				0.7056490454197886,
				0.5040963041661501,
				-0.8926450418444052,
				0.11261504812730694,
				-0.058265679290261385,
				-0.3842411880197214,
				-0.1091354784141676,
				0.9254739410698516,
				-0.7808405563318952,
				0.7788554988963381,
				0.6180707720745376,
				-0.8354116846141877,
				0.3696671154945171,
				-0.47552695395913597,
				-0.15093028548271467,
				0.3140607111490913,
				-0.8608995548425588,
				-0.8741308269806672,
				0.4688991364216329,
				1.004137948258044,
				-0.6926721898973065,
				0.937750663220698,
				0.598428960464719,
				-0.5197526419609155,
				0.10992034770209447,
				-0.124268501807697,
				-0.4326857069362071,
				0.9041746484779662,
				-0.053872982347624276,
				-0.4713746625026962,
				-0.04970292660960007,
				-0.34873077485249127,
				-0.5621995107200228,
				-0.9153948675872443,
				0.2790101101822384,
				-0.9471358269455403,
				-0.6059984700262975,
				0.30879485897522585,
				-0.5482328296140163,
				-0.6358579278101804,
				0.38089478906828267,
				-0.9656750390072247,
				-0.1636682516175137,
				0.8842657629612121,
				-0.656684256513612,
				0.5045429664272382,
				0.6501427678197996,
				-0.3027885191232152,
				0.6856809832227295,
				0.5056702671010899,
				0.6123302225047969,
				-0.7689694590534648,
				-0.48235897702305675,
				-0.7290141600442732,
				-0.2066130114436091,
				0.2231373376049266,
				0.18518838241271807,
				0.9322640885923068,
				-0.2952048907994813,
				0.40338022908650917
			],
			[
				0.38203565261786254,
				-0.4213012285273394,
				-0.8905581313235902,
				0.792978016573834,
				0.7931931134273755,
				-0.7287653414854236,
				-0.4336140326578257,
				-0.822487101996292,
				-0.6717208385905202,
				-0.04050531329400764,
				-0.6677466995259973,
				-0.8765796681562992,
				0.8156590494351286,
				-0.402239573103107,
				-0.05418506758444641,
				-0.39283445178213006,
				0.9070163100654498,
				-0.07157252571847472,
				0.7188807939878714,
				-0.06064603603829655,
				0.712964235772366,
				-0.618262424863596,
				0.6051283746848073,
				-0.33575182447860685,
				0.13001631528068502,
				0.2711425546697037,
				0.2479523587480541,
				0.17603149549186137,
				-0.6940319138693489,
				-0.9872320773746202,
				0.6193025183823306,
				-0.7264608564153927,
				-0.0998043723144324,
				0.2283020773313713,
				-0.03198774080041167,
				-0.7176605000609078,
				-0.5777629190718354,
				0.0364791710448924,
				-0.35881994865264355,
				0.46488951562627046,
				-0.7560771034231788,
				0.4172308802492175,
				0.8903950167816141,
				-0.6069574437101339,
				0.11015780326270752,
				0.3223995719701702,
				0.9705753072794807,
				0.17334312010516095,
				-0.5191250644449279,
				0.04127959010472315,
				0.21332587791469804,
				-0.09202947837506015,
				0.05105196108652432,
				0.07289135080474196,
				-0.8914737742445702,
				-0.15513870966390675,
				-0.6862246553130826,
				0.9016762002811318,
				-0.8737977120364904,
				0.4439974738239538,
				0.13326386568539883,
				-0.28639232937911885,
				-0.2209517762140436,
				-0.7059400945793102,
				-0.8656369623742339,
				0.8962631474561276,
				0.6893544359131076,
				0.6249880919908342,
				0.05921592032326831,
				-0.24650185517918063,
				0.6316855008049873,
				-0.5561484541410531,
				-0.37242624997853485,
				0.2994166742988357,
				0.9807774046213384,
				0.8226310147843123,
				0.4024989061545523,
				0.28402038422299736,
				-0.4935463853157249,
				-0.45446567846044417,
				0.45717542617950935,
				0.8845666766842113,
				0.2141154913912846,
				-0.07983319301978042,
				-0.5270741996254382,
				-0.45413982321285085,
				0.04273140710263856,
				-0.980989629659506,
				0.8183285312459461,
				-0.46963217874345453,
				0.16688925063184534,
				0.8268506733102581,
				-0.845612230879619,
				-0.7132451558533388,
				0.25870646375332607,
				0.19999935573483096,
				0.2828847571433757,
				-0.42453209245417417,
				-0.02877300146767359,
				0.4953152457491418,
				0.15205368581625153,
				-0.7415922793619713,
				-0.37813574001359473,
				-0.8891979777182941,
				-0.24801056911990926,
				0.8106149862104832,
				0.9188136196553605,
				0.18301446944142796,
				0.042179322388867124,
				-0.17911777228284764,
				0.953637414993004,
				-0.21547358077788026,
				0.33342080681568254,
				-0.14382692382766704,
				-0.6106635481051321,
				-0.5194794027224168,
				0.3428955982456796,
				-0.8042890027403522,
				-0.3269550763547935,
				-0.3273324754874478,
				-0.8921251480997876,
				0.19195297196998506,
				-0.3437794987654219,
				-0.7217131405169407,
				-0.0896209432404766,
				0.526689241808491,
				-0.7175388379008386,
				0.2479936363967693,
				0.4249396557364599,
				-0.9963142324300457,
				-0.08179986836353625,
				-0.21578926426906403,
				-0.771987008323769,
				-0.7577594808538985,
				0.4557029669071553,
				0.9456106714496517,
				-0.7130718027607172,
				-0.9976463700639986,
				-0.5341359089065918,
				0.15750446344337377,
				0.14633897573612398,
				0.13069857248142513,
				-0.3264857785335984,
				-0.7756449066059479,
				0.5065310084066335,
				0.5036718137534955,
				-0.9357486532574315,
				-0.7450001020567583,
				-0.28453797448415896,
				-0.8187732913488972,
				0.3701453708084964,
				0.4002385875304259,
				-0.6026815033472765,
				0.8694090387700617,
				-0.7640097412282052,
				0.3037463562155119,
				0.09567806334297448,
				-0.18590968808317052,
				-0.0003006372194547879,
				0.5003456899841793,
				0.37332542002226465,
				0.1440105613856289,
				0.33568852542777927,
				0.6794185091731837,
				0.39194072374581657,
				0.9845458564802683,
				0.7931741177471796,
				0.5648885165835633,
				-0.6346448983586517,
				-0.46923979704937,
				0.29598842101592027,
				-0.12257679003642519,
				-0.9181099525634129,
				-0.6347535670916802,
				-0.4026890549619125,
				-0.502867979158098,
				-0.3730360252511727,
				0.8943472802487845,
				-0.8238790720298174,
				0.3433024333291647,
				-0.0715121517730538,
				0.24050926892674945,
				-0.7910483351946057,
				-0.27387734204142417,
				-0.2555896529079842,
				-0.7652925300632137,
				0.5902723827477129,
				0.05148222718516646,
				-0.4974256275038004,
				0.9799641241611007,
				-0.5627449764034463,
				-0.09397644890140988,
				-0.31463937094829886,
				0.998305828265964,
				-0.5489567644402777,
				0.5054003069581015,
				-0.36125547553144965,
				0.33989644847937184,
				0.3837268628815293,
				-0.38633159367653036,
				-0.3524428610040896,
				-0.9041063180721909,
				0.9244388252926932,
				-0.9450043765041802,
				0.08397429086542745,
				-0.001406791973193426,
				0.5277276775653519,
				-0.18218443574141258,
				0.05925687086829286,
				-0.34536551424178236,
				-0.51643320241117,
				-0.5019837664553365,
				-0.9611986114222207,
				-0.517631268707389,
				-0.6002662825348697,
				0.06769158488763168,
				-0.41303624396803995,
				0.40926298516753445,
				-0.837751099291273,
				-0.3969425604702993,
				0.789391718181041,
				0.6102571099164108,
				-0.7155457102388758,
				0.0006471684381041953,
				-0.16363264290210466,
				-0.9822461370314945,
				-0.8467159342815265,
				-0.2573809305427246,
				-0.9685972115833464,
				0.6805977765988387,
				0.7883357450327333,
				0.5169796684281235,
				0.6959568271601547,
				0.5889465380556511,
				0.19230490754544438,
				-0.6770122820533451,
				-0.2725605523479298,
				0.9683797540463164,
				-0.21669437295866378,
				0.4738840195591109,
				0.3285978723701947,
				-0.0045520252885770905,
				-0.2956403054121469,
				-0.9462139674898955,
				-0.9590619956275882,
				-0.7805446194106581,
				-0.5344536380498259,
				0.01967719997727754,
				0.5435787699590866,
				-0.9665415506330131,
				-0.9819280443914731,
				0.3286700988945759,
				0.8501729305333439,
				-0.0977582483187227,
				0.289750091656295,
				-0.631764042753535,
				-0.37273405846055907,
				0.2305372716197252,
				-0.9832032578678281,
				0.25180073349617615,
				-0.6023578204043238,
				0.20331471900472947,
				0.21598345679157863,
				-0.33241802112928126,
				0.9898493822922081,
				0.5911043366277625,
				-0.5712640806654262,
				-0.7860714063644655,
				0.10879481577131968,
				0.3397615625753754,
				0.2643641496798427,
				-0.4416654433761463,
				0.9754678437397422,
				0.39285589117789643,
				-0.20274964371721999,
				-0.639603296544876,
				-0.14670232429213262,
				0.9079284228885611,
				0.19445492403604092,
				0.10740587906700094,
				-0.8612129886212934,
				-0.31637521727568796,
				-0.5971023255866701,
				0.14989824514332972,
				0.8665759681966255,
				-0.23371832209589763,
				-0.07119778198730678,
				-0.1924970650764375,
				-0.8532907466075894,
				-0.04984946967409957,
				-0.5297166228742054,
				0.5746646791719034,
				-0.41126822732095103,
				0.007014357885568763,
				0.6862223888089719,
				-0.1209373397306647,
				-0.35366378209008587,
				-0.6471156307429788,
				-0.4081078364391263,
				0.94774315466636,
				-0.7676903332550659,
				-0.4356945484007464,
				0.9041381482595547,
				0.6845615436897077,
				-0.06443706192065336,
				0.23202753074919344,
				-0.3415155231153153,
				-0.00514381190554003,
				-0.23199396230414582,
				-0.8070151134587507,
				0.08538637402259486,
				0.5770403076655156,
				0.7183171308696681,
				0.20563720718244125,
				0.4572256823819433,
				-0.1438887458261772,
				-0.03979653104198804,
				-0.64015378929998,
				-0.8448731035783926,
				0.6625714491287636,
				0.49456554664850116,
				0.061147135793977334,
				-0.7392935754073171,
				-0.4406625248053494,
				0.363037271868694,
				-0.5803550348023387,
				-0.36272996347446795,
				0.8140015326498856,
				0.10314545923586496,
				0.5669356440864313,
				-0.7526519855902392,
				-0.8404418018050007,
				0.8732848751200941,
				0.42763260512830925,
				0.3740233542937994,
				-0.6704190563993628,
				-0.8194356841777428,
				0.7823635322846041,
				-0.17646008858694895,
				-0.7417259211138185,
				0.2918241814421765,
				0.6976157315122404,
				0.4865571003525281,
				-0.9965028695334325,
				0.18706801568533746,
				0.9091193966937389,
				0.45538971655848987,
				-0.3874970544176142,
				0.9188918114489943,
				0.4824481697050769,
				-0.13304281069874016,
				-0.09572648011003979,
				-0.8728237585577195,
				-0.8465155993167229,
				0.1276267552887152,
				-0.19302472022567638,
				-0.14029070514614483,
				0.7878879051454206,
				0.7075550969196622,
				-0.699770377732504,
				-0.10568120369933398,
				0.7330537903407626,
				-0.5500955766702793,
				0.8114274879331873,
				-0.04654495680827031,
				0.19746781143269843,
				0.49985036049426945,
				-0.9074628056290304,
				-0.6995086153824954,
				-0.35358967936400265,
				-0.40207601964428513,
				-0.4754340872417508,
				0.4328362451453819,
				0.7782859952666376,
				-0.7354928846758241,
				0.5197346838374781,
				0.09448150054142716,
				-0.5118807967952493,
				0.26813422253388774,
				-0.09939899922374143,
				-0.9807837112331663,
				0.5769598026205061,
				-0.1983412614149306,
				-0.11092188146878773,
				0.4916165888351791,
				-0.7385107510009573,
				0.9924381610652746,
				0.20113712751670107,
				0.46128252360935207,
				-0.9939851406452007,
				-0.4988205420666123,
				0.742482993135404,
				0.4805503286084849,
				-0.83885794116651,
				0.9868200784324719,
				-0.5314513134530374,
				0.04350667169134393,
				-0.7720326094884914,
				0.24307119412383849,
				-0.5380412745614088,
				-0.8892172444124841,
				-0.3776287627682011,
				-0.027505023239168223,
				-0.5250329192762636,
				-0.3691556740358608,
				-0.48108133276261256,
				-0.5381107727703219,
				-0.256095503971431,
				0.7756566688988532,
				-0.5442112523989113,
				-0.2765181581745501,
				-0.8747410606182497,
				-0.007082937501402284,
				0.4155978292001544,
				0.03601007874662072,
				-0.7469130275771976,
				0.1498694494659918,
				-0.39552296247125573,
				0.34788966530466725,
				0.6622892689976871,
				-0.36978002145230615,
				0.8426877148601086,
				-0.5781134109815866,
				-0.7371364150944374,
				0.9566633517379485,
				-0.125781801492309,
				-0.8356662184975753,
				0.37439846262244747,
				-0.8986251663796734,
				0.32753280015092134,
				-0.4031885974993873,
				-0.13227685219283775,
				0.7626375510801693,
				0.6509052339779704,
				0.8345312859098307,
				-0.25808336090049333,
				0.09935209119030428,
				-0.20555490187100606,
				-0.9052427602805362,
				-0.2250825070029558,
				-0.3648614324769995,
				-0.863486372999238,
				-0.21333771482701133,
				-0.7491728490732479,
				-0.004629615472140802,
				0.059101073517710656,
				0.7561125389561338,
				-0.5346196050729097,
				-0.6373854173020894,
				0.16701856159771733,
				0.9598409059539148,
				0.7380956592477356,
				0.9660299875536663,
				0.548049900098404,
				0.7262760755508557,
				-0.38676477238609447,
				0.06430117970514697,
				-0.4892963311026987,
				0.7246065250749927,
				-0.6450961572376681,
				-0.04173495672761033,
				0.9173203970401997,
				0.16738387385260148,
				-0.7116781314078167,
				-0.34942036178201835,
				0.9832152793573584,
				0.9815347597174184,
				-0.050709446094454255,
				0.12277295331503546,
				0.03461586255262789,
				0.9129183308635982,
				-0.08337742769056873,
				-0.1960156144428904,
				0.0031250570076815087,
				-0.8319339665210959,
				-0.33581345804205043,
				0.030664744440849656,
				0.49546561944475975,
				0.11193327217951587,
				-0.028475683075341002,
				-0.9416976560222344,
				-0.593464009381829,
				-0.6765770629943794,
				-0.8896065457638175,
				-0.14280549634915105,
				-0.8320404783443277,
				0.22919125238791088,
				-0.3556095030315104,
				-0.5366060613123359,
				-0.7634992589873123,
				0.48552835374240194,
				-0.6434538772832664,
				-0.09152333793328074,
				0.2567823324121747,
				-0.9384689965049089,
				0.10365404187926058,
				-0.12300264405751464,
				-0.6001592169700743,
				0.47540275298323076,
				-0.8634613943577135,
				0.11939781074284836,
				-0.6624719661337606,
				0.9134285747315003,
				-0.2938467411856154,
				-0.32529662643750923,
				-0.5062035813737591,
				0.4915010163091611,
				-0.892443551813944,
				0.9864821339780359,
				-0.9922312276797125,
				0.5355583887414921,
				0.6298049877200094,
				0.6898577634899327,
				0.24367152229326694,
				-0.7318960728573396,
				0.2693415576783685,
				0.002466460295489735,
				-0.7180722569718431,
				0.014871510278595311,
				-0.8860913866459327,
				0.4106611925154259,
				0.685907338550164,
				0.8768289147873886,
				-0.28013990778734515,
				0.3136619267447444,
				-0.6891187730271721,
				0.9742943742767382,
				-0.28653514470659686,
				-0.08020086131766316,
				0.842279266631417,
				-0.2155907096370817,
				0.9337300099067698,
				0.0921378412334608,
				-0.55293693751377,
				-0.6999298307036175,
				0.4661977724179627,
				-0.36992306942557535,
				0.06541322913278702,
				0.008650148932407498,
				-0.028277677486377124,
				0.33234753012569934,
				-0.3217806864105195,
				0.6461554433976574,
				0.06993582178424518,
				-0.7649144185882116,
				-0.07282877013304417,
				-0.242666035063338,
				-0.780028613882759,
				-0.11557575049057514,
				-0.3895437158381136,
				-0.12954116788588196,
				0.31548948707305574,
				0.6884697156066064,
				0.45919671818433194,
				0.07477406111444433,
				-0.8143573905186747,
				-0.8099743350087907,
				0.7707304685058567,
				0.3440549106082269,
				0.36991114416495385,
				-0.6227936301232764,
				-0.14701172202499624,
				0.5532435363800188,
				-0.4752275764059273,
				-0.6427004794051396,
				0.31368950611225177,
				0.7631993905249098,
				0.01663352313009641,
				0.040246882169699155,
				0.68826003697114,
				0.2804182001308524,
				0.9616261834429985,
				0.991753120798045,
				-0.32730560702016537,
				-0.282716041808002,
				0.18416255049562258,
				0.644595181808262,
				-0.3776902055098872,
				0.4854569729736375,
				-0.48748762555029396,
				0.36407673860841855,
				0.3394527433053104,
				-0.7142816104735172,
				0.2912108452838247,
				0.1989133556355167,
				-0.36567464390209103,
				-0.16193325196506514,
				0.431125788686046,
				0.6630016379520001,
				-0.4870772344134693,
				-0.2828574343899275,
				-0.00733486236300962,
				0.8517129886881469,
				-0.1763024311927941,
				-0.1466467655306587,
				0.19334127395925027,
				-0.7245787772856651,
				0.35050203139501585,
				-0.7459851744376592,
				0.20416033056640712,
				0.8755169121869965,
				0.4765054248242838,
				0.5584236716577312,
				0.6871900989855603,
				0.023032504975641962,
				-0.04626217425517416,
				0.5271018081279559,
				0.3670311003463028,
				0.44899113866444174,
				0.12136392895260148,
				0.1011713627636599,
				-0.08581573092624417,
				-0.04439196941566692,
				0.6710357235027704,
				-0.6490276318208594,
				0.046118304401718824,
				0.8178523920457441,
				-0.6085250832865516,
				0.027805039775415707,
				-0.7945880331070456,
				-0.8308397519921553,
				-0.6408609593225072,
				0.19204413809101606,
				-0.30262066936583176,
				-0.539372732042823,
				0.15035706106695954,
				0.29995100442961814,
				-0.9294084418938215,
				-0.992239270494625,
				-0.3272850635543983,
				0.5296480346125434,
				0.5430336173083337,
				-0.7383346682553269,
				0.3176961216245493,
				-0.8933116410468044,
				0.8920195574962876,
				0.3876672272264309,
				-0.21328308996324916,
				-0.31754716665611316,
				0.014886570318320302,
				-0.7668232798327734,
				-0.6094947381688538,
				-0.9986364109643961,
				-0.062311095628969415,
				-0.6825911225144154,
				-0.038465315381996046,
				-0.8048956030391361,
				-0.49545284919568067,
				0.5299704963406824,
				0.7005875305161275,
				0.4773761265197267,
				0.8834538352471868,
				-0.5359302202472276,
				-0.2463468691003517,
				0.8967935670903183,
				-0.3806832252874904,
				-0.17207814061755594,
				-0.7367487194970241,
				-0.8384204447261652,
				0.8383845812511066,
				-0.2121020195186381,
				0.9929833542152149,
				0.6962586396393367,
				0.6274156471530539,
				0.6140215632616244,
				0.9086966411465089,
				-0.876056205973898,
				-0.2827144263970589,
				0.4163812171443282,
				0.48984532941629144,
				-0.12823077749698308,
				0.3319470640536273,
				-0.5717866451429465,
				0.3317558974135322,
				0.5277870748638,
				0.45765134740991975,
				0.7052831963917541,
				0.6767607269424576,
				-0.18248908864850844,
				0.36350051025666996,
				0.41904985021091745,
				0.8432891072169522,
				0.4501656365199711,
				0.21297687432702292,
				-0.888019100835996,
				0.14790724761508894,
				-0.4828763085914695,
				0.7315922335462235,
				-0.42755861853748184,
				-0.6869218763979774,
				-0.062364560557649884,
				0.1993549777431228,
				-0.5122140609515105,
				-0.41270036640708935,
				0.563851256298067,
				-0.027222398405533088,
				0.18665650716968463,
				-0.32128518194791233,
				0.8940538687245705,
				-0.8294421556844163,
				-0.8758595422294708,
				-0.2720292831494673,
				0.5068733262671699,
				-0.8104402980468604,
				0.9008250034043397,
				0.207962096086868,
				-0.1324549191383153,
				-0.30301796995786034,
				0.07973829105927077,
				0.09587612737032414,
				0.5809596092396365,
				0.9971931322666113,
				-0.789798667149173,
				0.9240188023946828,
				0.6683795904347447,
				0.07788516514002893,
				-0.01170608012376796,
				0.4638414573566844,
				0.17354591055662177,
				-0.28155349514808503,
				0.9122217652875142,
				0.7508882327978933,
				0.5620624386141031,
				-0.5632847983298301,
				0.8835691210767553,
				0.07965214236290308,
				0.16858863446754535,
				0.17752707175184756,
				0.21740521650466027,
				-0.7963416353889303,
				-0.009013651178259696,
				0.9969910128881581,
				0.18485591665782808,
				0.14567613282316216,
				-0.8551623725288211,
				-0.33731739680106854,
				0.8353144306291362,
				-0.038754206403496916,
				-0.4614810303287835,
				0.044111905780960296,
				-0.6367406637527109,
				-0.5711498836742546,
				0.5798865000738588,
				-0.052014310609962484,
				-0.7444704885127051,
				0.807505307503803,
				-0.8453391350276777,
				0.9102786245900867,
				-0.5207774958328808,
				0.21246652070486594,
				-0.42108587801986586,
				0.1732759227122247,
				0.05056219321734501,
				0.07931485271783156,
				0.7824303817604283,
				-0.11952622743349073,
				0.5456499556586039,
				-0.31622386073874686,
				0.5776238956378137,
				0.7096177119814087,
				0.6013974455278559,
				0.4915210157391381,
				-0.8566980600266971,
				0.13917416880421252,
				0.0033497918703813134,
				-0.9305292785025601,
				-0.08984235917670469,
				0.005933298573549753,
				0.42781647420403407,
				0.31680892560365764,
				0.8612844101213676,
				-0.27312391814462417,
				0.2042394493021596,
				-0.1715232226883489,
				0.8060843251433769,
				0.6276146045566304,
				-0.44191470527588894,
				0.5843182359924635,
				0.2672356719697464,
				0.5872511935654217,
				0.8039383345242035,
				-0.8171873054438472,
				-0.23298889991555738,
				0.925663090321907
			],
			[
				-0.7224344164490084,
				-0.9943636729024852,
				-0.8434288971439252,
				-0.5764352928919116,
				0.4053000048193178,
				-0.9842946308359357,
				-0.6779474824272973,
				0.4543210433184166,
				0.6724447398004689,
				0.9043031511607413,
				0.053104287067759604,
				-0.3846885552923398,
				0.6491661195543355,
				0.6913076173903643,
				0.4836002534244961,
				0.9031026559739472,
				0.7394224646164842,
				-0.4999641908654944,
				0.7474659709885292,
				-0.48400268816326264,
				0.5008679829371054,
				0.9518374192483949,
				0.5538295336020123,
				0.5466947481067086,
				-0.004526255276590785,
				-0.5634607095360127,
				-0.5163189090786662,
				-0.7950621982696635,
				-0.3826731268598129,
				0.5826707215156435,
				-0.6655654455236282,
				0.6956261386620506,
				0.7865605989052327,
				0.8262929619056005,
				0.49880403387617633,
				0.7836303579732862,
				0.7481146379289894,
				0.5822205414664179,
				0.04220393360855246,
				0.34086296849482567,
				-0.43781939458582597,
				-0.31430131283654816,
				-0.5278790652151395,
				0.3447851130809503,
				-0.08370318422932212,
				0.5164349411039061,
				0.6979545260088185,
				0.9303188632137602,
				0.4890715236976173,
				0.2203203950638617,
				-0.8025773157271887,
				0.7468442586978798,
				0.2551176332841001,
				-0.4110122476958762,
				-0.5123091814171361,
				-0.5210310858926115,
				0.32805152720629316,
