{
	"biases": [
		[
			[
				-2.076818770269151
			],
			[
				-0.4570642883104945
			],
			[
				0.18815199940938743
			],
			[
				0.9845154933127259
			],
			[
				-1.182745591825856
			],
			[
				0.5174592880185787
			],
			[
				0.27961912917735604
			],
			[
				1.1290715895865353
			],
			[
				1.0876490344013778
			],
			[
				-0.6074928971249915
			],
			[
				-0.17688977148142226
			],
			[
				0.9498953800895429
			],
			[
				0.3405506970737026
			],
			[
				-0.06594171400752376
			],
			[
				-0.4056787771623839
			],
			[
				-0.09018303378271783
			],
			[
				0.1496319702277881
			],
			[
				0.49598962567282
			],
			[
				1.2518958795739643
			],
			[
				-0.5639265090860882
			],
			[
				-0.9426229631252043
			],
			[
				0.5247278897271809
			],
			[
				0.06784988730977988
			],
			[
				-0.09812354927699653
			],
			[
				-0.34083566777473545
			],
			[
				0.24296321067331003
			],
			[
				-1.2001529552953096
			],
			[
				1.0242230805400314
			],
			[
				-0.8040720013176061
			],
			[
				-0.43010188274975863
			]
		],
		[
			[
				0.702653999715591
			],
			[
				0.8722209629790861
			],
			[
				-0.3765764193878281
			],
			[
				-0.7769595050617828
			],
			[
				-0.30699207407089785
			],
			[
				-0.6949198381472048
			],
			[
				0.05845813766588516
			],
			[
				0.2390260818511068
			],
			[
				0.8524538084626538
			],
			[
				-0.014731159047097243
			],
			[
				1.8601932759892579
			],
			[
				-1.1741790590037664
			],
			[
				3.033560758236657
			],
			[
				1.9132320959055962
			],
			[
				-1.0957928714344034
			],
			[
				-0.510583662822979
			],
			[
				0.45204081619633896
			],
			[
				-0.6626620691679103
			],
			[
				0.12587128002210782
			],
			[
				-1.264101046874446
			],
			[
				0.7647183177044233
			],
			[
				0.9796211774156359
			],
			[
				-0.7925682191321458
			],
			[
				2.5490730667631714
			],
			[
				0.06131954161278685
			],
			[
				-1.6190516025618973
			],
			[
				-0.17090303311694388
			],
			[
				0.9128680449387152
			],
			[
				0.48354129847970695
			],
			[
				1.0877392793106653
			]
		],
		[
			[
				0.6201415358818632
			],
			[
				0.5174989089425597
			],
			[
				-2.7023568130291022
			],
			[
				0.7162778159613616
			],
			[
				-1.805491979295549
			],
			[
				-0.03904705037208051
			],
			[
				-0.637017294601604
			],
			[
				0.21424672825570615
			],
			[
				-1.8483933093391733
			],
			[
				-1.2766581722934662
			]
		]
	],
	"weights": [
		[
			[
				0.870123648247905,
				-1.9455248507989678,
				-0.48660551178012074,
				-0.4822342959935163,
				0.8259242551582159,
				0.6996259672360402,
				-0.11529122173956473,
				0.9699427536016489,
				0.593751734911007,
				-0.6030191494327459,
				-2.106288355845924,
				-0.30916261922281446,
				-0.6896106305155998,
				-0.5910356453186338,
				1.4544883944990104,
				-0.9768483286758973,
				-0.5642194261388082,
				1.5148508241318335,
				0.287337943538344,
				-1.9595478143534633,
				-0.28520151396170174,
				-1.9384689999469837,
				0.13041595438492462,
				0.7945646625765952,
				0.8515854775977703,
				0.04299480364478834,
				0.18755841958242195,
				0.19303111070295814,
				-2.096879332509729,
				1.3998793145685982,
				0.13085121262339638,
				-0.28605704266849075,
				1.045200087606016,
				1.2300737968070656,
				0.4422767314461804,
				0.5338040761299377,
				-0.18433473447152274,
				0.8705084800968061,
				-0.5827402694698838,
				-0.5954640144587376,
				0.5044048364185931,
				1.0054712864762934,
				-1.499331916756896,
				-0.7254531461563264,
				-1.1786502838552149,
				1.6650736769781458,
				-1.0721609089915793,
				-0.3481864969330371,
				0.9975187605973422,
				-0.26625171316054447,
				0.5949166484670695,
				-0.9553344510721918,
				-1.0080735560323955,
				-0.5929955712721057,
				1.364678259177764,
				0.46366956797568193,
				-0.146453966557526,
				0.6621335080327295,
				-1.958973864939901,
				-0.9159714954816903,
				1.0615770134592555,
				-0.8336834780051399,
				0.87298135287697,
				-1.6411369364527653,
				-2.0347571710617194,
				0.14176909489067674,
				2.8154825703110906,
				0.14568376018729737,
				0.6649868965211205,
				-0.0473867391904737,
				0.14559778401964885,
				1.538504454294755,
				-0.8856230071230333,
				-0.11242103577561216,
				-0.25175490237735954,
				0.6468116644562021,
				0.5959607962628404,
				1.8169236143342238,
				-0.5878044478551733,
				-0.4362398876401504,
				1.3929043754736654,
				-0.2950294708109929,
				-0.13842910287168117,
				0.15457075028053263,
				0.21599884465266359,
				-1.5126379434634742,
				-0.9216429213380274,
				0.18836167710227575,
				0.06585438892800918,
				0.578798009246978,
				-0.923393271288423,
				0.08373718664801892,
				-1.6928464610479017,
				-0.7949843104212835,
				-1.475457910311411,
				0.13982681092874813,
				-0.13975520317741696,
				-0.2969121103343004,
				1.1690212613373474,
				0.15584290483207755,
				-0.5756693656188664,
				-0.9993779294972909,
				0.6627282239242214,
				-1.4284433233627536,
				0.27791786745381414,
				-0.21907213732739206,
				-0.003828788206057223,
				-0.19951726765993183,
				0.19246177096051098,
				-1.3066100438180273,
				-0.3370760788950132,
				-0.35556393266643765,
				1.3463925455960475,
				-1.6954838762219433,
				-0.9090560465219638,
				-1.0527888457035959,
				0.49263457649986764,
				1.1033105417211404,
				-0.38905303917864326,
				0.3130621705297234,
				-1.0397527764938568,
				0.11149492352059824,
				-2.6465581765493047,
				-1.5081576728101782,
				-1.5340498335352422,
				-0.2254180814713562,
				-1.4306596545777073,
				2.6953490984444177,
				-0.7339068549963781,
				-0.1544078008185891,
				0.06886251816213534,
				-0.4305786058976559,
				0.5272422069919865,
				0.029238642432467196,
				-0.47168105047686165,
				-0.2131430191200032,
				1.0443298724241912,
				0.010469797740474674,
				0.40821439859112113,
				0.89250317138443,
				-0.11317075839533139,
				2.1805961585686724,
				-1.3454952885155835,
				0.2167529096177818,
				0.16797876896786432,
				1.1133713142164965,
				-1.0845062091743842,
				-1.4959274409542944,
				0.2107929686551822,
				0.6219672304836145,
				-2.2743795269092444,
				-1.87287761415108,
				-0.6584201862313274,
				0.08498908913311286,
				1.3806417920220986,
				0.7150542906149856,
				1.3056333804382432,
				-0.3980696180245283,
				-0.03445350128356916,
				-0.09285552956883947,
				-1.9832382427249575,
				-0.3191235876290735,
				0.07736585984536522,
				-0.6076836454405005,
				-1.2330525236092538,
				-0.17934991844310877,
				-0.5509253831015735,
				-1.4407088839842397,
				-1.061850242019423,
				-0.786956543735052,
				-0.16112495352417122,
				0.6456917127129869,
				2.1592799903907567,
				-0.30879534654920837,
				1.8682838155820325,
				1.1211919424339283,
				-0.7846396631301832,
				0.8245077324865988,
				-0.25516899794099723,
				0.5667356740067739,
				-1.209654383192132,
				-2.307598779524899,
				-0.4328435770019375,
				-2.109562979533806,
				-0.22659011891866038,
				-0.6161883575235974,
				-0.5400746983830529,
				0.2193418329084374,
				-1.2719126177029692,
				-1.93683563313986,
				0.3408321714589973,
				-1.7181719563052251,
				0.8402657808815145,
				1.3123771737347671,
				-0.3391886772057591,
				0.8265494403942972,
				1.2866103626912326,
				-0.47100343134720035,
				-1.559716721449872,
				0.17512046189097727,
				-2.261040504983871,
				-0.43422700899568567,
				0.8068987642500173,
				1.3002774279875504,
				1.2388715872557192,
				-1.590499647633966,
				-1.2774503298673008,
				-0.48962268286606614,
				-1.0287927060773252,
				-2.9082956057442395,
				-1.2959972714067762,
				-1.9902084539682583,
				-0.4789495780850674,
				-0.281603430408682,
				0.1855650418294824,
				0.18769699673533488,
				0.37955780626919566,
				-0.22949893741897032,
				1.1447473533162442,
				-0.27154318291870033,
				-0.1948504727566135,
				-0.21612694731568505,
				-1.4536619174427925,
				-0.8603804675833442,
				-0.35166164398909616,
				-0.8371481114433247,
				-1.5259374998851807,
				-0.43464426119559435,
				0.13481892427567743,
				0.6223221049735935,
				-1.8610979131274468,
				0.7125431108809427,
				-0.07148343854213939,
				1.1677906252808647,
				-1.9717501097807628,
				-0.4043256315075916,
				-0.2857690406255781,
				-0.7431285270720115,
				-1.2074319683899855,
				-1.5383251352030016,
				-1.0116910670929733,
				-0.7354254430377003,
				-1.3043845747277816,
				1.1243586608553489,
				-0.21680000344765762,
				-1.1699471480618564,
				0.6375193586910602,
				-1.3148893951229768,
				-1.7065594597870124,
				-0.3981500905167763,
				-0.47259568851120204,
				-0.6780821388609415,
				0.39880525365857017,
				2.113613076332458,
				0.06918692051530306,
				0.5960005636113656,
				-0.014714356716110016,
				-0.934801588753319,
				0.7825736133108231,
				-0.5525533869086262,
				1.987655336932113,
				1.5844378160010901,
				0.36325693659712194,
				0.6910908209776525,
				-1.1134789633476097,
				-0.680283894915705,
				-1.6013499414101229,
				0.1754622577459053,
				0.031061299890116478,
				-0.8081542488434083,
				-0.13188287448084035,
				0.123011373586193,
				0.0831470737020974,
				1.9013543944470432,
				0.5662184189322615,
				-0.7280908073601388,
				0.3100503451164459,
				-0.7272294165133611,
				-0.2095725798244458,
				-0.925893626612322,
				1.5164945441940303,
				-0.5504749845017781,
				0.9768933489076937,
				-0.7389746127959822,
				0.9585004381056418,
				0.4854236408728752,
				-1.3332069067611796,
				0.027357205198685446,
				-0.09110914594934764,
				-0.08829492677796186,
				1.6218916978862836,
				-1.7623647848440833,
				0.08336869845418392,
				0.2175012127243721,
				2.4445288543632033,
				-0.4600411989386633,
				-0.012290857582655752,
				0.07829937893022236,
				0.19536963804400687,
				-0.918021062634375,
				-0.7955535398367797,
				-0.22511860641732362,
				-0.10511545803102396,
				0.12669048001750252,
				0.8745184486948415,
				-0.5778694976542517,
				-1.2390579631122818,
				0.2522590249051324,
				1.198416600404905,
				-0.3552822004944111,
				-0.5678209831174533,
				-0.7039101375407345,
				0.7741332616686709,
				1.8743244744748708,
				-1.09755327301568,
				-0.7712298041522219,
				1.6459691780685484,
				-0.48512317483154355,
				2.411407993799265,
				-0.5121932200758094,
				0.45743864785442695,
				0.27289793462776507,
				0.13729690703767,
				0.8614118319734635,
				-1.0525790196827034,
				-0.5151837343941232,
				0.9486538580330377,
				1.3385356774444608,
				1.0737680305669524,
				-1.5720822311705063,
				0.7474844424640323,
				-0.26722060087797195,
				2.246767621047007,
				-0.640760861774489,
				-0.8949254751211059,
				-0.8461288573866116,
				0.0966765059342068,
				0.7456192080787157,
				0.47695946239331666,
				-0.0474737281977432,
				-0.03978390387387823,
				-3.1286579798488225,
				2.2128692399704466,
				1.29509627865449,
				0.6965590758430181,
				-0.46805030553097254,
				0.9134180424586635,
				1.0094946907347486,
				-2.16202749313227,
				0.5148745107904307,
				-0.25199544256866757,
				-0.8127611823833282,
				-1.2418160270641774,
				-0.6470989700549812,
				-1.0745200454721067,
				0.10411655783835592,
				2.4650049301729458,
				0.21418278703446936,
				-0.8817074949489542,
				-0.7693464429577801,
				-0.14402723255331473,
				-2.4633025457177835,
				0.02035594941758712,
				-0.3152821013384221,
				-1.2210431474320662,
				-2.690091125501789,
				0.10836111288834845,
				-0.38787629792399947,
				0.6085613065906834,
				-1.4245907405845815,
				-0.35589134231949743,
				0.5032070572247747,
				-0.33611423103826565,
				-1.545868232769557,
				1.8966315189439622,
				1.3209028758425794,
				-0.27721592196384875,
				-1.8086691923122027,
				-0.2737045897640126,
				0.260341588821852,
				-0.18750636136734902,
				0.4978406702035817,
				-1.06770698382968,
				1.0880069789754885,
				-0.6825832595920114,
				-0.021292511763022555,
				0.777562893881652,
				-0.5172443973217155,
				0.28153024494186213,
				-1.9345586726242983,
				-0.9713163713130286,
				-0.051040133321113804,
				1.1331475572962568,
				1.2014500376513533,
				-0.7028672812161885,
				-0.7512883179729224,
				-1.5474421002088512,
				0.6436944877407567,
				0.6390878831620314,
				1.6703642713571927,
				-0.018430601715153202,
				0.8614781713973225,
				-0.015336753323515657,
				-0.02873177351248752,
				-0.19158615329971834,
				-1.0893951342367725,
				-1.6706471913864678,
				1.5970826618124756,
				-0.6137633783068811,
				-1.518073558584271,
				0.18154418293590827,
				0.7329165430909951,
				-1.392240706649013,
				2.547948406335684,
				0.22908138777661627,
				2.083797046810288,
				0.7215921880718548,
				0.23854935008520678,
				-0.55996963922492,
				-0.24836228564200133,
				-0.6179416252612698,
				0.7069038702239177,
				0.26128061663259344,
				-0.19429983194422654,
				-0.9445788523615095,
				0.6644830580276787,
				1.7704394698265709,
				0.18355662174918658,
				0.9402051105358336,
				-0.33112143963993756,
				-0.30404950892525956,
				-0.5726852437147427,
				-1.84129390894925,
				-0.26219829146846374,
				0.1654061170529043,
				1.0816867378211945,
				-0.9014316523508192,
				-0.9618722803301487,
				0.41792797579936597,
				-1.2850251302749944,
				-0.19229865831650117,
				0.08993910669210511,
				-0.6895596461329073,
				0.4601518405943308,
				-1.0654452576814446,
				0.1501414758222273,
				0.3094004745870307,
				-2.3701728253776526,
				1.1689472143047355,
				-0.1402604696890003,
				-0.5328508044189862,
				2.034482791953377,
				-1.966712669654605,
				-0.33957914921216575,
				0.4531130270967299,
				-0.09663988632725014,
				1.3364135498387806,
				-0.43697153454628196,
				-0.5297666099284309,
				-1.7354621214532302,
				-1.577868525609091,
				-1.1215389161569909,
				1.0914525341895478,
				-0.9126080335642816,
				0.2155130687534704,
				-0.06398956562461221,
				-0.8239762086119522,
				2.1776155746846553,
				1.0048491864292657,
				1.4559391401566928,
				1.2142391100031056,
				-0.6015995634610087,
				-0.14008250767225078,
				-0.4106378461185876,
				-0.3117541859913921,
				-0.8609349662745552,
				0.9695844128048701,
				-1.4882607249961177,
				0.15642887214132278,
				-1.8965725087019796,
				-0.9246992713737413,
				-0.7607594285923407,
				0.11511318495528178,
				-1.4362587630898616,
				0.4423406708529145,
				-1.419441382183265,
				-1.2738542862473592,
				-0.8838559575733776,
				-1.1457514669415063,
				-0.7152276948603313,
				-0.16513938077020973,
				-1.729365947148294,
				-1.0912372125809944,
				0.6467370320719311,
				-0.47557245666903475,
				1.2442872195427948,
				2.055765178128238,
				0.4404869881780885,
				-0.4322950577348078,
				0.9779424290620914,
				-0.36850128850822006,
				-1.3132121452339203,
				1.6687754860632271,
				-1.7696643722277787,
				-0.3342670493933628,
				-0.34069380591681586,
				0.35421159327974827,
				-0.33057352774862336,
				-2.907392274043835,
				-2.326616338315324,
				-1.9678381526818738,
				0.3001108919142746,
				-0.22580221755862812,
				-0.686666341135087,
				-0.43224307196124967,
				0.12276867222613733,
				-0.3705184557853395,
				0.32430331747232355,
				0.16396952221278946,
				0.41543792281947006,
				-0.23842999245641364,
				0.15650958159315762,
				0.1529409827660085,
				-0.14937288058646572,
				-1.7445533251522356,
				1.0965286380910277,
				-1.2373476480947672,
				0.892358550740604,
				-0.1608850873673457,
				0.5004688173137105,
				-1.862829574038529,
				0.0701591236178448,
				-1.3900535473687925,
				2.2140976761992097,
				0.012901975383701983,
				0.5747077696980526,
				-0.09250530343626964,
				-0.918135896224525,
				-0.7101058315913448,
				-0.03316606386097229,
				-0.7026187273413796,
				-1.1383435465188982,
				-1.2669316577133645,
				-0.8445997608234286,
				-0.9181214810128407,
				-0.07691068165037956,
				0.6055134351140669,
				-1.289178798082411,
				0.342325131832455,
				-0.8257870809082665,
				0.4225514280135269,
				0.37493452660368143,
				0.9070174241558634,
				-0.1426915650266811,
				1.6953737821694435,
				0.173136430521149,
				-0.08206409049516751,
				0.42748503551512557,
				0.7139734423600945,
				1.7905254505461723,
				-1.2671334189931454,
				0.5549769665286214,
				0.5437237704744283,
				0.585232608863908,
				0.5707689960849973,
				-0.6782654360845959,
				-0.737231751912089,
				-0.2348912279644721,
				0.3010274286372288,
				0.09957768381081912,
				-1.6193009453405784,
				-1.790637511528427,
				0.5076954166698937,
				0.8983569074018677,
				-1.4695823123246459,
				0.8636200015968167,
				1.8697488753101377,
				-1.0531129089737434,
				-0.42640251625994086,
				0.5831129726973387,
				0.1094510896723228,
				-0.6271562938272324,
				0.8024008647935984,
				-0.3835448013626374,
				0.16797799384046488,
				0.4647410815660276,
				0.007588317797815348,
				0.017951135192853653,
				2.7519917913971415,
				0.5882963145954976,
				0.07426680092079363,
				0.11983673829520483,
				-1.052502724622311,
				-0.19615709206706683,
				-0.8179611403981312,
				-0.4113779295516302,
				-2.184578162536423,
				-0.5126574647167266,
				-1.5273849416614715,
				0.004511124354606332,
				-0.11251776631077445,
				1.1913560560879044,
				0.641794702852415,
				-0.5339788436781013,
				0.9378122047554436,
				-0.46195941985372696,
				-2.2701162534476005,
				-0.8728702387701068,
				-0.04866877469359223,
				0.041157576932323234,
				0.2743400073974234,
				0.15737605270476157,
				0.849519280006755,
				-0.18771393799706224,
				0.39726309878338767,
				-0.3867666605197737,
				-0.5557170379731186,
				0.3251287423399169,
				-0.7184714404541117,
				-0.8090886827038957,
				-1.6652798795273736,
				0.2677927654088453,
				0.5831119168523098,
				0.3048477651215321,
				-0.00003306766779002522,
				1.638450833346017,
				-0.00314419571988505,
				0.14211063010222835,
				-0.2544342799853793,
				0.5592100385466805,
				-1.7300831773147716,
				-0.006770533876912983,
				-1.1454044416510423,
				0.2766322140476221,
				0.6501437580459107,
				-0.9086921291316983,
				1.2501277621886264,
				0.006669945947584335,
				-0.19114356907367855,
				1.4591621932782355,
				-0.26724976748232754,
				-1.2468776225030684,
				0.24885992791618838,
				0.18609040848234812,
				-0.8768832828950451,
				-0.6481350420181249,
				1.8793395655320875,
				-0.8623236250153813,
				0.2895450152955777,
				-0.22737598547898774,
				-0.24830711463051353,
				-0.5615805221566545,
				0.20370487451522015,
				-0.11948210720434405,
				-0.43211181635562423,
				1.1149117099143824,
				0.11383314942567253,
				0.815281131962021,
				0.6567520617913724,
				-0.4595485455150717,
				-0.5461224278961115,
				-2.1587638555254216,
				0.18928253656736807,
				-0.8491357801627856,
				-0.5069424630715393,
				0.1034379473284695,
				0.29333408378072934,
				1.6127013752296506,
				-0.9424373231320793,
				0.6614729153904766,
				1.8894748825551675,
				-1.0259646814244607,
				1.4718820080217032,
				0.016323128078666538,
				0.4827937644030985,
				-1.9370134494901863,
				0.23408604626972943,
				-2.457715316030313,
				1.4945888625241799,
				-0.4555349286399292,
				-1.1584651463328057,
				-1.0226469320838518,
				0.5192024584730142,
				0.6018075174882742,
				0.31861771599362887,
				1.5685483416722124,
				-0.0967836626490607,
				1.0320081416429627,
				-0.28059184799696835,
				1.4351166521096757,
				-0.32092735278521906,
				-0.1449895563774404,
				0.5009427683131732,
				0.5096026063972333,
				-1.49022741665821,
				1.5009295780809697,
				-1.1281126983294232,
				-1.0973461592626532,
				0.7648993625500908,
				0.6233235719237299,
				-0.13612840698208706,
				1.0007547195190596,
				-0.1618038807122533,
				-0.5719807942554967,
				0.762337823822387,
				0.8526470717434214,
				-0.11762274161913491,
				3.8347056641293746,
				-0.00652454471527618,
				-0.11134590068386571,
				-0.6584082590669265,
				-0.9341825905235602,
				1.1378769093471772,
				1.0178118270431074,
				1.058729165411064,
				-0.6931390508460584,
				-1.5444793900383964,
				2.128648273332262,
				-0.2104672813351635,
				-0.988078327795454,
				1.8873173655850217,
				0.5734800113942091,
				1.747591636012276,
				1.7621550787361249,
				0.02422715200823,
				0.5120028566302832,
				-1.099922163689241,
				0.3858235606779205,
				-0.6481799715971388,
				-0.7951983672838927,
				-2.6065825097096016,
				0.2081685434721521,
				-0.7413034787930816,
				-2.7019109802789507,
				-1.0020372124588175,
				1.804184740524421,
				0.5850524046357823,
				-1.288863931920194,
				-0.3281037712160871,
				0.1418945837021686,
				2.3438846566730787,
				-0.14177976658185235,
				-0.34967943606086865,
				-0.7416759675393084,
				0.5962077124603788,
				0.7326728458756363,
				-1.3406360654437692,
				1.6356110108484019,
				0.5970226493356715,
				-0.2957293337354179,
				-0.2629580568012598,
				0.9106398433366697,
				-0.853107252242244,
				-0.685862924540135,
				0.6742061941895344,
				0.026118342580530564,
				-0.426755891818686,
				2.542176654724399,
				-0.7257595176721794,
				0.13406897589570227,
				-0.5205437342501331,
				-1.70854264860883,
				-0.27640550862631563,
				0.014734989199439498,
				0.06384272323323398,
				0.33244597199061304,
				0.15985336522714902,
				1.2893988166004517,
				0.04505858328126965,
				0.4207360251639437,
				-1.4862347849806687,
				-0.6537681637608511,
				0.7818751985613362,
				0.8860219205425817,
				-0.16679554177563813,
				1.1723837248928943,
				0.3727995636072676,
				-1.0050826729987947,
				-0.623368147869915,
				0.2830941869532061,
				1.8026349704992208,
				0.24241157585761014,
				-1.4509081479923056,
				-0.744079652082796
			],
			[
				1.7986530888778731,
				-0.8995295959473761,
				1.1109012980290482,
				-1.614559465344752,
				-1.044693177517088,
				-1.7284547569332775,
				-0.13682745769797391,
				0.5261440321529243,
				-3.3305486064696805,
				1.0116664245740754,
				0.41140169042815317,
				-0.23171509129999224,
				0.17838965046728647,
				-0.6341085467126766,
				1.023263516640597,
				0.6252505007145116,
				1.024704898663157,
				0.8790361343601206,
				0.7126902391682474,
				-1.2762244462291743,
				-1.1746928648828623,
				0.3478091621316882,
				0.3594821070923736,
				-1.6931105404300093,
				0.7076306552819158,
				-0.2854772632192061,
				1.0645458997638664,
				-0.5598030239305807,
				-0.6656251222943479,
				0.29609099986489584,
				-2.0664321335162295,
				0.028747464259316794,
				-0.9273696304168919,
				-0.23313487810408065,
				0.4630898817117014,
				-1.150625316454085,
				-0.35331184600493487,
				-1.3878024972624081,
				-1.5464840791264483,
				0.23237553957114293,
				-2.5224760677456426,
				0.3716632557571535,
				1.2467833061025293,
				0.9194717832792433,
				-0.6113508788950667,
				0.8512175447708595,
				0.02688012789510222,
				-0.19503347168551324,
				-1.6429094422340649,
				0.9548668980796284,
				0.06691350649600811,
				-0.02948233799227625,
				-0.07844542107438679,
				0.5177602675146711,
				-0.01720710934827379,
				0.5901071480483172,
				-0.19713432792954932,
				0.2711560937691072,
				-0.561582087746207,
				0.9477869937525475,
				-1.3333264483929304,
				-0.25396023060437645,
				1.465387325667488,
				0.02622355699601173,
				1.4856898301935628,
				0.3991893019381497,
				0.2930891881447167,
				-2.016555267175277,
				-1.3509876398242375,
				-0.20687413637046634,
				-0.8596604183008852,
				0.5402126103819535,
				0.13096578794776076,
				1.4739534323525458,
				-0.6291297290054918,
				-1.2213905065458288,
				0.9282343150585193,
				0.3550961699779799,
				0.05443741132417392,
				0.28531708986971743,
				0.5120552353298181,
				-1.043260920822803,
				0.3463173005444384,
				0.8331580226704914,
				-0.20359480706312222,
				2.013081931744647,
				-1.0301350730959402,
				-2.3811205269503297,
				-0.0950050806025739,
				0.9268721990251325,
				0.14801346088259656,
				1.3690218188566738,
				-1.33771054733058,
				1.9664109615697518,
				0.8565089932538279,
				1.6147053829244302,
				0.4176826846629053,
				-2.3241437935930844,
				-0.805004643636807,
				0.25075897256757096,
				-1.321910857445709,
				2.439223948351915,
				0.37947625378693195,
				-0.4021014229839804,
				-2.0289446992315594,
				-0.9204868292794748,
				1.4793087198879489,
				-0.4539193605989463,
				-0.14562354031328098,
				-0.9563975961981025,
				0.599838743643598,
				0.13152289055388366,
				0.8500460746296242,
				1.0852146118545372,
				-1.423498925030085,
				0.21295582283550601,
				0.3404637306238159,
				-0.36996356858935,
				0.754269570741483,
				-0.14049765352415927,
				-0.11481308277266597,
				2.5518162281789847,
				1.294010498705573,
				0.3973803021422403,
				-0.08232158290091793,
				0.18547488278165208,
				0.2683890509773876,
				0.17520855688125275,
				-0.15053080709918443,
				-0.2169610073279063,
				1.1671179765659634,
				-0.3727549515526447,
				-0.6907671262761423,
				0.6066982569027868,
				1.5300144610161686,
				-0.7741523585710937,
				-0.10669416671598847,
				0.9554594356486878,
				0.2631576087027743,
				1.0773068394793648,
				-0.21236737116424634,
				-0.24213988103037148,
				0.2793467590779985,
				1.3749857683585978,
				-1.9661154662658717,
				-0.13668259171696928,
				0.47050521492675285,
				0.8057602796726102,
				-1.4561330021906636,
				1.520635235008447,
				1.1109136797986212,
				0.5813310199839583,
				1.7223024738994142,
				0.5048599560044145,
				-0.21637353260174189,
				-0.06479764892918197,
				1.2397117197197767,
				-0.3440025051875541,
				0.05307824264878824,
				-2.15381876154654,
				-1.3525900248945617,
				-1.1253304911154358,
				-0.3896842302362151,
				0.5208743614279062,
				-0.651473449518136,
				0.623596184410958,
				-0.4083865678441229,
				-0.37938650959496745,
				0.8453598720437902,
				0.7009708324008033,
				-0.2024981929862264,
				1.9316493944721755,
				-0.2787728326801129,
				0.624589910030866,
				-2.877295779734242,
				0.7310484637063482,
				0.5262228279672442,
				0.14167463439038577,
				0.9610545934850894,
				2.308506521009995,
				1.4309153149650797,
				-0.5119730263159469,
				0.35622334924077026,
				-1.1940896986321785,
				0.13805546078448783,
				0.8447555414398766,
				-0.9070318837341884,
				-0.44229718093834147,
				0.5348964849231328,
				-1.1272457177787123,
				0.4327907291175668,
				-1.7045684903727385,
				-0.33326345859954587,
				0.056675098271408195,
				-0.08128518997369985,
				-0.9479896704770971,
				0.06338191439140335,
				0.04431933026705041,
				-0.0003800441263570481,
				0.3342167325218911,
				1.0132394420659123,
				1.9769105836287633,
				-2.4195928969153573,
				0.7090336699402746,
				-0.6900811106230746,
				1.0629855630060547,
				1.2201062337396396,
				2.4376400611435916,
				-0.5820402904526331,
				0.2681755867160823,
				1.2925543748158954,
				0.3908257334274827,
				1.1729903494383742,
				1.2857546878696182,
				0.18090419161619467,
				0.7925130095224582,
				1.5839904831096419,
				-1.2096813392912975,
				0.4338887564713109,
				-0.26986882563655135,
				-1.5332947319293133,
				0.9879161220961836,
				0.9873628555807621,
				0.3153176837769208,
				-0.8316988747085137,
				-0.3721010872788963,
				1.0821296792870951,
				1.3918810154089842,
				0.8275164423913594,
				0.1535421672647371,
				-0.8389664404020848,
				-0.19935860628935284,
				2.279229924520866,
				0.8427166984267933,
				0.1907270057506547,
				0.6292905788973098,
				1.7775050270025212,
				-0.2878858344885465,
				0.10223227358995884,
				-0.25782526861809474,
				1.1045585647671363,
				-0.5847596781597936,
				3.0797440677144445,
				0.5285687164046242,
				0.599335290280281,
				-0.233714657802359,
				-0.700102198391629,
				-0.6397617565490321,
				1.5906639389736577,
				-1.6537276948542103,
				3.1241092892983158,
				-0.09424335849282284,
				0.7299167759232094,
				1.0343235863587004,
				-0.9414867194037994,
				1.4919603119265088,
				-0.28711615340113966,
				1.8026761423645241,
				-1.0148059181208875,
				2.428961976985483,
				1.2322650440274105,
				1.0397273523106816,
				1.3799519418604058,
				0.6415432598100523,
				-0.4172070661434074,
				-1.4293791943620064,
				1.213374669419828,
				-1.1591337280884209,
				0.002965588528202745,
				1.3553988559753412,
				1.0864670877661,
				1.9337349789198044,
				0.9921887739313321,
				-1.645962114053069,
				-0.4970937116975279,
				-0.1408393790952904,
				-0.24755174829877483,
				0.28472553832872005,
				0.8953424831831632,
				-1.2277346860895002,
				0.28966506241881923,
				0.5668604735786393,
				0.4285518401382593,
				1.3371213694807889,
				-0.9155895601477635,
				1.2773949131422928,
				1.1615997970669114,
				-1.153921581634753,
				1.3005513156062953,
				-0.6409847578466842,
				-0.018209559788836236,
				-0.09938650635272551,
				-1.057558025661308,
				-0.5878785996002819,
				0.720941582564073,
				0.8415275789631318,
				1.2725620780973437,
				2.0138995776616575,
				0.8952683199679494,
				0.1555998677255791,
				-0.0072287064782500686,
				2.1875451841023565,
				-0.8725595848568454,
				-0.1444863802189891,
				-2.02210167166026,
				-0.4846399054112286,
				1.1878575103329025,
				-0.09232509239030692,
				0.3608976076048835,
				0.8860618782075894,
				-0.24868918502493137,
				0.42780641382987494,
				0.3924398653986585,
				1.2889916191533528,
				0.2350311811196717,
				-0.3727944118670525,
				-0.9782145726531113,
				-1.0662721485872555,
				0.32827990645592575,
				-0.7714050988813711,
				0.8828130342382066,
				0.2711145236623943,
				-0.5002899095419,
				1.157290433752822,
				0.40227976249684066,
				-0.2786550962962471,
				0.5580615270608991,
				-0.5820084128971436,
				-0.9983127201673837,
				-0.005335665366986665,
				-0.6547005691014767,
				-0.3944608371472448,
				-0.660114065659788,
				-1.555636726621044,
				-0.3994620938009638,
				-0.4635283819764684,
				0.15404959745770677,
				0.9295843760324987,
				-0.054818295979860515,
				0.46434282647947717,
				0.6854269788352184,
				-0.18556598233270924,
				-1.768458929751848,
				-0.631225256684279,
				-0.1686446315961124,
				-3.0562540211297096,
				-1.3952514261225124,
				0.5372457077747937,
				-0.23519383197603522,
				-0.5444415426662872,
				-1.466739320147611,
				0.694525587215335,
				1.3231660932619276,
				0.25011520808994264,
				0.5541313552204802,
				-0.13869211904781337,
				0.5563806151872619,
				0.6949834152654886,
				0.4762353273946836,
				0.7705227676292535,
				0.15221444067523016,
				1.0876824599640131,
				0.1754319716959903,
				0.2843856549274052,
				0.4578297444103796,
				0.07155344458423582,
				-0.6790056959137815,
				-1.1337418868287745,
				1.228962582647135,
				0.15199652836769484,
				0.08215025555739455,
				-1.947855302576938,
				0.20849071374002742,
				-1.7273449802940273,
				-2.55093070077186,
				-2.0635618517296033,
				-1.9647502489120359,
				-0.1109841628412583,
				-0.6622261697687196,
				-0.6361699561019323,
				0.9992134823024715,
				-0.45565713625882026,
				-1.4803644725380196,
				-0.8156498424289683,
				-0.855002832802067,
				-0.7564725613939347,
				-2.025234211358328,
				0.7021191693060328,
				-0.23949818582399512,
				0.19197850604807004,
				-1.3369495820856945,
				0.7407756986928969,
				-0.6512758822526687,
				-1.4609873787494254,
				0.20987346592319925,
				-0.7968570940125667,
				-0.9380262667529179,
				1.2606162243083283,
				-1.194589696468473,
				-0.44458078154822345,
				0.2838331386461457,
				-0.9382498096932618,
				-0.4381099474276891,
				-1.216443269107233,
				-1.6474263759363441,
				-1.6961670602807295,
				-1.69207662328135,
				0.679336994397056,
				0.2130066825434418,
				0.6670229837296265,
				0.5669278528862554,
				-0.30831760554558796,
				-0.030527941832707732,
				0.141853535291894,
				1.6775247455691167,
				-0.06931933668452013,
				-0.035208650988218515,
				0.030843844493135215,
				-0.4348601403758501,
				-0.15427823475404887,
				-0.9901000455738465,
				0.411259463625727,
				0.6501747844379243,
				1.2209274769343916,
				-1.2392896209857462,
				-0.10932784174494833,
				0.00863036711989208,
				-0.8231893474188672,
				-0.9604189009986009,
				-0.290282344328668,
				-1.5077419793226794,
				-1.2122179441351004,
				-1.8877982151442834,
				-0.05469569777403762,
				-1.1816772201934704,
				-1.9316039241305383,
				0.43547142594729993,
				-0.9561389018210448,
				0.023715839528192777,
				-0.5410690517867967,
				0.8376091384172534,
				-0.2364910660495634,
				-1.3112100158985722,
				0.7223840027222448,
				0.06250425014965125,
				0.3085374270625808,
				-2.640080199154199,
				1.4584025276755572,
				1.6563632528608956,
				0.16274305238856468,
				-1.3935249371846432,
				-0.7652183614971353,
				0.4872968886129301,
				0.7732124630491908,
				-0.13912659111558753,
				1.1367279004177677,
				-2.0566225136481195,
				-0.697729571673952,
				0.3153491452955592,
				0.03277477402918203,
				-1.5231463135012342,
				-1.7212543527980309,
				-1.2694556761724731,
				-0.2999444997218937,
				-0.08331558144281799,
				0.45857730869743313,
				1.6488853501581109,
				0.5501827703581293,
				1.0080970530615905,
				-1.7772586011595883,
				-0.04042056651979604,
				2.574250367872661,
				-0.12302403739437706,
				1.1268714565210172,
				0.4823777047102215,
				-0.22738154418657888,
				-0.4126831617806448,
				1.0830785053623992,
				-1.4625740141974182,
				1.0366097151010873,
				0.6986599599403116,
				1.3489070141196173,
				0.5569729182996017,
				0.7555842825998027,
				0.9143670374129663,
				-1.4488992990305893,
				-1.3883551208929408,
				-1.4666249209925557,
				-0.6638352620256032,
				-1.6031325264597907,
				0.8820307954336414,
				-2.251519589161545,
				1.276751773298526,
				0.6965816382978925,
				0.6970062911884629,
				0.9339784454914605,
				0.7919725889256168,
				0.4779391204439791,
				1.0840060159331892,
				0.5127481342662297,
				0.7407351066267363,
				1.5233020058304723,
				-1.3349297457269906,
				-0.8172809231766655,
				0.8219298353929807,
				0.9561695013903966,
				-0.45297072300551927,
				0.4617951582689272,
				-1.8010548531861632,
				0.9244305303110588,
				-0.44681544169654663,
				-1.0842221320781804,
				0.1610807226790606,
				1.6363855309135666,
				0.09102523328768335,
				-0.8449754675943597,
				-1.1035558870971773,
				-1.9616446093818092,
				2.163589551248475,
				0.2742820619540366,
				1.1594600269083688,
				1.2625703401417232,
				0.9741848694139477,
				1.7219561646234096,
				-0.14679443851988186,
				0.6186542656187342,
				1.1286212305870373,
				2.5593129853199565,
				-0.03303065226259907,
				0.6631792361249572,
				0.7553912362473675,
				-0.570980874837964,
				0.17282302788652765,
				-1.8221948583571626,
				0.9378586217594921,
				-1.9968851676493549,
				0.3169493239118069,
				1.3641374013072585,
				0.9935832957816095,
				-0.6033155650345912,
				1.768353528747354,
				-0.8227119582583935,
				1.8481096754377069,
				0.48995988200578167,
				-0.005419080349719132,
				-1.534419498265827,
				1.0012670684720624,
				-0.3545260539440316,
				1.2929587489604157,
				2.436499839270065,
				0.9275629554425783,
				0.15032062036854696,
				-0.8365261707506799,
				1.7097303007463764,
				1.4135785737183035,
				0.8868805574273989,
				-0.516128793526262,
				1.4976554995967288,
				-0.3435383963909049,
				0.1723730223003749,
				-0.7925051374913369,
				-0.14238191373994516,
				-1.17977200171821,
				-0.20134785145204595,
				-1.0357291469169698,
				2.1349629716652054,
				1.711359821452759,
				0.7105005886762075,
				0.7965839534000417,
				-0.4637982168443228,
				0.15512396339442214,
				0.8969440275861178,
				1.552683309197313,
				1.6237029729017767,
				0.4123117777098359,
				1.84736668076699,
				0.531493859866865,
				-0.3554504919080966,
				0.21193320244809988,
				1.3445208371244353,
				1.3199761300390083,
				0.6026728499728902,
				-0.763864093496322,
				1.0744128432972326,
				-0.8769006722752682,
				-0.30350254059942183,
				0.3905822945498587,
				-0.0757305275678957,
				-1.544026584457776,
				0.4352290617714772,
				1.0754885900824285,
				0.5856220052889581,
				-0.28047314696134606,
				0.5055280077210138,
				-2.3781355053420907,
				0.8645581271698642,
				0.43445579550729435,
				2.0298434786466952,
				2.2783606754329693,
				0.550000983181919,
				-0.13396355532536908,
				2.133527324045881,
				-0.28247414845603114,
				2.1450989364307858,
				2.124202487242602,
				2.3703635647787524,
				0.1487381860154351,
				-1.1729475519464685,
				0.47557507877129107,
				0.3300704420809959,
				0.09682131637692848,
				3.2129903807247997,
				0.6512915815401488,
				-0.37244246472024406,
				0.2714740240008087,
				0.38470916911811565,
				0.6486846839226962,
				0.04688525339901524,
				0.996697294750409,
				-0.8668212923436492,
				1.0575387830512968,
				0.2527009093436225,
				2.2183071453238634,
				0.6804101240341102,
				0.6538698056135042,
				-0.4284488811818402,
				3.204547037934597,
				0.927520865284633,
				0.47525080117432456,
				-0.15508905706976361,
				-0.41550884535135313,
				-0.44025290665014466,
				2.639930294501736,
				1.6486130551168154,
				0.43580506415575504,
				-0.297037542011986,
				-0.11321232511826254,
				-0.6219654039530198,
				0.19693127720459902,
				-1.2569102773107828,
				-0.8105777137288276,
				0.18444323478959712,
				0.9762258193856345,
				0.47774978064038165,
				1.6389609920037245,
				-0.9977612938755894,
				-0.48575986109872293,
				1.583479926016329,
				0.021998458782368654,
				-0.5271762033170289,
				0.09956861094253563,
				-0.07527019945595374,
				1.0218682804205415,
				-0.07029345427185513,
				1.1905883819340586,
				1.178188570917436,
				0.7086222450958962,
				0.30185328810725764,
				1.2265603807512087,
				0.6382758193717513,
				1.7653437192346102,
				-1.268956695503667,
				1.633679578537018,
				0.35756191705210244,
				-1.6479122545784026,
				-0.6799113575467763,
				-0.02662228026032151,
				-0.3138275811543328,
				1.4431618630623273,
				0.6187537592678809,
				-0.28075480778912776,
				-0.5599417436489559,
				0.985042267721998,
				0.004433248739813175,
				0.728813261001503,
				1.5920474050127795,
				1.3078563803969718,
				-0.3868066878971632,
				0.11711672262842795,
				0.2958248190276166,
				0.9063737273289886,
				-0.14519374775707306,
				-0.7463009828241485,
				0.9797328014153284,
				0.9502601528226456,
				0.828868707291429,
				0.617712158019359,
				0.24098527429395075,
				-0.4752757527014458,
				-1.1681084076219341,
				1.0619733415329953,
				-0.6118999194019044,
				-1.549524508805279,
				-1.282446482994978,
				0.49218629083255566,
				-1.175339074380946,
				-0.16388308332579518,
				-0.03556165583432103,
				1.7783945001456796,
				0.06802971321599886,
				-0.8378693886439255,
				-0.03989623610472783,
				0.3333611133096802,
				-1.3455718375028571,
				-0.18710560492657402,
				-0.18487462725483605,
				-0.8328649804199337,
				0.5867516759900441,
				1.7009052858052285,
				0.9713773244304615,
				0.48259990340414755,
				0.4587090307480838,
				-0.408458432617629,
				0.23034301738277865,
				0.24751205553997374,
				-0.3510296398823471,
				0.26659655129478244,
				0.3651098799403921,
				-0.7804080610790122,
				-1.4657393246770094,
				-0.2268210260833215,
				-0.3562798577245468,
				1.2528477176865183,
				-0.13105989655037248,
				-0.0812395651356515,
				0.2787574702819037,
				0.9160337177419539,
				-1.275971853806888,
				0.9333560551278899,
				-0.7024834109745607,
				0.34231646493351525,
				0.7251749116148589,
				-0.1549738748560758,
				2.4082037180836315,
				-1.3174509130221237,
				-0.01724976983171511,
				-2.2373761526591434,
				0.9319058796435212,
				-1.3247605351833698,
				-1.2459987629116633,
				1.6745374495765615,
				0.683054999514329,
				-0.6207226676223471,
				3.117941688954078,
				-0.17715013528476847,
				1.3271964284604982,
				-1.4045166398741915,
				-1.9420638386268398,
				0.5077402735431058,
				0.7167311408399257,
				0.8351581357247199,
				-0.9553538174812967,
				-0.7860124559896912,
				-1.0400681319955893,
				-0.5091215330301141,
				0.2706778264546278,
				-1.7062233166796728,
				0.08078400572868952,
				0.6756709532850069,
				1.3614830072023478,
				-2.5123165756714787,
				0.34672129357602127,
				0.22771021811368383,
				-1.7819091084577394,
				-1.1798533858013083,
				-0.899115421659179,
				0.7985698720412792,
				-1.1654961879390462,
				2.665019378698506,
				0.9941469941382649,
				0.8384196426046893,
				-0.4773564380960479,
				-0.30732032549898186,
				0.1496261078302858,
				1.2410799378410176,
				1.420646921934641,
				-0.7573303707756371,
				-0.28872093661821624,
				1.320252778962816,
				-0.39727105509976457,
				2.157948414561804,
				1.9271628427396434,
				-0.6822451500133069,
				-0.2111010770268813
			],
			[
				0.618240287473461,
				1.3814897417974636,
				-1.067621461135386,
				0.02872288450898172,
				-0.988932777149906,
				-0.21646817601122964,
				0.6035464839463783,
				2.0559489312197172,
				0.38281251556674617,
				0.7082638603345498,
				-0.2982842300831635,
				-1.1488140093586106,
				0.8695511009303019,
				-0.09555216742316246,
				0.11686686504410575,
				-1.0817314487515446,
				-1.1090360930803898,
				0.33626763259527837,
				1.2081377211868431,
				0.690231884248435,
				2.4442034160458146,
				-0.7387474787820154,
				-0.7442945747522889,
				0.8072393089374015,
				0.7893588636073237,
				-1.3729353043021062,
				-1.4945977496295533,
				0.2604444494563305,
				0.03723048343511645,
				-1.5555176671531432,
				-2.0106881660171343,
				0.4977596930190041,
				0.22688112126075122,
				0.9501799314587802,
				-0.3660048921623077,
				-0.27067296594553775,
				-1.0332301939102553,
				1.3989183841974313,
				0.47466014075973245,
				0.6772662987184073,
				1.5406152817667835,
				-0.1505033466670412,
				0.5942580847345835,
				-1.9162357143319766,
				-0.9418326138221755,
				0.15145538296929825,
				0.06191048567778089,
				1.2141843349253558,
				3.26582983306281,
				-0.6916739433059703,
				1.0208194701376172,
				-0.6109362598168193,
				0.797672459652547,
				0.43777078186839585,
				-1.521196694977655,
				-0.3221437219932767,
				-0.10072588735139892,
				0.9986952976166753,
				0.11066074460670305,
				1.0271659508057984,
				0.8325577692660865,
				0.7040546570136116,
				1.476774412257413,
				-1.0333655887251534,
				0.6896628168630358,
				1.6724961570738859,
				-0.8502067932975632,
				0.35375307439277476,
				0.12881408567297659,
				-1.27995693424869,
				-0.9016377510923449,
				0.4515878186158062,
				-0.29044831321628456,
				1.084923914426727,
				0.2531374822231536,
				0.328081152876306,
				-0.5094950752419649,
				-1.115665072662692,
				-1.230314079633583,
				-0.16029306260651713,
				-0.4168035189928253,
				1.3370311544306799,
				0.4729784306366041,
				-0.7951981327197217,
				-0.7399447783387137,
				0.08856672268547618,
				0.32233306100060544,
				0.925400697166115,
				-0.6042599625599154,
				-1.9306293396232337,
				1.4734102766385402,
				-0.5003341008703794,
				-1.3567389173583442,
				-1.3710047624805763,
				0.5441148174148446,
				0.44834253066987645,
				-0.8489146218353713,
				0.6849040239306532,
				-1.8166788733266843,
				1.0893630115515804,
				0.341870688529597,
				-0.5592421966444769,
				-0.39035368551600597,
				-1.4882463623543738,
				0.6868452036340864,
				0.56439712804488,
				-0.43411252314302,
				0.40946748572393815,
				-2.003711154066573,
				-0.7749446636550751,
				-1.1096069370481985,
				0.5736157950385277,
				-0.07448184647868047,
				0.023148250283842684,
				0.18548043572111927,
				-1.4268575087328403,
				0.0038976947132386593,
				-1.7302039061938144,
				-0.3659365062103152,
				-1.3135422819434617,
				0.7709452096398485,
				1.1328840015198447,
				-0.15896678111475046,
				0.690089100951468,
				0.7803646010346345,
				0.49758693551888095,
				-0.325046418716344,
				-1.5633263364080916,
				1.4092810636417932,
				-0.03718903906297449,
				0.5190674017700018,
				-1.9414492377723838,
				-0.49635772266274086,
				-0.2841763888861897,
				-1.3730416771954839,
				0.15478687369585276,
				-0.6132625133700326,
				0.03121253241510105,
				-1.2747493310703562,
				-0.320975305241316,
				0.019750389840774648,
				-1.8755788775748075,
				0.6257932918565076,
				-0.04324470783958309,
				0.3835346251480058,
				0.05602661273621614,
				-0.2267602638682528,
				0.088789408048332,
				1.01668285101762,
				-0.6779632465544937,
				-0.54129452409019,
				0.6383468256306226,
				-0.44425603662590957,
				-0.5932441565057884,
				0.7333129162251885,
				1.908202348244748,
				0.5433287686811014,
				-0.8092898025685352,
				-1.9408319002145025,
				1.8672852996750098,
				0.9982232171105567,
				0.7972886205708551,
				1.5961523515933875,
				0.017548374583740128,
				-0.06824037560529625,
				-0.34073938778186313,
				-0.019915052062424943,
				3.1778309201242956,
				0.24127952247514078,
				-0.22494501204828318,
				-0.6214478802806805,
				0.2797402628167602,
				0.05898791448867151,
				-1.0569787704844196,
				1.0600849640066072,
				0.016774213455970213,
				2.028985751678211,
				-0.6343497316521907,
				-0.028098500345686905,
				-2.257491420989197,
				-0.2802637262207341,
				0.6950556866916817,
				1.3807962357815255,
				-0.319376733140791,
				-0.5018832245416934,
				0.6983136026636486,
				0.2458357695531217,
				-0.35550744222997505,
				1.1341858382677914,
				0.39727506374820154,
				0.7135089086704767,
				-0.11808840947967252,
				1.0787854990149714,
				-0.4014996999519723,
				-0.31481170294263644,
				1.5139432666466899,
				-0.036316982932384445,
				-0.4905419980582255,
				0.3219757984759774,
				0.9738057299429541,
				-1.122366479251,
				0.03667378267206803,
				-0.11224533601287846,
				0.5315602841168152,
				0.5339196395781797,
				1.819466078029899,
				-0.017901165720664504,
				0.7381618727206091,
				0.6403859319935478,
				-0.10108994415302539,
				0.3831291876002652,
				-2.146966918448854,
				-0.5955827895535002,
				-0.029070180963917613,
				0.324285336700044,
				0.16235771665797766,
				-0.009323083632569715,
				-0.2504285561861644,
				-0.9460124865963969,
				0.14830993518244112,
				-0.09297024038707649,
				-1.5804096796199198,
				1.5371494860165202,
				0.7370981813418531,
				0.890447108464277,
				-0.8232245910685357,
				-1.310356419531544,
				0.1306184447644903,
				-0.44364507623069016,
				0.04617781674325545,
				-1.0611136871522022,
				0.07372100846431497,
				0.1300256972435384,
				0.02926939077394676,
				-2.769797401622491,
				0.8712084484985703,
				-0.20808367680251233,
				0.38248132647905575,
				0.30830439177503605,
				0.28843181344739927,
				0.8099533055320572,
				0.843689842324746,
				-0.7240207496174385,
				-0.103171438222961,
				0.30400376986372135,
				0.06151205962313933,
				-0.43567009025202075,
				1.0544185116450986,
				0.11500646790701147,
				-1.0440199975389115,
				-1.071431097296321,
				1.2016769652867143,
				2.462791501718542,
				0.6722679750196368,
				-1.8873721806318364,
				-0.7117760785386145,
				0.5976512247413984,
				-0.9362527265689392,
				1.7208742340102137,
				0.3823598610507574,
				-0.8000081280728534,
				1.9765757825252965,
				-0.3132015847617318,
				0.068780130005981,
				0.13185836201578424,
				-0.46235507005560805,
				0.5980122899175815,
				0.6662638410359192,
				0.9330115428062886,
				0.8356956848950752,
				-0.9482692630682098,
				0.27066474330081375,
				0.166811225396808,
				1.3232123623428231,
				1.786638488218369,
				0.8930600228967016,
				-0.5142486666379618,
				1.6633330131300244,
				0.4709802968580827,
				-0.7180842963092361,
				-0.3751701564707707,
				1.960962103199483,
				-0.37659486659751257,
				0.9512600301302339,
				0.05044992976462301,
				0.3884979902757568,
				0.2153754517615213,
				-0.5873212814330228,
				0.15942776473184575,
				0.733982853769709,
				-0.3279834849572553,
				-1.175338287370867,
				0.8775731368930063,
				0.31863814612474867,
				-0.06758108685337622,
				0.5190149373280514,
				0.5516547851424733,
				0.5012643446317137,
				-0.10244509351470116,
				-0.6341768523343766,
				0.48233720822067716,
				-0.7070920424666997,
				-1.1402263503858645,
				2.0450299636877123,
				-1.1339261296256888,
				0.3035959879944613,
				1.03584205766431,
				1.2590226110674112,
				-1.246409554234744,
				-1.4530481269683704,
				-0.8400721543754333,
				1.4907324500291113,
				-0.6420970471892131,
				1.7869245115808552,
				0.5962383835427206,
				2.536399700662228,
				1.9256390871309135,
				-0.4480020769881416,
				0.9542268027204774,
				-0.10515265646962263,
				0.2943509920810848,
				-0.5727974159779038,
				1.0017185835170466,
				1.387351873639308,
				-0.7706466315264905,
				0.4354057606803434,
				-0.42494936294103985,
				-0.09340722678438362,
				1.355902549601892,
				-1.8591002734419029,
				0.9233820625413108,
				-0.7362754035008946,
				-0.7374619872815865,
				1.2079159271489384,
				-0.22134175085192867,
				-1.1557290108156457,
				0.8078181242159024,
				-2.323514989809758,
				0.8490559373868538,
				-1.6486281019670819,
				-1.35364227368946,
				-0.8975935449912108,
				-1.1548649792647554,
				1.0774430136315283,
				1.611453492235513,
				0.9322771811149445,
				-0.08587841881802039,
				-0.06613423927334572,
				2.063102187082085,
				1.0995519296577247,
				-0.15643989263622074,
				0.19799880976865983,
				-1.5593277570202135,
				1.6232049263024309,
				1.0953021942240806,
				1.3473516306058977,
				2.271590685749815,
				-0.16300994520802314,
				1.1603694718945328,
				-0.29472200613734895,
				-1.2959420291047035,
				0.37040519980487285,
				0.324881388562386,
				-1.1033816866569481,
				-0.4701039246319621,
				-1.9301434899772592,
				1.1424078061085792,
				2.1793656426873182,
				-0.795278892493605,
				0.882959437074733,
				-1.2409714058703067,
				0.4111238689932609,
				0.7321540160147714,
				1.3491603139482204,
				-0.2276715443710419,
				-0.17582776955575813,
				-0.6546099149958491,
				-1.5284290159607068,
				0.4713988055483526,
				1.6017622814502477,
				0.5989578503803319,
				0.11292508679804844,
				-0.10400960024100246,
				-0.07894477854896123,
				1.5451865742466704,
				1.4440505241589352,
				1.2583380988242288,
				0.6109926718705524,
				-1.8267469104803502,
				-0.16684712279340533,
				-1.2944798032235363,
				0.81715420096046,
				-0.5252462004668076,
				0.25744092158715787,
				1.0345533592107938,
				-1.3094907541647727,
				-0.14296462362357543,
				-2.273442249338228,
				-0.17495697339896082,
				0.6066695765845131,
				-0.868042881203023,
				0.9865687930075425,
				0.7484799003855614,
				2.1363508666839905,
				-0.346321953324579,
				0.6028252440140721,
				-0.7052863033384094,
				1.3934539491375633,
				-0.20224074388570826,
				-0.06677433031807757,
				-1.274884811289803,
				-2.161410335731908,
				-0.4317233942824645,
				-0.4060039464255988,
				-0.7534734072330285,
				-0.7637973478760097,
				-0.9800180429688348,
				-0.8279567621930431,
				1.0594762573000909,
				-0.6134501679514017,
				-0.5433512559733782,
				-0.8865551946505646,
				0.32407319806584256,
				-0.25069713216820777,
				-0.7726400880677499,
				-1.899342208961973,
				-0.1824699257488746,
				-1.140693385158287,
				0.012252725131128892,
				0.6135359177861565,
				0.24645482762867363,
				-1.1025858879839783,
				0.3854315977649986,
				1.6512437322778915,
				0.03334695142456796,
				-0.20297616747538838,
				1.8844984450412763,
				-0.49692277583680716,
				-0.1761712189572691,
				0.4260092908335132,
				0.9601303629207167,
				1.582477561387013,
				-0.04706153998914464,
				-0.021033234939763914,
				-2.3992581932211734,
				-1.3608281794503758,
				0.06361901643519151,
				-0.6857151470924687,
				1.33433082300657,
				-0.989619004071851,
				-0.5470164635585472,
				0.7102813554413528,
				-0.550560481246044,
				1.1982565566386376,
				0.7106432803969105,
				-0.18197565177980882,
				0.5858748697260803,
				-0.2599674614256734,
				-0.48674897156555136,
				0.6234526994826358,
				-0.8564683723603719,
				0.7852278579949735,
				1.1352575738612223,
				0.36726505525555647,
				-0.037077490438364585,
				1.2240306182003589,
				-0.6100298997872105,
				1.8043770775179782,
				-1.0249414507595822,
				-0.4620586420531936,
				0.8027464882732047,
				-1.6888049185583307,
				-1.707411131909957,
				-0.2723628073052817,
				-0.3992225104698681,
				-0.9524143706437147,
				-0.5869327863687193,
				0.7590673752843249,
				-1.459366956049201,
				-0.5603588541604774,
				-0.47285027790251233,
				-0.17676584325719602,
				0.9241704488667525,
				-1.4734398480547086,
				0.32674172145760183,
				-0.16653672816014814,
				-0.2690818445697935,
				-0.07537756188324586,
				1.7061752516812605,
				-0.18059326916983887,
				-0.7056911062986997,
				0.10642399953400083,
				1.2476398476021704,
				0.5498232831445196,
				1.4382507440653338,
				0.037154608150880564,
				1.3667140562261915,
				-1.3170922876773112,
				-0.7354958478502902,
				-0.44149933978365763,
				0.33610686849533267,
				0.25726248264731055,
				-0.0702755808831557,
				0.3096386322805093,
				0.4871131938041752,
				-0.5688601939560622,
				0.9182463246945474,
				0.4856453888222765,
				0.03255001694996999,
				0.1090596936329128,
				0.17742336169194056,
				0.9065381170258414,
				0.4677502389334057,
				-0.35051095453028724,
				1.684410902804343,
				1.457369310056159,
				0.06881251310953285,
				0.48956907185603593,
				0.12327715866576117,
				0.6927482432197293,
				1.3249714176812737,
				1.2973677778147181,
				-0.21363269884410874,
				1.498485190237205,
				-0.1451822132148115,
				0.9006731207355513,
				-0.8704763166131098,
				-0.12925138357135849,
				-1.1303120205087376,
				-1.0922018870649062,
				-1.6672326384601488,
				-1.4021739406540719,
				-1.6556656966184313,
				-0.38070513731939504,
				0.028386982123279107,
				-1.239008912399237,
				0.21249268986268335,
				0.456486302586008,
				-1.6109568824752258,
				-1.8307898400805493,
				-0.17792545202379656,
				0.0397895686019366,
				0.1870320526727561,
				-0.26272432027524706,
				0.6614929219293881,
				1.0975207956408357,
				1.3737095912737602,
				-0.005728769877528281,
				-0.6561298479459718,
				-0.20847163056408177,
				-0.012688036169541594,
				0.8660295275092942,
				-0.7399328982581327,
				-0.04330135682345808,
				-1.294427896336913,
				1.3017921707884639,
				0.8441021619359746,
				0.19101301838859885,
				0.4434271620411179,
				-1.0096452479376836,
				-0.27550319749732644,
				-0.6098983794877898,
				0.955510466349646,
				-1.0308644596999161,
				0.01470764201768437,
				0.3892014088382708,
				-0.3154348720449563,
				-1.1404191721149053,
				1.6787002357597403,
				-0.017033222185866066,
				1.1737629530471503,
				0.6130767490442108,
				0.7696658900701241,
				-2.350779873990376,
				1.014000483677672,
				0.42950988604797435,
				0.7856121430465471,
				0.26016216118306895,
				1.2303135865865762,
				0.6554464952833816,
				-1.9379938710522784,
				2.6673448718226878,
				1.821599585444574,
				-0.8714678874139882,
				0.20052971295511307,
				0.33399193606639704,
				-1.3419575618113029,
				0.2504601174139347,
				0.4933660295434491,
				-0.17173416780890838,
				1.6248989068006081,
				-0.2467695416564338,
				-0.14690406971733858,
				1.4730128765147221,
				0.07617280500685443,
				-0.06616005228466146,
				-0.6556768854572337,
				-1.158391751686425,
				-0.832263976160457,
				-0.2478019031221483,
				0.4062302063443586,
				0.9587996276500256,
				-1.71485778090919,
				-1.0516907781026474,
				-0.8845481059441643,
				-0.8666781478646444,
				-1.3718116586215612,
				0.5673473821781608,
				-0.11034189949273696,
				0.2260585877268331,
				0.4766412258407983,
				-1.1525869367330652,
				-0.5099195288939142,
				1.2782135078980985,
				1.716963325726698,
				1.1058183257952305,
				-0.39497374772159277,
				1.3118622296673905,
				-2.545623196942244,
				-0.4655382704275756,
				0.1814703210652888,
				0.7488217869349437,
				-0.44183135420396963,
				-0.8741627029888466,
				-0.5703009812856358,
				0.09421783952185929,
				-0.4532244779436226,
				-1.8296690859135252,
				0.24803714238067723,
				1.5814267251517997,
				1.0256330559757618,
				3.0975269008291813,
				-0.25820220407042677,
				0.23644986157033773,
				0.10965940775479065,
				0.18533483899310618,
				0.7531826159165719,
				-0.4351568185589512,
				0.016888506229010374,
				-0.6670505004559747,
				-1.6637116547971402,
				-0.7624777632005918,
				0.9652140179652559,
				-0.7164725042972443,
				-0.7536457610642563,
				-1.857436048392643,
				1.421861741690139,
				0.5121916345563785,
				0.4047050133886391,
				1.035234903901857,
				0.639644770302304,
				-0.5888458634209986,
				-0.32366458119261193,
				0.7128886393177145,
				1.377260353352546,
				0.8612767375665028,
				-0.1779625715027047,
				0.6666912917156659,
				-0.24674969191325846,
				1.2302423676261287,
				-1.3206885585660062,
				0.4102690510659717,
				-0.5133605650443704,
				0.05285698654392215,
				0.2340624029805472,
				0.9636956599988653,
				-0.4788551960351068,
				-0.8581023672001444,
				-0.2266825009502982,
				-1.737811779334153,
				1.0310394165410408,
				-0.14361854657368725,
				0.05975882499044879,
				0.1543048249598383,
				0.2617705594640245,
				1.554150503061089,
				-0.6929744125245278,
				0.8005761079533495,
				0.2828089163786979,
				0.4186900327101433,
				0.7397814480978891,
				1.551713191424469,
				-2.087677996648216,
				-0.07208003276761728,
				-0.10205396487729636,
				-1.2251816983978217,
				-0.8826764378815165,
				0.6025406541235088,
				0.4542295044510631,
				1.501674929348966,
				1.5079907995168333,
				0.40484424691862203,
				-0.8247771916612447,
				-0.5713603374693319,
				0.6338256296088869,
				1.0398425637272342,
				-0.6573461859364323,
				-1.1496357222110147,
				-0.495312493069945,
				-0.7727553327490705,
				-0.43587644725211677,
				-1.3598336542899114,
				-0.7650079139636027,
				-0.947173314869126,
				-0.9564715780768975,
				2.063064745110782,
				-0.3090226459508324,
				-0.8721071010074979,
				0.24001502201315517,
				-1.6042253300384748,
				-0.2761030157087626,
				-1.273127110938752,
				0.29494526466362203,
				-0.572683651769454,
				0.09442821590481314,
				-0.4151226249268321,
				-0.3940660640924892,
				-1.965120934990482,
				2.1170145134089315,
				-0.6705011420925616,
				2.1711824655755834,
				1.3826028948092457,
				0.5501008424907295,
				-1.1361816285625457,
				-0.21535010223583817,
				-0.9535327478386955,
				-0.9236394378748068,
				0.6270237822510046,
				-0.730249222970274,
				0.8550963979733261,
				0.5272002258377179,
				0.6689605666231018,
				0.011177724968770935,
				0.02627353286909106,
				-0.4352386788727423,
				-0.9481999044481407,
				-1.1205027504792684,
				1.8403503865747686,
				-0.4123986007419938,
				1.1191160354756347,
				0.47790799027315006,
				0.494061457849759,
				0.8885760671633115,
				-0.43416139293620426,
				-0.8364104014903362,
				0.4082394853914748,
				0.43475585974623104,
				1.3464143976720455,
				1.0709494035187455,
				0.6120061465476853,
				-0.5613610375936838,
				0.19271798551747066,
				-0.4210469600799926,
				0.6831650246742885,
				0.0972713719738609,
				-0.29771975550702123,
				-1.6249061606117778,
				0.9063798348212104,
				-0.8873531155625132,
				-0.2056982675523221,
				-1.096037589769675,
				-1.2755121554392608,
				-0.1552295738765854,
				0.7542113553832152,
				-0.865115149504328,
				0.26582659469368364,
				-0.739086553093413,
				-1.1667559768685627,
				-0.8202369845967786,
				0.7758050754289629,
				-0.44696563026525254,
				0.8155726282005281,
				-0.7026695242080271,
				1.513029759499684,
				-0.015882686181812027,
				-0.01851055812070124,
				-0.6261923638641956,
				1.929453929623132,
				-0.9359394399811297,
				0.5129840149171893,
				0.4618432240446658,
				-0.10519835190324596,
				-0.9176785031355156,
				0.34769355092145915
			],
			[
				-1.175179009007877,
				1.032222132315857,
				0.5454080877043989,
				0.1609782655787261,
				-1.2333083164424297,
				0.3815583660499872,
				-1.613513266674188,
				0.01959383589873906,
				1.642017682772311,
				-0.8607990204486834,
				0.3090577862212421,
				-0.05876387520241341,
				-0.5278894207216572,
				-0.7261706603560999,
				-0.34323181677552095,
				-0.9221863101111116,
				1.1778961389984572,
				1.4302416602207524,
				-1.3013987214761829,
				0.46714969281841023,
				0.4531978485239589,
				-1.024298775979075,
				-0.18565547357468684,
				-0.4984993415753174,
				-0.19550728439400455,
				-0.8508684798562434,
				-1.4820602781946328,
				-1.0217790799044968,
				1.5270107586949617,
				-1.8029008744376658,
				-0.4715519376650776,
				0.5814332461140757,
				-1.0522002468058846,
				0.24963724739140342,
				-1.6443599418983845,
				0.20759529382936692,
				1.0003753070076442,
				-1.4141591107975544,
				-0.12814873000377036,
				0.24515428745878817,
				0.5773883950643388,
				0.8195121663948327,
				-2.0469519636174107,
				-0.18665510337426647,
				0.7891684663225786,
				1.005090085974962,
				0.5892318348889202,
				1.0505769783785186,
				-0.3252199881531384,
				-0.27331997454642126,
				-1.256414204964006,
				0.6690407712200777,
				0.7577400975610066,
				-0.02496985724654762,
				-0.7603213487097454,
				0.06219727955241069,
				1.1710969503610384,
				0.3106433643787233,
				2.585661681940578,
				1.0557200954514967,
				-0.4427925146652715,
				0.099129112583725,
				-0.37166692355297204,
				2.068814061313461,
				-0.3588574009295415,
				0.39767754149175366,
				0.43568398554093296,
				1.0945298561754493,
				0.5146917817725015,
				-1.6612650478043336,
				-1.6061865712366197,
				0.023648236471982637,
				-0.03800237608014152,
				0.4300854156723644,
				0.42214601664666984,
				-0.4700160467839013,
				0.4554237370493976,
				-0.14579272844300928,
				0.18305203155528674,
				1.8524563926621451,
				0.05206265891771985,
				0.6453086569545282,
				-0.27337901978613205,
				-0.3634943728667912,
				-0.20090858070775888,
				-1.9239295787868893,
				0.4177250425766575,
				1.2080420815187907,
				0.8438299769762072,
				0.1454789547676243,
				0.479974675012125,
				-0.36950341244662754,
				-0.5527022442738,
				0.9835305414703219,
				0.2617011023354553,
				0.095101356151481,
				1.0749167526324863,
				-0.67205773287501,
				-0.3457327331039875,
				-0.6453728710730435,
				-1.783404221278416,
				1.789435129979797,
				0.0519793974089966,
				1.0322141394218078,
				1.6580246164009174,
				-0.14829014666571314,
				0.19321828127851184,
				-1.699313420561462,
				-0.8293244524260681,
				1.3662137722707368,
				-0.3943432902020375,
				-2.279713056636321,
				-0.7249326048227488,
				1.585573724367729,
				-0.16938877149339754,
				-0.010265905352356903,
				0.4271858981607854,
				-1.9169730739645625,
				-0.9818731999427192,
				-0.3273206428787793,
				0.24733536674371157,
				-0.15550938167298556,
				0.556315353009011,
				0.8402993957663916,
				-1.8078592721925035,
				0.5790186478536561,
				-1.8136934305809709,
				-0.5281321027367332,
				-0.7410993365231852,
				0.03469365278185511,
				0.2048092824415825,
				0.7779767333894051,
				1.6338769892177007,
				2.341908017816071,
				1.4990518006261144,
				0.7622269859703805,
				-1.0658628704934288,
				-1.4114716583655953,
				0.67911386659895,
				0.4050377365467755,
				1.6463184513427012,
				-0.9862062241411834,
				1.5633259000849424,
				0.5162779172675753,
				0.26756901769234476,
				-0.9906053663710315,
				-1.1072182365463439,
				1.6173127073982252,
				-1.6459888352394445,
				-1.5063189045251555,
				1.29527060929407,
				-0.07206328534667619,
				0.6441246764119096,
				0.33658022059529924,
				0.9062694948067627,
				0.24296091925972987,
				0.5513742463113673,
				0.18573255953588813,
				-1.0430031009101413,
				0.8752362142013022,
				-1.7987571523658912,
				1.5323576436115272,
				-2.0583337357651135,
				-0.5687981289430587,
				-1.1974418004039264,
				1.4182217578567375,
				-0.8348249053908943,
				0.34774205159169663,
				-0.5655649663974097,
				-0.8924115668521221,
				0.25069750289787746,
				0.6352556434696375,
				0.09154899419715933,
				-0.13900373628463322,
				2.431854554387409,
				-1.2348553157057434,
				1.764320682959348,
				-1.0506440660519196,
				-0.0027916101265432706,
				-0.64038320574158,
				1.1774196760681075,
				0.8715518207229104,
				0.5312168074932311,
				0.5814154652259552,
				0.3655273961424704,
				1.7493113777163494,
				0.34142038885465986,
				-1.8683614045002788,
				-2.379884388748218,
				-0.5961339792481,
				-0.05460732226655822,
				-0.8098237829832343,
				0.788310512130764,
				1.2178021798203897,
				-1.723403745674398,
				-0.6082959812978816,
				1.0713163083675774,
				1.4109392531965852,
				-0.171111763058077,
				-1.325511511611744,
				0.7082202071030805,
				0.3802915497559805,
				-0.5514353821104608,
				1.1717649954330032,
				-0.14916432563989007,
				-0.07228756292995218,
				2.9321842988102977,
				-0.63780986827357,
				1.9652849824047824,
				1.7233715908357408,
				2.138433353112371,
				2.064307522569809,
				1.6417318845395799,
				-0.1921157350713382,
				1.2815968483710554,
				-1.4363028769871673,
				-0.26982959435233667,
				-1.0493820982426132,
				0.6010953483236213,
				-0.43228557946126284,
				-1.0113017581374715,
				-0.06371583069828834,
				0.3349282955451889,
				-1.4013582510725828,
				-0.17089139643536838,
				-1.5382424238825112,
				-0.5520459808344854,
				0.880724104681889,
				-0.4963756981168653,
				1.3726069224352004,
				0.722618916421379,
				-1.056507501200769,
				1.7767856479700308,
				1.1802872182318638,
				0.7196695619988941,
				0.35144934061224664,
				1.6369236392845559,
				0.26223972860534106,
				2.646295618249075,
				0.34004395831610446,
				1.4451076675145569,
				2.3009516063496025,
				-0.9612113342713812,
				0.797484533639446,
				0.1609676399903914,
				0.6519370289851933,
				-1.3713035810335392,
				1.5922677649368902,
				-0.9779712784213038,
				0.014876813085535703,
				0.41475406947802057,
				1.8264080614134195,
				0.07258240601759142,
				0.01512073441160029,
				-0.8390702558109053,
				1.0116804302463682,
				1.3919302517454744,
				1.4247364638833186,
				1.0333643508112056,
				1.1056598616274274,
				0.6494555597751983,
				1.1982767235967962,
				0.2970548560634098,
				2.621716168908179,
				1.334183433706965,
				1.1280048277520123,
				1.8066756847724792,
				1.058177286533733,
				-0.2143208945105092,
				1.0795762974739886,
				2.1471906335049065,
				-1.0537601526768552,
				0.32325069061801803,
				0.30042284906181405,
				0.5190488125225052,
				-1.1200567949161233,
				1.2891955514837332,
				-0.8896430887006929,
				0.2641861209291068,
				1.365788591729467,
				0.9675459453814234,
				0.9347656835037202,
				1.8478656188425937,
				0.03528064610275223,
				0.08586896109339617,
				1.8754416901627695,
				0.38332638949730385,
				0.13231919779875437,
				1.5393311305253148,
				1.026515228450829,
				0.9748182563413512,
				1.6624149901972642,
				2.552090635897828,
				-0.9467227359607946,
				0.26699878605349864,
				0.38690849675046196,
				-0.9094383845706382,
				-0.8744184791514195,
				0.3293110033409958,
				-0.19467081996336674,
				0.864143556280132,
				0.5926373940691657,
				-0.7847170708620921,
				0.7043029613641868,
				-0.284288747502695,
				0.9851252591339922,
				-0.042901342580847,
				-0.7490537289229281,
				-1.2132918288818324,
				0.6148610737774998,
				-2.3599456226526216,
				-0.17412161870863496,
				1.0981413719675086,
				2.412978735196974,
				0.11943713231366104,
				0.922682003003345,
				0.6266411184175003,
				1.0632631657768312,
				1.947055022523008,
				0.7091765483086523,
				0.962899605850435,
				0.053370970510328276,
				-1.02848611566369,
				-1.2606506483756243,
				0.9658664495550731,
				1.4126910243638127,
				1.2271242412686711,
				0.6383197796540044,
				2.0600552502136993,
				0.7476547170185195,
				0.7879250214486279,
				-0.2582096341078084,
				0.12688406757169454,
				-0.6078643696673192,
				0.6547291787656897,
				-0.326596814359669,
				0.11009572648261251,
				-1.2907563967438638,
				0.9893327758594949,
				-1.5475926910211342,
				0.4533566863758863,
				1.1022333034005802,
				-0.18340140988811088,
				2.2138811328469794,
				1.001256141855349,
				0.6316484951541327,
				-0.3432048082847123,
				0.4442674944863845,
				-0.7877304614535767,
				1.8549942821445706,
				1.0976227791369608,
				0.11774347025436659,
				0.21234673906032286,
				0.47374949486732837,
				0.5481492804919884,
				-0.36505403106975565,
				1.044386264262104,
				-1.0351343953321097,
				-0.7022071848212551,
				1.5820547633721291,
				-0.7163583891590359,
				0.015668767478896985,
				-1.2679637414012752,
				1.007642290111534,
				-1.4358867302019163,
				1.317385052398897,
				-0.7443131585037216,
				0.48642929959301295,
				1.5392217405170976,
				0.21584504659963638,
				0.5704790145983651,
				1.8227387607338252,
				-0.7657693500835674,
				0.8028949500856717,
				0.6929490537226695,
				0.6452616407588881,
				-2.2282857098338553,
				-0.6449121301716297,
				1.07780360894635,
				0.9796059785076792,
				1.6056814605810472,
				0.4791488049755056,
				-0.10248734820073228,
				1.1212548579721828,
				-1.008846042175673,
				0.5794565661060594,
				-0.005859842698087452,
				0.11430043958793598,
				1.5151820540911403,
				1.080560010258114,
				-0.19619099586229172,
				-0.46522483881426335,
				-0.12773576141092863,
				-0.24719546733455972,
				-0.8058874312525562,
				0.5823729801486329,
				0.978338053291337,
				1.1079640320590405,
				-2.063857199427123,
				-1.1105581726247793,
				-0.6076378089138812,
				0.20010506036571846,
				-0.26246180629370686,
				-1.072115741173909,
				-2.037680391756511,
				0.16506542817656863,
				-0.9787859793651504,
				0.09692964814044863,
				-0.6169800580565572,
				0.055126308518266824,
				1.7241365570148925,
				1.3793463342787629,
				-0.046878003011510294,
				1.0089986822559172,
				1.3158335153547074,
				-1.166205138717425,
				-1.5288008471980656,
				-0.2149190862310435,
				1.4107818191378423,
				-0.792870667543177,
				-0.18179157770991886,
				-1.0789873544013862,
				-1.0262776894891785,
				0.2472614761007965,
				-0.4598583845142614,
				-0.798015672153457,
				1.8494657374613923,
				0.93138129416383,
				1.233701735322699,
				0.6511312985659705,
				-1.050466590681626,
				-1.3229251873693557,
				0.28110632740837704,
				-0.8001587978183998,
				-2.313303658426555,
				0.1396192247308845,
				-0.5711700026263831,
				1.0680200576460217,
				1.3824630800327822,
				-1.693403688098238,
				-0.13088179388193272,
				1.2174528650295948,
				0.06713962048225816,
				0.6398657970495782,
				-0.17720478906036777,
				-2.832163329807765,
				0.7545957426152368,
				0.6290073640170379,
				-0.49552693624149785,
				-0.29322282136846,
				-0.18615365049819163,
				0.8596644290427405,
				-0.26666253035027804,
				1.1889377691516936,
				-1.3087915568885595,
				-0.4598738869943527,
				0.45346085571271605,
				-0.0690763180083219,
				-2.427726077693315,
				0.08354114992400978,
				-0.2896769572749674,
				0.16708390825460312,
				0.029956600197839054,
				0.51524841878506,
				-3.7082249039270008,
				-1.5149463900575912,
				-0.06521353199283299,
				0.7112075154734179,
				-0.0410059680597286,
				0.02345364705636032,
				1.3521544396120022,
				0.6038987031947445,
				-0.9945025489710011,
				-0.2617430716987684,
				0.5961649070819952,
				0.6659691444778792,
				1.032727412978269,
				1.8589391132824005,
				-0.5601558475213497,
				-0.18665347345851704,
				-1.1648532926276172,
				-0.9004550552280693,
				0.7609908699881798,
				-1.1332705987059926,
				1.1398355704236283,
				-0.8646669137338816,
				-0.9845920129423279,
				0.2293753914925878,
				1.7903333848958616,
				-1.8447449609927453,
				2.5076153219133226,
				-0.8890612358774483,
				2.219205960751403,
				-0.731009866302157,
				-0.945062459319751,
				0.21786793035224172,
				0.16102543067413855,
				-0.11272705548819233,
				0.9361083384951459,
				0.33165562042922714,
				0.6357075235430899,
				0.7206558716125326,
				-0.307878016160071,
				-0.3766731070956068,
				0.7247726001211658,
				-0.5960809910420802,
				1.3360772531735954,
				-0.13040698616399146,
				-0.9606546137257514,
				-0.971394818515067,
				-0.4433086305902033,
				0.9286740791521471,
				-1.120885033138839,
				0.7735793756958421,
				1.2230169264324255,
				-0.6057328351452843,
				-0.4947395749395257,
				-1.076134403771232,
				0.5353978812202401,
				-0.31570650148359225,
				0.47437419136189257,
				1.0472899467347498,
				-0.5661661390065826,
				-1.2591978086120146,
				0.7058366482078757,
				-0.7812148742102658,
				-1.1700908593901937,
				-0.7673754059893487,
				-1.8402534950296299,
				-1.1794983547235505,
				0.41799220177829755,
				-0.4396706441864863,
				-1.873275498491223,
				0.3585766163060044,
				-1.6895061967107727,
				-0.06732942741861736,
				-0.2859410932488513,
				-0.4475645228834112,
				-0.7237580736443482,
				0.8965602458089265,
				0.5590491500252224,
				0.6755515727044685,
				0.39308747875491423,
				0.6864449661890661,
				0.3971030080842821,
				-0.25966361892778006,
				-1.4016789518854083,
				-0.7620269211107418,
				-1.3281654818611104,
				0.7700816122432879,
				1.0960465780599487,
				-0.04273169637405634,
				1.2571709728600744,
				-0.004269994081046251,
				-0.7824057375928464,
				-0.08449639443796228,
				-0.15620756382714418,
				0.39631589020057406,
				1.197106308390562,
				0.769067574591811,
				0.8619209895154708,
				1.020854040620123,
				-0.27308302241442367,
				2.316240091640156,
				-1.3036055080961366,
				-0.7726462401152235,
				-1.6237372118206717,
				-0.7470723194211528,
				0.01657253889710981,
				0.5763523586820303,
				0.5525289194598744,
				0.6052528336880313,
				-0.32369552302607707,
				-0.2571615190109008,
				0.14093260681875416,
				-0.2899955072555113,
				-0.5346634220588102,
				0.2336417327813116,
				0.5325286854282976,
				-0.05246005775389103,
				1.3456243065717843,
				2.071341648609267,
				0.5060791247072861,
				-1.6777083560279276,
				0.7616888757310671,
				-0.3382886513098884,
				-2.061947973313025,
				-0.7416346814885468,
				1.018612497284307,
				0.25723757545568476,
				-0.16986878709746284,
				1.1721297560948134,
				0.7570857253495635,
				-0.0947157695740206,
				0.06731687094239555,
				-0.03705848769349333,
				1.947760444920761,
				-1.021792808435175,
				-0.9854527809874913,
				-0.3346024048729042,
				1.1383245417815722,
				0.6674931521390587,
				0.38213804432857196,
				-0.4354887875557414,
				0.9815579964417349,
				-1.1720265635843556,
				1.5311929471734593,
				-1.0283934251808695,
				-0.4128435218021713,
				-0.9643958981664299,
				1.287872571599755,
				0.5902679737608552,
				1.2907791720818464,
				0.1356647693919855,
				0.014683101235755105,
				0.07981720308189488,
				0.37499765025746257,
				0.13006505869822454,
				-1.2624437374927127,
				-0.8418287474488783,
				-0.5050306368470346,
				0.9457831622834193,
				0.9967778586434448,
				-1.0237749798988531,
				-1.1577849638422082,
				0.07245750093827343,
				1.6720172673770195,
				0.7243518596170259,
				-0.547858915161819,
				-0.8062560605542988,
				1.388110060480522,
				1.587280159304717,
				-0.6078152582655827,
				0.8763242627454736,
				-1.8306723403033556,
				0.7139026825542472,
				0.7395222033288347,
				0.048823068635831135,
				-0.8283487703995721,
				-1.0321699688034423,
				-1.1696468634201065,
				-0.16722242111938138,
				0.47227226159307445,
				0.07679034940115675,
				2.2265917030116205,
				0.6021504570950793,
				-0.9963379080754396,
				-0.8118185946555031,
				-2.79978541421934,
				1.2772253516119252,
				-0.16280284231810635,
				0.6753157696775688,
				1.4429693301192015,
				-1.087983060482834,
				-0.19607278532895317,
				-0.4506097613152775,
				0.5374896831139281,
				1.3089081355838397,
				-0.18153957903643667,
				0.09025148198374336,
				-0.22181716540158755,
				0.19528760990098226,
				-0.025071864017473598,
				0.7179427025866179,
				1.7083824705850652,
				-1.1859271556388018,
				-1.2297814159038665,
				-0.06725774493439056,
				-1.3456239217031143,
				0.7786858501286533,
				-0.9770868879992972,
				-0.48096800275660034,
				1.3758963769679857,
				0.9879919593619358,
				-0.8203654200157844,
				-1.400105319487571,
				-1.1277257926382769,
				0.129798667455716,
				-0.04161770882836495,
				-1.5241555189399512,
				0.7110460682739117,
				0.8874521079752492,
				1.9493222178329426,
				0.04043245556903466,
				1.1338121765612261,
				1.7519326433072009,
				0.38662732266104005,
				1.1182380704772827,
				-1.02045047643948,
				0.12815902534001022,
				0.8764276625734744,
				-1.5182566971740856,
				-0.21878733195749847,
				-0.524498070799211,
				0.01737644834276913,
				-0.085531863301538,
				-0.16903552399556643,
				-0.5609066525376507,
				-0.9954694335793546,
				-1.0186881058390784,
				0.632642440994746,
				-0.5498254730985236,
				0.040255226130551575,
				1.3635525529895172,
				1.2311563752469288,
				-0.9537575317737453,
				-0.01210222215407614,
				0.6925041599829919,
				-0.8990483374333019,
				-0.5931998626513566,
				2.323259055398092,
				0.992929971878795,
				1.1278086154377374,
				1.0748398839972135,
				-0.1846957215210092,
				0.7326399613047611,
				0.7614033862975162,
				1.4932116481028335,
				0.16270475973545548,
				0.0954758960115274,
				-1.1965513343203604,
				0.8011026904929732,
				-0.40610931078835494,
				0.8398823247150539,
				0.4237175873821041,
				0.997597872514262,
				0.8768155183313787,
				-0.24067510100399472,
				-2.0124770905165503,
				-0.3427971473559749,
				0.07024075329836586,
				0.3464142238659484,
				0.04018413388333074,
				1.1380337910962868,
				-1.1151520248963107,
				1.3652465438424517,
				-1.508747332788366,
				0.5254288961465406,
				-1.240737135342955,
				1.277581437576818,
				-0.004178553775291997,
				-0.376860565884247,
				-1.2553720211078567,
				1.1353963110244367,
				-0.6648023489647777,
				1.4118858093465458,
				1.564031319507764,
				1.9042375043213458,
				0.48404292379034125,
				0.5744510437169583,
				-1.5831377322406264,
				-0.3485866348646422,
				0.18656405073063287,
				-1.7414903008623528,
				-0.7285607130216167,
				-0.9425899162367644,
				0.3044161264640027,
				-0.6939485230693807,
				-0.3009543900594158,
				-1.3909901926231343,
				-0.44754580530023824,
				-0.8767261837987662,
				0.430467390723195,
				0.7625672223581277,
				-0.6538341582616535,
				-1.041719882014481,
				-0.07069406985062235,
				-0.5575876999684031,
				-0.670003856128132,
				-0.37178945193676677,
				-0.27506555118316794,
				-1.1096770404083676,
				-0.4827809278941203,
				0.7924123172312931,
				-0.8052602029250046,
				-0.12491446578057044,
				1.374031205741986,
				0.37745946110145,
				-1.1353349389535674,
				-0.5243628456355338,
				2.0693544357416562,
				-0.13399621002352735,
				-1.6736192363822786,
				-0.5532873962026446
			],
			[
				-1.6719520002946522,
				1.1996097114803619,
				-0.5009934394847095,
				-0.7587710799785282,
				-0.6085776185515959,
				-1.009283157189125,
				0.1957438470833755,
				-0.48092148974225485,
				0.06113040258916746,
				-0.8660484795713039,
				-0.1499755510624757,
				-1.1009080783720837,
				0.31682995319403273,
				-1.1824167218351718,
				-0.8948199396350651,
				-0.5564730949777121,
				-0.8317220280524347,
				-0.5684054442384103,
				-1.1248582438371275,
				1.709997730455882,
				1.2321963631418822,
				-0.4422141676246626,
				-0.043172233871866354,
				1.7140526543678831,
				-2.5080145348569323,
				1.594361593698288,
				-1.6001000595167858,
				0.5798583415186763,
				0.23081404381604617,
				0.9989043683277362,
				-0.6762428914503681,
				0.20252130515838093,
				-0.42732492447254894,
				-0.2756691051522707,
				-0.1341711902221238,
				-0.34192416781104934,
				0.7456063348454689,
				-0.04471164354362374,
				0.4070458971790286,
				-0.47644373033703,
				0.7772374032652338,
				-0.5611564441685235,
				-1.3708384732916161,
				-0.5622823824063437,
				-1.5296052576175954,
				0.2913924944073058,
				1.9660367255591655,
				-1.4803202682171708,
				-0.8948932382621752,
				-0.767675823601906,
				-0.43099461022075286,
				-0.9483197688477614,
				0.26421173767971384,
				-0.45467648143658806,
				0.3566082896856868,
				0.04428066206206509,
				-0.9316171830002231,
				1.3714307726170971,
				0.30030024734449023,
				0.013046048008217043,
				1.1519953544085415,
				0.12445714884080711,
				-0.6027063357584379,
				-0.9889319397365235,
				-1.3026034523337602,
				0.20299269165701175,
				0.1804952913996873,
				1.9354898243480998,
				0.9704292382245714,
				-0.00920966480705411,
				-0.9619258717298972,
				-0.5128635866243112,
				0.42831955431945057,
				-0.2785160365157553,
				0.33305472438100103,
				-0.4767841948050587,
				-0.621178762058438,
				-0.05970817804867269,
				-0.19380876961092194,
				0.5080036124165181,
				-0.9208991253084431,
				-0.6212807869445198,
				-0.5696886099967964,
				-0.6449534506883637,
				0.6349634529513176,
				0.8298368613667253,
				0.15138329612517426,
				-0.41269452978507865,
				-1.1783855215598094,
				-0.17876637007308072,
				-0.46504359808588636,
				-1.8501392692716834,
				0.5344818632127382,
				1.3446155895309673,
				0.08330274776734363,
				0.34620693541870684,
				1.156450919940374,
				-1.0691992568512758,
				-0.321113464276154,
				0.9735935138938121,
				1.9340491950154166,
				-0.12745104066531554,
				0.9964586206503375,
				0.008897841652254528,
				0.5896671939021979,
				-1.2165979640092808,
				0.0891460709347315,
				1.3732195125972875,
				-0.033729584660723406,
				-0.4095421840239704,
				0.1157719947274801,
				1.2871744005575962,
				-0.39359315414818874,
				0.22104477820911161,
				0.3322555733871995,
				-0.414788047619359,
				-0.7154065060044582,
				-0.5382549601936278,
				-0.6010189843015249,
				-1.4438382495018889,
				-1.300798554136713,
				0.3046222250491309,
				0.43505284955092655,
				1.074760224945254,
				0.6342321553775637,
				0.6996944830229376,
				-0.8230318955310614,
				0.04127659374480021,
				-0.1492457724724663,
				-2.257613165334325,
				-1.5318645036189358,
				0.09213228217587847,
				-0.8635404731004045,
				0.5098516037331734,
				0.4083135506914787,
				-0.346254371752591,
				-1.6395177910898957,
				-1.2746870045546823,
				1.8512052146688094,
				-1.547752119713538,
				0.2616876517024576,
				0.4218852608305837,
				1.5407263300943568,
				-1.2571216168655277,
				0.0325239840946686,
				-1.0753019738587075,
				0.9300136453434564,
				2.3883153061160773,
				-0.5671742716763859,
				-0.13009939218028266,
				0.31521209158871977,
				0.6118936977509986,
				-0.21093458245728705,
				0.06853037277171782,
				1.0022289282825787,
				-0.08005795077624396,
				0.02421155624137832,
				-0.2648734063755766,
				1.0029915697423104,
				0.5763462114123968,
				-1.6747052271874265,
				0.3924426686874151,
				0.7759324507537955,
				-1.6011073555876396,
				1.0833725683460524,
				0.5648024419100338,
				-1.1011729954448153,
				1.3751259444536021,
				0.06696580916672475,
				1.6614779043677352,
				-2.1230860422498923,
				0.4266025657702015,
				-1.0799057926492626,
				0.43464669675450346,
				-0.13237074591310646,
				0.3992259679373266,
				-0.9519031215126137,
				0.6572379617100793,
				0.9401782302292246,
				-0.3889857241333463,
				0.38850991722811185,
				0.4563233500472674,
				1.4439314138438448,
				0.5166247136731703,
				0.6692677608563548,
				2.1287648093174742,
				-1.0158199644080452,
				-0.4171475230930821,
				0.7612561104960596,
				0.2769088111582589,
				0.18724785346498554,
				-0.9119894907540937,
				-0.6354360343066774,
				0.5124912284519085,
				1.366731714954241,
				-1.836310554257932,
				0.11186965873529452,
				0.7802497810970935,
				0.2999498446798343,
				-0.7436938750398636,
				-0.18377894495367594,
				0.09137488081830174,
				-0.05839462622963854,
				0.5259369719949886,
				0.9822216721476001,
				0.7739779795697294,
				-0.82366238307112,
				-1.2586817413059779,
				0.1111390517306143,
				0.3077503640019532,
				3.153650103731815,
				-1.2266974568254587,
				1.0397968160241529,
				0.9975084691073134,
				1.9043633418374306,
				1.1195682518628356,
				-2.39157792534317,
				0.17995906287348234,
				-0.6097139165142388,
				0.08789650707584648,
				0.1225379725703104,
				-0.08223524863413757,
				0.33327014403977023,
				-0.9081383438866527,
				0.3732023505115126,
				-0.4093132251979136,
				0.7582657936073682,
				-0.20681338599416163,
				0.24645144071552666,
				-0.07515991691944855,
				0.046742350139418104,
				-0.3070300223480889,
				-0.11788897313643902,
				-1.485308770369353,
				-0.2632023817004258,
				-0.23485991493240513,
				0.5331956494674305,
				-0.9482366792531273,
				-0.41067408704973535,
				1.412856953330209,
				0.5975270191303299,
				-0.4735659008899735,
				-0.2874575585148583,
				0.7275307874976161,
				0.46892135939241353,
				0.6870273388699085,
				-0.024575417170185215,
				0.8970685631434858,
				1.0136645010834013,
				0.2637167844307528,
				-0.5576653025568745,
				-0.1951688637907542,
				0.2314782432204844,
				0.01028917676639169,
				0.06527682836569747,
				0.4086525530196545,
				-0.6008827927945014,
				0.3655729461421034,
				0.15053090658227075,
				0.991223237698405,
				0.14539349751509958,
				-0.42065992125647306,
				0.01180156642180841,
				1.5467334020763315,
				0.5759621986830057,
				-1.5388172202563872,
				2.0888768213173723,
				0.5114130136667195,
				1.418457326826628,
				0.15939693061569837,
				-0.2357521286612282,
				1.178463540678933,
				-0.7876306880328531,
				1.848213751673624,
				-0.9508747142891085,
				0.9894032607564369,
				-0.7907972439887363,
				-0.3324474516381028,
				-1.1541361190103734,
				-1.48402480186262,
				-0.559902301432832,
				1.0527626484865176,
				0.7977239430840838,
				-1.5169505367573843,
				-0.2358524719539132,
				0.7533526170710078,
				0.4659440947383352,
				-0.1125610402318843,
				0.631488544451686,
				-0.005834023822799649,
				0.30339575638903504,
				-0.8972952620624769,
				0.8142351477182803,
				-0.8373627202174274,
				1.2339766799321454,
				2.1397559882192674,
				0.07162330516811763,
				-1.7581893446128232,
				0.4650663593499104,
				-0.7850594370900742,
				0.8822809885858018,
				0.1693397717452628,
				0.33798935642813616,
				2.91672254830475,
				-2.7834387586664486,
				0.3039099947611458,
				-0.3562527034644342,
				0.01397070972414145,
				1.3765506940332712,
				-0.8838940924471564,
				0.8222994011422116,
				-0.2567752122653364,
				-0.3895704717294558,
				1.3156052414296338,
				-0.3649846075756446,
				-1.145259371342294,
				-2.4997943190546685,
				0.36605618594795725,
				0.11984051036653846,
				-0.6589542220700287,
				1.8208049159990467,
				-0.3342461647653427,
				-0.8766694354577708,
				-0.4617332098365645,
				-0.679595123647568,
				-0.012547103502314352,
				-2.4613215474216634,
				-0.6787692912888683,
				-1.2985530932546432,
				0.8704272628204737,
				1.9133394654261793,
				-0.6018434084148274,
				0.39425187735958733,
				-0.5126992530398233,
				2.2242372514519957,
				1.0041881178651952,
				0.12691243766989083,
				-0.662289328494964,
				-0.43020308588729556,
				-0.940295149727608,
				0.6394799561532193,
				-1.881306657074663,
				1.2276097665705052,
				-0.5978473566071956,
				1.265397489279118,
				-1.482020182955984,
				1.1747325226249057,
				-0.9260522572231389,
				-0.5273290860521515,
				1.239880003318491,
				-0.11758547285533287,
				-2.273351452152467,
				1.611569692802597,
				-0.6021884799039704,
				0.9213329188588145,
				-0.4270406095962171,
				-1.4906712308841659,
				1.9214898419873125,
				1.3103997360971673,
				1.081209509362004,
				1.2612017285164674,
				0.717885700917287,
				-0.5840708824046581,
				0.8561565494831755,
				-1.661450123389288,
				1.842047431931516,
				-2.223419861467581,
				0.3296024765804488,
				-1.0001116657947415,
				0.4629159099455652,
				0.3813565037088567,
				-0.724245532494604,
				0.711513136874155,
				-1.0855539056795436,
				-2.3588751057237745,
				2.264547509387166,
				0.5201591618330998,
				-0.21777228684993846,
				-2.3144638351701565,
				0.6643565325575059,
				0.5953309418057905,
				-1.9306044248746064,
				-0.7349360934648786,
				-1.2561083874724033,
				0.4888781690418401,
				1.6265381916259631,
				-0.23489681907790047,
				1.6900145123509698,
				-1.2321554398978607,
				1.0522519264483055,
				-2.30790992065183,
				-1.2920134716922658,
				-0.5590198313494003,
				0.9194297604867515,
				-1.7289537034475835,
				0.30868863375206973,
				-2.3551886958143826,
				-0.30490596227951744,
				-1.3846114765407909,
				-1.877609973390782,
				1.448152564078816,
				-2.0525884774877254,
				-2.838115512181112,
				-0.23658472941757264,
				-0.05454067305196686,
				-0.21768949222257422,
				-1.0949499237485738,
				-0.9645778225128153,
				0.6563537728271621,
				-0.2341307293637242,
				-2.0881047131256167,
				-0.6506319227339699,
				1.6924115243041686,
				-0.23257048518163334,
				0.4004591247755816,
				0.8163147419337389,
				0.4801338705450465,
				0.22682434921104447,
				2.587140047254664,
				-0.5384618904109671,
				-0.8849785557147888,
				1.8264972111530577,
				0.3446783070777495,
				-0.2596541592893001,
				1.0734022243063086,
				0.054391707652917606,
				-0.10206835061160731,
				0.5059932844927354,
				-0.10705381827135108,
				-1.158638998169529,
				-0.2802160015922746,
				-0.35921600503374423,
				0.4608423640890914,
				0.6628790008410752,
				0.8937075760911563,
				0.5113621584525583,
				-1.4544940078978856,
				-0.5119632276164543,
				-0.8599962514537232,
				-1.8131199694709643,
				1.7788900207636122,
				0.08183758657027418,
				2.481548912515075,
				0.3921331920348983,
				-0.4992313273964621,
				-0.05496915012486696,
				0.1476455888840498,
				0.7792757557202461,
				0.9214932200213938,
				0.6891367552574573,
				-0.2965679438899877,
				0.8831445606713063,
				0.15578940353420329,
				-0.7483652293175369,
				0.10848306275048297,
				0.16703632538623817,
				0.6966396177283253,
				-1.335205522980446,
				0.12963327891674284,
				-0.5316237780283048,
				-0.41399480711200565,
				-0.6097849020062232,
				0.13028999228384175,
				-1.0775710353297547,
				0.1886784062452512,
				0.104354769302624,
				0.4358794389969464,
				-0.0758153276453413,
				-0.5509452618661003,
				0.8462384025469877,
				-0.7136736536374672,
				-2.1954562095009424,
				-0.27445148226997773,
				1.5581453966862808,
				0.2528196852989352,
				0.24754048777622772,
				3.0498122519730577,
				0.36135541338369787,
				-0.23869485627288944,
				2.2861522813159962,
				0.21859095168194154,
				0.8336611939843457,
				-0.30387384482863905,
				-0.9563238815957089,
				0.17886951044875596,
				0.6909111621009518,
				-0.018826812815958,
				-2.6961696212924218,
				-0.2796126557639216,
				-0.7292488162281656,
				0.0013251824408273254,
				-0.7619090106628948,
				-1.286879359765566,
				-1.1994930849860204,
				-0.19674943564556407,
				-1.6797639966512945,
				0.88657464330614,
				0.8508981402059661,
				0.18991840838891694,
				-0.6911851880875248,
				1.3808744631604983,
				1.39716398934717,
				-0.20905623994179023,
				-0.8135445139210729,
				0.9973155998307512,
				-0.04109363377383347,
				0.792582700203307,
				0.43435210879898706,
				-1.1684500134037186,
				1.3334397579769632,
				0.5449361243506217,
				0.6034430407530329,
				-0.621136537375566,
				0.7619125698091271,
				-0.5082246528991832,
				-0.43090007653938484,
				-0.4078356943529236,
				0.3163477789896595,
				-0.19398666207414483,
				-0.41431505931208673,
				-0.8800564459828575,
				0.14556161173939605,
				0.922626104884932,
				-0.5006615027795184,
				-0.6079719601752992,
				-0.4912527663152573,
				0.019787434695023004,
				1.11592479122602,
				0.38846886638411326,
				-1.0977822673974618,
				-1.9095175684730488,
				1.0283340630804563,
				-1.170777301944484,
				1.0216915499912922,
				-0.5143756293012138,
				-0.5723364271365008,
				-0.2434144643964501,
				0.6410302550814077,
				1.2143340416600814,
				-1.3462274557632283,
				-0.47333353092604685,
				1.6497036231765894,
				1.9192410219406963,
				1.7360881729883768,
				0.817867780984508,
				-0.7253014295351282,
				0.23996414325774224,
				-0.8208642823045939,
				0.6130714875258155,
				-1.271490351582411,
				-0.6126291608774445,
				1.5378037458335785,
				0.25479591279592395,
				-0.6213463763773248,
				-1.1522792623325833,
				0.603648696615967,
				-0.3383140024222355,
				-1.2158338031370717,
				-0.5516006906281162,
				-0.7269386762224677,
				-0.2067004241425853,
				0.07649916647480465,
				-0.761972196015639,
				-1.5603646384495118,
				1.38188157429925,
				-1.0390380620772413,
				0.6673560276989134,
				0.6168162367779785,
				-0.38859164090453885,
				1.629327502415075,
				0.35566875058133757,
				-0.2906495106063619,
				-0.32989397044994623,
				0.16412241898305216,
				-0.37337496739365655,
				0.40626330001071254,
				2.8745308731127683,
				0.3659228797568328,
				1.4680754756677765,
				1.3404244942221766,
				1.4179143355124546,
				-0.17099017422199356,
				0.8997750544292715,
				2.0104146822578466,
				0.15955777702538151,
				1.2008317067433096,
				-0.8241885784251104,
				1.267488870637267,
				-1.1535114756933222,
				-1.1343047060055982,
				0.132956731663544,
				1.6473968824775949,
				-1.5670548214722444,
				0.44249206539312735,
				-0.22938075358512236,
				0.6431340633255,
				1.6651270247593564,
				0.4522707035830674,
				1.6672713535874766,
				0.20156936378055154,
				1.990861309468493,
				-0.5387120006635149,
				-0.475182931796483,
				0.7594190202450462,
				-0.005594399490464243,
				-0.06536788492436645,
				1.6380531883184997,
				0.6567590349079833,
				1.049939182993428,
				-1.527277452074507,
				0.9929533578563994,
				0.42758020037779715,
				2.0174884143220573,
				0.30409218391706316,
				0.8893540768615059,
				0.21058717051228643,
				1.1232199595893557,
				-1.8388204401889436,
				0.11932896245080393,
				1.6774108717043088,
				-0.28365112541738846,
				0.7188128117268413,
				1.4641517860386581,
				0.2203468780243142,
				0.9753874746130523,
				-0.07085614261127708,
				0.12511446937010398,
				-0.5606347237803649,
				1.1171259458689333,
				0.3565663204725137,
				0.5618817470254954,
				1.2080601099967183,
				0.7474673948076934,
				-0.9995488133890083,
				-0.7047190220196752,
				0.42231571417910924,
				0.4191755242954221,
				-1.2192153439833973,
				0.6557813777296481,
				0.09956293016617149,
				1.5995327219895625,
				1.3023650740712311,
				-0.19943153974452182,
				-0.5579270973930884,
				-0.32538848489132854,
				2.2946523134285317,
				0.7712458404176938,
				-1.7277746043919229,
				0.46312357064154924,
				1.0641447880344321,
				0.3382410617739516,
				-0.8412478063370589,
				0.3243530417756051,
				1.5818141825610579,
				-0.942588175483971,
				1.0482955578733528,
				0.17101929512679448,
				-1.1416681427233968,
				1.6093096372394715,
				0.9407673964806003,
				-1.2170902001973327,
				-2.447645222168669,
				0.2081512586511401,
				-0.03012610645531101,
				0.05630108513834617,
				-0.33750792425383047,
				1.3669361587125946,
				-0.35803056065545635,
				-0.4238474560268086,
				-1.3342524881772726,
				0.1842852322941064,
				0.8678594680438264,
				-1.2749265234802853,
				0.6011413231881825,
				0.5889690668521044,
				-0.460234020356118,
				-0.89308626455886,
				-0.03434393755892852,
				-0.051900293631277905,
				1.97099320436136,
				-0.12414181299288618,
				-0.28808853517080746,
				0.9478272916729569,
				-0.4267868882226514,
				0.33546461611582046,
				-1.539892812445701,
				-0.2077389983418841,
				1.0141496689745362,
				-0.9674018482785264,
				0.32758003097901767,
				-0.3201829603416478,
				0.2674274168534334,
				-1.3663612244923118,
				1.3258436383226024,
				-0.7044141029848293,
				-0.26341170063563035,
				-0.8760521845580338,
				-0.04755880193895717,
				1.2446168954585022,
				0.8900015813269242,
				0.9679662554980446,
				0.34186853090580993,
				-1.446004780926113,
				0.4817858132859555,
				1.4492797439402925,
				0.3342491230740808,
				-0.664666132940839,
				-1.1162613556386423,
				0.36927632723706977,
				0.08187822832886368,
				-0.3082862485209723,
				0.662586722987235,
				-0.11993372214758191,
				0.9203292247717624,
				1.2542546836947641,
				-0.15143161020813956,
				3.20694144804004,
				0.04148925489237208,
				-3.2886925181467643,
				-2.137198251227672,
				0.3563051959676398,
				1.0696820224296668,
				-0.3114070224669984,
				-0.9774614736456481,
				1.5827042215364504,
				1.55218098168731,
				-0.01215471425355514,
				0.8756128142990806,
				-1.1535573313853873,
				0.6350903439687573,
				0.19244797136040465,
				2.353249520788738,
				1.1782492992163616,
				1.83928148086716,
				0.3439162566791115,
				0.1329735722942665,
				0.05084506862534121,
				2.003075662391578,
				0.6752503451384927,
				-1.744404705795457,
				0.7436603737527147,
				0.05893560412113914,
				-1.6101449386294024,
				1.1097471380054351,
				0.37642421774595763,
				-1.3262518138221007,
				0.49697080838014185,
				-0.7025390748881827,
				1.0664711154692514,
				-1.6750114804949925,
				-0.11393926836218525,
				0.6377950669870113,
				-0.7506459637509636,
				0.6056003802161226,
				0.9034449350958318,
				0.3166438725431357,
				0.4710818393759685,
				-1.5663572986903624,
				1.434703976339839,
				-0.7631359412058359,
				1.8484542875768297,
				0.24506544992139034,
				0.16683652073094243,
				0.19880897416556018,
				-1.9899003197577567,
				1.752593156908669,
				-0.7288716217833101,
				-0.1503355095717771,
				-0.3896972614517234,
				-0.09347657828347536,
				-1.5409698830465721,
				1.3348870474601395,
				-1.1908664352964358,
				0.5827766216105419,
				-0.028434001696416085,
				0.09542929580148347,
				-0.5078025362080902,
				2.425530311972023,
				-0.2815394087092829,
				1.527256416375248,
				0.24061643597871674,
				1.6239863956698464,
				-1.3529255956165944,
				-0.4169831212164402
			],
			[
				-0.4848874408090862,
				1.2227751054604636,
				-0.9783770531898818,
				0.37956199079713837,
				0.6384900198561534,
				-0.06797185755763,
				-0.7577324864986721,
				-0.4373806885499193,
				-1.75068569288692,
				-2.013018404251182,
				0.5725605601699628,
				0.606380852958607,
				0.7620750756550346,
				-0.9032582392532583,
				-0.013395031016238635,
				0.48774738463848405,
				-0.6748878147712776,
				0.6166865619752431,
				1.29262804657731,
				-1.5924058282706588,
				-1.2397293400555462,
				0.1676504763868236,
				-1.5111487143269442,
				1.6785847606783757,
				-1.377966112244319,
				-1.9046022215108032,
				-0.6880380664940153,
				-0.8153764132921372,
				1.7398026612522628,
				0.25165406828325454,
				0.3631435142919232,
				-0.6969218385597286,
				-0.14848264242507034,
				2.345687302477772,
				-1.254104507351412,
				-0.7462151234707342,
				-0.7307869955058617,
				-1.8260184497165635,
				0.5540770121298065,
				-1.1629598511742734,
				-0.34690617783328387,
				0.33171383901989154,
				0.39538630456158563,
